7.119845747947692871e-01
3.718264997005462646e-01
3.754527866840362549e-01
2.569094300270080566e-01
3.905282914638519287e-01
1.111563295125961304e-01
1.641250103712081909e-01
5.262263491749763489e-02
6.020295247435569763e-02
3.361608088016510010e-01
-1.772498786449432373e-01
3.985738456249237061e-01
-6.540265865623950958e-03
8.364624530076980591e-02
1.644775569438934326e-01
-4.881224334239959717e-01
-5.610174536705017090e-01
-4.066951274871826172e-01
-3.075957112014293671e-02
9.410014003515243530e-02
1.811111271381378174e-01
-2.790628373622894287e-01
-2.792707979679107666e-01
-4.152610301971435547e-01
-3.389835059642791748e-01
-5.736606121063232422e-01
-4.757115840911865234e-01
2.201284468173980713e-01
2.722211182117462158e-01
1.884835958480834961e-01
-4.991649389266967773e-01
-4.927925467491149902e-01
-4.114201664924621582e-01
3.395867347717285156e-02
-2.360951155424118042e-01
-2.960802018642425537e-01
6.527380943298339844e-01
5.290708541870117188e-01
5.271837711334228516e-01
-3.092200756072998047e-01
6.006761686876416206e-04
-2.081729471683502197e-01
-1.962075531482696533e-01
-1.719713211059570312e-01
1.260357648134231567e-01
-8.914031833410263062e-02
-1.896503269672393799e-01
-1.070907413959503174e-01
2.967370860278606415e-02
4.264996051788330078e-01
1.981022655963897705e-01
3.218662738800048828e-01
2.208480983972549438e-01
1.561504751443862915e-01
2.096469700336456299e-02
1.126667559146881104e-01
-4.635419249534606934e-01
3.375192284584045410e-01
4.341296851634979248e-01
1.849840134382247925e-01
-6.092063710093498230e-02
-6.810440868139266968e-02
1.884923279285430908e-01
-1.843141950666904449e-02
-8.441121317446231842e-03
-4.640559479594230652e-02
-9.131618589162826538e-02
-3.302952051162719727e-01
7.260817289352416992e-02
-2.021131962537765503e-01
-1.148052811622619629e-01
-2.781770564615726471e-02
-1.568719297647476196e-01
-2.841092944145202637e-01
-3.165478706359863281e-01
-2.621439695358276367e-01
8.901992440223693848e-02
6.526373326778411865e-02
-1.101458594202995300e-01
-6.107361912727355957e-01
-4.205715358257293701e-01
1.192637067288160324e-02
1.127843111753463745e-01
1.345497071743011475e-01
4.093946814537048340e-01
3.963515162467956543e-01
4.571443796157836914e-01
-4.784820377826690674e-01
1.949436813592910767e-01
4.951235372573137283e-03
-3.188626766204833984e-01
4.112494587898254395e-01
-1.899545490741729736e-01
2.125162817537784576e-02
8.768229186534881592e-02
3.689631223678588867e-01
-7.968566566705703735e-02
-6.514254212379455566e-02
1.809668242931365967e-01
1.689970642328262329e-01
6.173708662390708923e-02
4.038078486919403076e-01
7.712666876614093781e-03
1.366863101720809937e-01
4.160702526569366455e-01
-8.079145848751068115e-02
4.128065705299377441e-01
5.009761452674865723e-01
-5.970619320869445801e-01
-6.722095608711242676e-01
-5.089884996414184570e-01
1.278540957719087601e-02
-3.741824924945831299e-01
3.602092862129211426e-01
3.366073369979858398e-01
1.045730262994766235e-01
-2.038420550525188446e-02
-6.280030012130737305e-01
-6.094194054603576660e-01
-5.074431896209716797e-01
-1.280715614557266235e-01
-2.058344483375549316e-01
-1.201176345348358154e-01
9.188181906938552856e-02
-7.367930561304092407e-02
-3.993379324674606323e-02
6.011816263198852539e-01
4.061513245105743408e-01
2.654720544815063477e-01
-6.197062730789184570e-01
-3.991580903530120850e-01
-8.269461393356323242e-01
-2.092734128236770630e-01
-2.097415477037429810e-01
-1.889965087175369263e-01
1.547270417213439941e-01
2.612875401973724365e-01
3.890120089054107666e-01
-9.040383994579315186e-02
-2.703316509723663330e-01
-1.980446279048919678e-01
-5.388388037681579590e-02
2.182406783103942871e-01
1.546902358531951904e-01
-3.025859892368316650e-01
-3.885262608528137207e-01
-2.654090523719787598e-01
-2.546039037406444550e-02
-1.056398153305053711e-01
-1.286481171846389771e-01
4.703798890113830566e-01
5.117940902709960938e-01
2.490057051181793213e-01
8.928757905960083008e-02
5.073655024170875549e-02
-1.034776493906974792e-01
2.873529493808746338e-01
3.615197837352752686e-01
6.688007712364196777e-01
-4.553962349891662598e-01
-5.193150043487548828e-01
-4.097575545310974121e-01
-3.049831092357635498e-01
-2.976731657981872559e-01
-2.877444326877593994e-01
-3.632027655839920044e-02
1.643451750278472900e-01
4.658164083957672119e-01
2.974729835987091064e-01
2.107297331094741821e-01
-2.925554104149341583e-02
1.419766247272491455e-01
-2.151215225458145142e-01
5.095857009291648865e-02
1.844746768474578857e-01
-9.457632154226303101e-02
3.382321298122406006e-01
-3.061563670635223389e-01
-1.303027272224426270e-01
5.267815291881561279e-02
6.144181825220584869e-03
-8.698087185621261597e-02
-2.870703339576721191e-01
-2.763473093509674072e-01
1.488846391439437866e-01
1.092730015516281128e-01
-2.220417857170104980e-01
-1.738579012453556061e-02
-4.947357475757598877e-01
7.346442341804504395e-02
1.674066781997680664e-01
4.013957083225250244e-02
1.678124666213989258e-01
1.739046871662139893e-01
2.071178704500198364e-01
-5.230681225657463074e-02
-1.429701894521713257e-01
1.098958477377891541e-01
1.253278404474258423e-01
2.253719866275787354e-01
2.781670391559600830e-01
7.330043315887451172e-01
7.317189574241638184e-01
6.084316968917846680e-01
5.595780014991760254e-01
2.865335643291473389e-01
1.272284537553787231e-01
-6.535231322050094604e-02
3.801184473559260368e-03
-1.567416191101074219e-01
-2.692283689975738525e-02
-4.468671083450317383e-01
-4.545972049236297607e-01
4.909572005271911621e-02
-3.707448542118072510e-01
-1.731305420398712158e-01
-5.027689933776855469e-01
-1.291448920965194702e-01
-4.319584369659423828e-02
-1.440611332654953003e-01
-5.687088370323181152e-01
-6.535290479660034180e-01
-2.693553566932678223e-01
-1.212516278028488159e-01
-7.410755753517150879e-02
2.652883827686309814e-01
1.337012946605682373e-01
1.135982498526573181e-01
-2.510017156600952148e-01
-7.394023984670639038e-02
-3.197494447231292725e-01
1.259201858192682266e-02
-8.955285698175430298e-02
4.321967437863349915e-02
-7.456804811954498291e-02
4.720195010304450989e-02
-2.528446614742279053e-01
-1.308830231428146362e-01
-2.293118834495544434e-01
-3.803026378154754639e-01
-4.380949735641479492e-01
-2.385856509208679199e-01
-1.232625022530555725e-01
6.490423679351806641e-01
7.193443179130554199e-01
6.252722144126892090e-01
9.958901256322860718e-02
-7.651308178901672363e-02
9.221068769693374634e-02
2.913286387920379639e-01
2.863455414772033691e-01
2.412100434303283691e-01
-2.628780305385589600e-01
-2.083279043436050415e-01
-1.497441828250885010e-01
-3.567533195018768311e-01
3.504869043827056885e-01
3.319161236286163330e-01
3.281394839286804199e-01
-3.805384337902069092e-01
-1.367275118827819824e-01
-1.862319409847259521e-01
-2.660608589649200439e-01
-2.135224640369415283e-01
6.089626997709274292e-02
2.948105335235595703e-02
1.436852514743804932e-01
-3.173546791076660156e-01
-6.362377405166625977e-01
-3.708672821521759033e-01
2.041973620653152466e-01
-1.727530732750892639e-02
-1.078683286905288696e-01
2.209531217813491821e-01
-2.577060461044311523e-01
2.878641709685325623e-02
-1.199954748153686523e-01
-2.531944029033184052e-02
3.309372439980506897e-02
-3.021988570690155029e-01
1.778846681118011475e-01
-1.753490418195724487e-02
-4.577037990093231201e-01
-1.101508736610412598e-01
-1.739379763603210449e-01
3.630953729152679443e-01
3.946238756179809570e-01
2.309796214103698730e-01
6.249850988388061523e-01
7.656124234199523926e-01
7.502052187919616699e-01
3.907215595245361328e-01
4.916246533393859863e-01
4.287572503089904785e-01
-6.463654637336730957e-01
-3.058595061302185059e-01
-3.490409553050994873e-01
-7.271247506141662598e-01
-4.160289764404296875e-01
-4.086149036884307861e-01
3.616971373558044434e-01
6.382955312728881836e-01
-2.203402519226074219e-01
3.789163231849670410e-01
3.950001299381256104e-02
3.014613986015319824e-01
2.431928962469100952e-01
3.433606624603271484e-01
2.508184909820556641e-01
-4.227052032947540283e-01
-5.326277613639831543e-01
-2.528228461742401123e-01
-5.062023401260375977e-01
-1.281329244375228882e-01
1.513288021087646484e-01
-1.971342265605926514e-01
-3.636111319065093994e-01
-1.870622485876083374e-01
7.902801036834716797e-02
1.943539530038833618e-01
2.614938318729400635e-01
-4.696655571460723877e-01
-4.417373239994049072e-01
-2.814397811889648438e-01
3.248817026615142822e-01
5.291541218757629395e-01
4.634584486484527588e-01
2.308517098426818848e-01
1.805849224328994751e-01
3.203479051589965820e-01
-5.365437269210815430e-01
-4.457203447818756104e-01
-5.190321207046508789e-01
2.466103583574295044e-01
-2.449955344200134277e-01
-2.980094552040100098e-01
3.964647948741912842e-01
2.287961989641189575e-01
-6.610186398029327393e-02
-6.415160000324249268e-02
-3.071767389774322510e-01
-2.107380777597427368e-01
3.225601613521575928e-01
3.344074189662933350e-01
2.783027291297912598e-01
1.937563866376876831e-01
-1.359168142080307007e-01
2.361435070633888245e-02
-9.039340913295745850e-02
-9.394817799329757690e-02
2.567313313484191895e-01
1.564350128173828125e-01
3.452706336975097656e-01
4.468191266059875488e-01
4.023114144802093506e-01
3.610591888427734375e-01
1.617000550031661987e-01
3.454018831253051758e-01
2.284222543239593506e-01
1.568020284175872803e-01
4.517276287078857422e-01
5.155650377273559570e-01
2.827100455760955811e-01
-2.802107334136962891e-01
-1.219517663121223450e-01
-2.650305032730102539e-01
-5.366973876953125000e-01
-3.909914195537567139e-01
-2.837396860122680664e-01
7.311946153640747070e-02
-6.226510182023048401e-02
-4.915315508842468262e-01
1.986899375915527344e-01
3.535645902156829834e-01
3.451340496540069580e-01
1.093374788761138916e-01
1.747543364763259888e-02
-8.517428487539291382e-02
4.951966553926467896e-02
-1.606578826904296875e-01
3.335374593734741211e-01
4.996690433472394943e-03
-9.140859544277191162e-02
-2.572314143180847168e-01
6.581070423126220703e-01
5.754770636558532715e-01
3.417087495326995850e-01
2.006793916225433350e-01
2.812351584434509277e-01
3.167808428406715393e-02
-1.086975820362567902e-02
-1.063585802912712097e-01
9.662135690450668335e-02
-6.472881138324737549e-02
2.645921409130096436e-01
3.890490829944610596e-01
3.452089056372642517e-02
1.940421760082244873e-01
1.059902757406234741e-01
-4.316107034683227539e-01
-5.101773738861083984e-01
-4.422253072261810303e-01
-7.416647672653198242e-02
-1.343420445919036865e-01
9.641893953084945679e-02
-8.349415659904479980e-02
-1.259772479534149170e-01
-7.847506552934646606e-02
-1.319679468870162964e-01
-4.982638955116271973e-01
-2.917793095111846924e-01
1.162187755107879639e-01
2.056307494640350342e-01
1.187560185790061951e-01
-2.713477015495300293e-01
-4.924741089344024658e-01
-2.885056734085083008e-01
-3.437145426869392395e-02
-4.009259045124053955e-01
-2.887634634971618652e-01
6.280758380889892578e-01
3.599006831645965576e-01
2.885998487472534180e-01
-9.808224439620971680e-02
-1.396715939044952393e-01
1.649833470582962036e-01
-2.611053287982940674e-01
-1.032087206840515137e-01
5.845899879932403564e-02
-1.515343505889177322e-02
4.220750182867050171e-02
-3.298584520816802979e-01
2.148836553096771240e-01
3.728787600994110107e-01
2.447450309991836548e-01
2.947286665439605713e-01
1.864158511161804199e-01
2.083683311939239502e-01
1.402741819620132446e-01
-3.098993599414825439e-01
-5.107206702232360840e-01
2.508152425289154053e-01
3.741525411605834961e-01
1.617962867021560669e-01
-7.889046519994735718e-02
-2.797760628163814545e-02
-1.863209456205368042e-01
-1.255221217870712280e-01
4.505834728479385376e-02
-3.958404362201690674e-01
-9.624936431646347046e-02
-4.022932946681976318e-01
-2.712964825332164764e-02
-3.029358088970184326e-01
1.181129813194274902e-01
4.312393441796302795e-02
-2.696007788181304932e-01
-2.420612424612045288e-01
-3.809860944747924805e-01
-1.643519848585128784e-02
-3.898367285728454590e-01
-3.897777199745178223e-01
-3.252052962779998779e-01
-5.043672323226928711e-01
-3.503651320934295654e-01
2.661391161382198334e-02
2.931349352002143860e-02
1.928883343935012817e-01
2.216021865606307983e-01
4.066919088363647461e-01
5.749090909957885742e-01
1.139815598726272583e-01
1.097455769777297974e-01
-3.916847705841064453e-01
5.587606504559516907e-02
-4.177068546414375305e-02
1.154289543628692627e-01
1.736551672220230103e-01
3.722546100616455078e-01
3.925721347332000732e-01
-1.790344566106796265e-01
1.009471938014030457e-01
1.374253630638122559e-01
4.482426494359970093e-02
1.912507563829421997e-01
3.125009834766387939e-01
-2.077062800526618958e-02
5.109916329383850098e-01
3.341322839260101318e-01
1.630065292119979858e-01
3.818957805633544922e-01
1.361528635025024414e-01
-7.722470760345458984e-01
-6.666821837425231934e-01
-4.778219759464263916e-01
-1.717616766691207886e-01
-2.271454036235809326e-01
1.714155822992324829e-01
4.484760761260986328e-01
-2.174607478082180023e-03
1.662702560424804688e-01
-5.429197549819946289e-01
-5.731719136238098145e-01
-4.138753712177276611e-01
-4.722689986228942871e-01
-9.176877140998840332e-02
-1.118422299623489380e-01
-1.039002276957035065e-02
2.949514687061309814e-01
-9.639221429824829102e-02
5.074617862701416016e-01
5.159629583358764648e-01
1.731512546539306641e-01
-4.837188124656677246e-01
-5.860127210617065430e-01
-6.541482806205749512e-01
-1.968548297882080078e-01
-1.398848444223403931e-01
-2.024147063493728638e-01
1.882798075675964355e-01
3.633569777011871338e-01
4.043084681034088135e-01
-2.206583917140960693e-01
1.166120246052742004e-01
1.049486845731735229e-01
-1.472245156764984131e-01
1.714728474617004395e-01
-4.016688466072082520e-02
-4.894269406795501709e-01
-3.394986093044281006e-01
-1.261726915836334229e-01
1.130784153938293457e-01
7.542601972818374634e-02
-2.587420307099819183e-02
5.161712169647216797e-01
5.425090193748474121e-01
1.876009255647659302e-01
1.807835847139358521e-01
3.022047318518161774e-02
4.167038574814796448e-02
5.114452242851257324e-01
3.233575224876403809e-01
4.093162119388580322e-01
-3.979429900646209717e-01
-4.892055690288543701e-01
-3.861624896526336670e-01
-2.191577702760696411e-01
-2.181577086448669434e-01
-4.092661440372467041e-01
1.413639038801193237e-01
-2.120673656463623047e-01
3.202673792839050293e-01
5.676821246743202209e-02
-4.262231588363647461e-01
-2.408432811498641968e-01
1.136837452650070190e-01
1.486036926507949829e-01
-5.865695700049400330e-02
2.683301270008087158e-01
1.034406665712594986e-02
1.101241111755371094e-01
-2.508555054664611816e-01
-2.290676832199096680e-01
1.110268384218215942e-01
6.700520217418670654e-02
-1.645417511463165283e-01
-1.570119112730026245e-01
8.266763389110565186e-02
-2.996571660041809082e-01
1.662340313196182251e-01
-2.555019259452819824e-01
-2.938573956489562988e-01
-1.726988703012466431e-01
2.294280380010604858e-01
1.319855749607086182e-01
4.842568188905715942e-02
8.155745267868041992e-02
1.783478707075119019e-01
3.458695709705352783e-01
-3.982853889465332031e-01
-3.323907554149627686e-01
-1.534534096717834473e-01
5.399768799543380737e-02
2.956732213497161865e-01
3.395677804946899414e-01
5.785465240478515625e-01
6.573716998100280762e-01
4.441122710704803467e-01
4.610507786273956299e-01
3.210798799991607666e-01
1.526787877082824707e-01
-1.652979701757431030e-01
-3.797097131609916687e-02
-2.944515049457550049e-01
-2.025413960218429565e-01
1.392276287078857422e-01
-2.838865518569946289e-01
7.696391642093658447e-02
5.473306030035018921e-02
-2.961652874946594238e-01
-4.679495692253112793e-01
-2.244054526090621948e-01
-2.386774569749832153e-01
-6.341401487588882446e-02
-4.766247570514678955e-01
-4.106377661228179932e-01
-2.248881906270980835e-01
-2.541383504867553711e-01
8.354391157627105713e-02
2.856498658657073975e-01
2.218683511018753052e-01
-1.381133198738098145e-01
-6.396654248237609863e-02
-4.347812756896018982e-02
-1.551692634820938110e-01
1.384285837411880493e-01
-2.350439876317977905e-02
6.048123911023139954e-02
-1.802377700805664062e-01
-2.104042768478393555e-01
4.702474772930145264e-01
-1.271436642855405807e-02
-3.916873633861541748e-01
3.878607228398323059e-02
-4.875549972057342529e-01
-2.418601661920547485e-01
-2.275475710630416870e-01
5.854417085647583008e-01
6.284467577934265137e-01
4.039741754531860352e-01
-8.121433109045028687e-02
-1.448685973882675171e-01
1.902703344821929932e-01
2.280885875225067139e-01
3.993859887123107910e-01
-2.485787845216691494e-04
-2.757641375064849854e-01
-1.088990643620491028e-01
-1.063473597168922424e-01
1.555741578340530396e-01
-4.299782961606979370e-02
-2.739372253417968750e-01
-1.378599405288696289e-01
1.479584723711013794e-01
-1.055286899209022522e-01
-2.650572359561920166e-01
-2.680824995040893555e-01
-4.244563728570938110e-02
-2.731584310531616211e-01
1.474933028221130371e-01
1.188758313655853271e-01
-2.766506969928741455e-01
-4.291020035743713379e-01
-4.197533130645751953e-01
2.354624271392822266e-01
-6.627666950225830078e-02
-1.484655737876892090e-01
1.243693828582763672e-01
7.835185155272483826e-03
-3.996467888355255127e-01
-9.853280335664749146e-02
1.113215610384941101e-01
2.689085602760314941e-01
2.674506604671478271e-01
-3.357720971107482910e-01
-3.635054230690002441e-01
-3.673920333385467529e-01
-2.320835739374160767e-01
-2.099750339984893799e-01
2.952098548412322998e-01
1.093089953064918518e-01
1.209774147719144821e-02
5.602341890335083008e-01
7.963421344757080078e-01
5.366911292076110840e-01
3.560175001621246338e-01
4.216503202915191650e-01
4.362565279006958008e-01
-7.700531482696533203e-01
-6.385526061058044434e-01
-5.953589081764221191e-01
-6.106235980987548828e-01
-3.879367411136627197e-01
-2.953801751136779785e-01
3.600797057151794434e-01
1.941986382007598877e-01
4.453229904174804688e-01
4.333053231239318848e-01
2.417118847370147705e-01
3.038592338562011719e-01
2.558753788471221924e-01
1.998833715915679932e-01
3.578271865844726562e-01
-5.702247023582458496e-01
-5.817860960960388184e-01
-1.315420418977737427e-01
-4.159273207187652588e-01
-2.853224575519561768e-01
-1.045955866575241089e-01
-3.049960434436798096e-01
-2.109722048044204712e-01
-6.996856629848480225e-02
3.827892988920211792e-02
-3.270881623029708862e-02
3.945305645465850830e-01
-4.805382788181304932e-01
-5.550687909126281738e-01
-4.348861277103424072e-01
3.485849499702453613e-01
3.307777345180511475e-01
3.934334516525268555e-01
-8.637274056673049927e-02
5.690430402755737305e-01
5.886669754981994629e-01
-4.358842968940734863e-01
-4.942134022712707520e-01
-2.787916362285614014e-01
3.635259866714477539e-01
-1.938388794660568237e-01
-5.354411602020263672e-01
3.104754388332366943e-01
2.043415904045104980e-01
1.027159765362739563e-01
-1.288345903158187866e-01
-2.048634886741638184e-01
-5.267154052853584290e-02
5.375028848648071289e-01
3.496342599391937256e-01
2.889657020568847656e-01
5.318761244416236877e-02
-9.934746474027633667e-02
7.655874360352754593e-04
1.647925376892089844e-02
-1.248322576284408569e-01
3.597699105739593506e-01
1.294010132551193237e-01
4.565029144287109375e-01
5.714486837387084961e-01
3.245440721511840820e-01
2.155648916959762573e-01
2.993924915790557861e-01
4.584126770496368408e-01
1.050461232662200928e-01
8.481776714324951172e-02
3.419797122478485107e-01
5.289014577865600586e-01
-1.260218918323516846e-01
-5.320529937744140625e-01
3.707135319709777832e-01
9.592998772859573364e-02
-7.197569012641906738e-01
-3.932356238365173340e-01
-2.160528004169464111e-01
-3.449507430195808411e-02
-2.967566847801208496e-01
-3.950916528701782227e-01
1.816210448741912842e-01
4.634099006652832031e-01
2.935001552104949951e-01
1.494598388671875000e-01
2.695482671260833740e-01
8.794736117124557495e-03
-1.027312278747558594e-01
-1.020505875349044800e-01
-2.262026667594909668e-01
2.124508619308471680e-01
8.897065371274948120e-02
-7.624707370996475220e-02
2.542925477027893066e-01
1.860019862651824951e-01
-9.115030616521835327e-02
2.481065988540649414e-01
5.898715928196907043e-02
1.967938542366027832e-01
3.367312997579574585e-02
1.360613703727722168e-01
-3.577386140823364258e-01
1.135500967502593994e-01
1.110254228115081787e-02
1.546558141708374023e-01
2.797019183635711670e-01
4.398533105850219727e-01
3.493390083312988281e-01
-1.652428507804870605e-02
-4.011053740978240967e-01
1.657492481172084808e-02
-2.710222601890563965e-01
-3.604996204376220703e-01
-2.616980373859405518e-01
-1.031134836375713348e-02
-3.818505406379699707e-01
-1.083463151007890701e-02
-9.771484881639480591e-03
-5.343831777572631836e-01
-5.085209608078002930e-01
2.439825981855392456e-01
3.333184421062469482e-01
3.439086973667144775e-01
-1.869152486324310303e-01
-4.459331333637237549e-01
-6.214072704315185547e-01
-2.013853639364242554e-01
-7.303218543529510498e-02
-3.909387290477752686e-01
4.343864321708679199e-01
1.554085016250610352e-01
1.648178249597549438e-01
4.821981303393840790e-03
-3.063992597162723541e-02
4.396291077136993408e-02
-3.057230114936828613e-01
-3.032879829406738281e-01
1.242186352610588074e-01
-2.057774364948272705e-01
-3.495998084545135498e-01
-2.217837125062942505e-01
-1.962977796792984009e-01
-6.658647209405899048e-02
-4.900009930133819580e-02
4.785754084587097168e-01
2.414433360099792480e-01
2.767292559146881104e-01
2.952021919190883636e-02
-2.839150130748748779e-01
-2.183118611574172974e-01
-1.867107003927230835e-01
-2.437853068113327026e-02
-1.954712206497788429e-03
-4.192214608192443848e-01
-1.216085180640220642e-01
-2.412066757678985596e-01
1.914377324283123016e-03
-6.395404338836669922e-01
-4.035644829273223877e-01
-1.720447242259979248e-01
-1.258923020213842392e-02
3.578438237309455872e-02
2.092910557985305786e-01
-2.375519424676895142e-01
2.437669485807418823e-01
-2.798936516046524048e-02
-2.031610459089279175e-01
-3.161039948463439941e-01
6.914773024618625641e-03
-1.500003784894943237e-01
-1.536911576986312866e-01
-4.457050263881683350e-01
-3.724236190319061279e-01
-3.151207864284515381e-01
3.104909956455230713e-01
1.829086989164352417e-01
3.438084125518798828e-01
1.187779605388641357e-01
3.449131846427917480e-01
4.614702165126800537e-01
2.432042658329010010e-01
2.237274348735809326e-01
1.805859245359897614e-02
-6.805796176195144653e-02
-5.091167092323303223e-01
2.434628903865814209e-01
4.593024551868438721e-01
-1.324218213558197021e-01
1.427529007196426392e-01
2.148066610097885132e-01
1.638054698705673218e-01
1.948108673095703125e-01
3.843595385551452637e-01
1.055607497692108154e-01
1.695516258478164673e-01
-1.915321871638298035e-02
5.253939628601074219e-01
4.181296825408935547e-01
1.876043528318405151e-01
5.030118674039840698e-02
4.663791656494140625e-01
-6.842924356460571289e-01
-3.880159556865692139e-01
-4.690501391887664795e-01
4.843763262033462524e-02
-1.097497120499610901e-01
3.065894730389118195e-02
-1.543174684047698975e-01
1.637483239173889160e-01
-3.904222548007965088e-01
-1.138145700097084045e-01
-7.334107160568237305e-02
2.153496071696281433e-02
-3.404404520988464355e-01
3.028022646903991699e-01
4.469001591205596924e-01
-8.715017465874552727e-04
-8.387925475835800171e-02
-4.686361849308013916e-01
4.390403628349304199e-01
1.367068588733673096e-01
2.404326796531677246e-01
-2.330163568258285522e-01
-2.447182089090347290e-01
-5.062084197998046875e-01
-6.115446239709854126e-02
2.012004517018795013e-02
3.574785217642784119e-02
3.503844738006591797e-01
5.594422817230224609e-01
2.953903377056121826e-01
2.901741862297058105e-01
1.839132606983184814e-01
-4.410308897495269775e-01
1.733622103929519653e-01
3.570993542671203613e-01
8.996443450450897217e-02
-4.631055593490600586e-01
-5.311066508293151855e-01
-2.350247204303741455e-01
-1.825973242521286011e-01
-1.965248882770538330e-01
-1.463570594787597656e-01
3.833844363689422607e-01
1.377109438180923462e-01
-6.004008650779724121e-02
-3.581308126449584961e-01
-3.466231524944305420e-01
-2.012261599302291870e-01
1.407078504562377930e-01
2.961447238922119141e-01
5.059303045272827148e-01
-4.635157287120819092e-01
-6.651204228401184082e-01
-7.293775677680969238e-01
2.863797545433044434e-02
-3.166279494762420654e-01
-3.280150294303894043e-01
-3.797934949398040771e-01
3.540452718734741211e-01
-2.710714936256408691e-01
-1.339767575263977051e-01
2.435661405324935913e-01
-1.943204998970031738e-01
4.026271700859069824e-01
2.925911545753479004e-01
-4.735520482063293457e-01
3.350641727447509766e-01
-2.596438229084014893e-01
-1.553983241319656372e-02
-3.354187309741973877e-01
-7.327564060688018799e-02
-3.838428063318133354e-03
-1.566340923309326172e-01
-3.095041215419769287e-01
-2.609452903270721436e-01
2.839536964893341064e-01
3.286042436957359314e-02
9.554927796125411987e-02
5.359514430165290833e-02
-1.278045177459716797e-01
-3.051111102104187012e-01
-1.399693489074707031e-01
-3.098658025264739990e-01
-1.204678192734718323e-01
1.171475499868392944e-01
3.027921020984649658e-01
6.879510730504989624e-02
-1.952457129955291748e-01
2.392838150262832642e-01
-2.725063264369964600e-01
3.552864789962768555e-01
3.918640315532684326e-01
3.489733338356018066e-01
3.971325755119323730e-01
5.013532042503356934e-01
5.833578109741210938e-01
3.498685061931610107e-01
1.986738145351409912e-01
2.545729875564575195e-01
-3.618980348110198975e-01
-4.599108099937438965e-01
-7.462304551154375076e-03
6.660395115613937378e-02
9.467935562133789062e-02
2.116359174251556396e-01
-2.557733952999114990e-01
-3.526810556650161743e-02
-5.429071784019470215e-01
-1.410049498081207275e-01
-2.575056254863739014e-01
-1.954517364501953125e-01
-2.358084917068481445e-01
-3.866249322891235352e-01
-9.953019022941589355e-02
-1.917055994272232056e-01
4.482162743806838989e-02
2.738507688045501709e-01
-3.974116593599319458e-02
6.040280312299728394e-02
1.283617131412029266e-02
-2.782358229160308838e-01
-1.606023311614990234e-01
6.780587881803512573e-02
-4.098568260669708252e-01
-1.346551179885864258e-01
1.195601224899291992e-01
-5.710201859474182129e-01
-1.542374491691589355e-01
-3.208871781826019287e-01
-7.835085690021514893e-02
-6.504334211349487305e-01
-2.041321396827697754e-01
-1.130139827728271484e-01
-1.901660561561584473e-01
-3.077455461025238037e-01
1.797754466533660889e-01
3.278486132621765137e-01
4.156132936477661133e-01
-7.194865494966506958e-02
-2.200661748647689819e-01
-3.719201683998107910e-02
2.952951192855834961e-01
3.551489412784576416e-01
4.664308130741119385e-01
-3.659726679325103760e-01
-2.617645263671875000e-01
-2.484749257564544678e-01
1.685159653425216675e-01
-2.003496736288070679e-01
1.428186241537332535e-02
2.113536000251770020e-01
1.536484807729721069e-01
-4.035289287567138672e-01
-6.566312313079833984e-01
-5.942852497100830078e-01
-3.116004168987274170e-01
-1.909391134977340698e-01
-3.188602030277252197e-01
6.451722234487533569e-02
-6.661248207092285156e-01
-6.387174129486083984e-01
-6.100776791572570801e-01
5.382874011993408203e-01
3.534104824066162109e-01
2.040355838835239410e-02
-1.631195545196533203e-01
9.698218852281570435e-02
4.272213578224182129e-01
5.286889076232910156e-01
7.231802344322204590e-01
6.039087176322937012e-01
-2.212574481964111328e-01
-4.616927802562713623e-01
-1.229444816708564758e-01
-5.962905287742614746e-02
2.439603656530380249e-01
1.783396154642105103e-01
-4.489994794130325317e-02
1.630425006151199341e-01
5.286616086959838867e-01
3.074436783790588379e-01
7.826982736587524414e-01
5.440531373023986816e-01
4.818595647811889648e-01
4.462428390979766846e-01
4.311506748199462891e-01
-4.256839156150817871e-01
-6.859126687049865723e-02
-1.382644921541213989e-01
-3.654494583606719971e-01
-1.274089366197586060e-01
-7.358478009700775146e-02
2.336899191141128540e-01
2.268460094928741455e-01
4.203760027885437012e-01
8.837716281414031982e-02
2.545276582241058350e-01
2.504846155643463135e-01
9.044395387172698975e-02
-1.164399012923240662e-01
1.178326383233070374e-01
-3.646302223205566406e-01
-4.088487625122070312e-01
-2.394618093967437744e-01
-7.180314064025878906e-01
-3.062091171741485596e-01
-3.754111826419830322e-01
-1.995567083358764648e-01
-3.709401488304138184e-01
-2.228769361972808838e-01
9.171869605779647827e-02
3.603028953075408936e-01
5.048692226409912109e-01
-6.293755769729614258e-01
-6.106660962104797363e-01
-5.223420858383178711e-01
2.194894701242446899e-01
1.418700367212295532e-01
3.788017332553863525e-01
-1.227193549275398254e-01
-6.772959232330322266e-02
7.053663581609725952e-02
-6.641348451375961304e-02
-2.554075419902801514e-01
-2.418960630893707275e-01
2.632868289947509766e-01
-3.144273757934570312e-01
3.649734426289796829e-03
2.742114663124084473e-01
3.275702297687530518e-01
3.745816648006439209e-01
-2.919671125710010529e-02
-2.518060207366943359e-01
-3.132930025458335876e-02
5.106843113899230957e-01
3.767951130867004395e-01
2.120537459850311279e-01
2.432133108377456665e-01
3.956235945224761963e-01
3.056567311286926270e-01
4.021600782871246338e-01
4.097623229026794434e-01
3.392168283462524414e-01
2.373871952295303345e-01
-1.345483064651489258e-01
-3.583649918437004089e-02
1.510159522294998169e-01
-5.421032756567001343e-02
-5.325723811984062195e-02
2.676529586315155029e-01
1.948070526123046875e-02
-1.537046581506729126e-01
-2.252098023891448975e-01
-1.904941797256469727e-01
-8.934393525123596191e-02
-2.472778409719467163e-01
-1.300506442785263062e-01
-4.864833503961563110e-02
-4.341874420642852783e-01
-4.451240003108978271e-01
-5.175056457519531250e-01
-1.632143855094909668e-01
-1.860671192407608032e-01
-3.867397904396057129e-01
3.339955508708953857e-01
5.577490925788879395e-01
7.589727640151977539e-01
1.310355961322784424e-01
3.652807325124740601e-02
-8.222053200006484985e-02
-2.087696939706802368e-01
-3.263843059539794922e-01
-2.642682194709777832e-01
1.104165315628051758e-01
-2.563003003597259521e-01
-4.422482848167419434e-01
-5.973454117774963379e-01
-4.023742079734802246e-01
-7.276535630226135254e-01
-1.713552027940750122e-01
-1.944034397602081299e-01
-1.460090428590774536e-01
-3.999887779355049133e-02
-2.035072147846221924e-01
5.229974538087844849e-02
-4.381314218044281006e-01
-2.958766520023345947e-01
-7.512592673301696777e-01
4.016833603382110596e-01
1.678344756364822388e-01
1.198367476463317871e-01
5.897938609123229980e-01
2.844820320606231689e-01
1.991287916898727417e-01
-4.866647347807884216e-02
-4.025742784142494202e-02
1.303717344999313354e-01
4.657756090164184570e-01
2.694882750511169434e-01
-3.061873018741607666e-01
5.644765496253967285e-01
1.173080578446388245e-01
3.271361887454986572e-01
-5.356961488723754883e-01
-4.745700061321258545e-01
-6.960350871086120605e-01
3.219393193721771240e-01
2.439349889755249023e-01
6.222903132438659668e-01
4.524027407169342041e-01
4.377582669258117676e-01
7.955215573310852051e-01
-3.987465202808380127e-01
-2.565885782241821289e-01
-1.880582422018051147e-01
1.003309860825538635e-01
1.572030186653137207e-01
3.120088875293731689e-01
-1.056108772754669189e-01
-9.293194115161895752e-02
-1.420750468969345093e-01
-2.293599694967269897e-01
-8.714142441749572754e-02
-2.219697460532188416e-02
-5.928897261619567871e-01
-1.921282857656478882e-01
5.895514041185379028e-02
-1.582991927862167358e-01
-2.082719355821609497e-01
-3.619310855865478516e-01
1.633222401142120361e-01
2.267111241817474365e-01
-1.502815354615449905e-02
-2.184457331895828247e-01
-1.930545568466186523e-01
-2.148776352405548096e-01
9.154714643955230713e-02
1.042532771825790405e-01
-8.617652207612991333e-02
-2.718946635723114014e-01
-9.151837974786758423e-02
1.096425279974937439e-01
-5.186404287815093994e-02
1.429183483123779297e-01
3.655787557363510132e-02
1.789581030607223511e-01
8.759120851755142212e-02
-3.676325380802154541e-01
2.173727750778198242e-01
4.141307175159454346e-01
-3.386678993701934814e-01
3.087282478809356689e-01
4.995415508747100830e-01
-2.173471897840499878e-01
3.562835156917572021e-01
2.258071601390838623e-01
1.539112031459808350e-01
-2.818637788295745850e-01
-1.064940318465232849e-01
3.557712584733963013e-02
-2.048751413822174072e-01
-5.585848689079284668e-01
-5.072701573371887207e-01
4.954246059060096741e-02
7.506895810365676880e-02
3.360622525215148926e-01
-2.698536217212677002e-01
-4.290234670042991638e-02
-2.760614454746246338e-01
3.284545838832855225e-01
-7.061481475830078125e-01
-4.528644680976867676e-01
-1.627307832241058350e-01
-3.168762028217315674e-01
-2.674492299556732178e-01
-4.190939068794250488e-01
-1.145764216780662537e-01
-2.626676559448242188e-01
2.322864234447479248e-01
1.842568069696426392e-01
-3.746258318424224854e-01
-8.267182111740112305e-02
4.083192348480224609e-01
-5.817341804504394531e-02
3.239344060420989990e-01
2.673579454421997070e-01
7.814240455627441406e-01
3.367171287536621094e-01
3.622759282588958740e-01
2.253376245498657227e-01
-1.545684337615966797e-01
-4.924601018428802490e-01
-2.141252160072326660e-01
5.310565233230590820e-01
7.703615427017211914e-01
7.802747488021850586e-01
2.270650863647460938e-01
-2.737306356430053711e-01
-2.757322788238525391e-01
-7.734447121620178223e-01
4.331625625491142273e-02
-1.464500427246093750e-01
-3.036782145500183105e-01
-4.734977483749389648e-01
-5.648238584399223328e-02
2.540026009082794189e-01
2.996634244918823242e-01
4.022328853607177734e-01
1.104834154248237610e-01
1.088876724243164062e-01
4.991245269775390625e-01
-2.458055466413497925e-01
-2.183314561843872070e-01
-3.021659851074218750e-01
1.366674900054931641e-01
6.444925069808959961e-02
3.410206139087677002e-01
3.607564270496368408e-01
5.059432387351989746e-01
2.486823350191116333e-01
2.120120674371719360e-01
4.072915911674499512e-01
5.995634794235229492e-01
2.559916377067565918e-01
6.323617696762084961e-02
-3.351599276065826416e-01
-4.605809971690177917e-02
-2.125929854810237885e-02
-3.657603561878204346e-01
9.675545990467071533e-02
-2.906974218785762787e-02
3.511703014373779297e-02
-3.578276187181472778e-02
-8.415616303682327271e-02
-3.906819522380828857e-01
2.678182423114776611e-01
2.073053121566772461e-01
3.710023462772369385e-01
6.293154358863830566e-01
4.686814546585083008e-01
6.428688764572143555e-01
1.168032884597778320e-01
-1.192968897521495819e-02
3.726450502872467041e-01
1.351557224988937378e-01
-2.086676210165023804e-01
-1.684230118989944458e-01
-3.397342860698699951e-01
-3.560872375965118408e-02
-1.253468990325927734e-01
3.463251516222953796e-02
-2.781755626201629639e-01
-1.189514398574829102e-01
-6.929731369018554688e-02
2.601076960563659668e-01
-6.423510611057281494e-02
1.653134524822235107e-01
2.568392455577850342e-01
2.237066477537155151e-01
4.224610626697540283e-01
-9.417816996574401855e-02
7.490394171327352524e-03
5.128403306007385254e-01
2.583740651607513428e-01
-2.613672614097595215e-01
2.094423323869705200e-01
1.946582458913326263e-02
-5.648393183946609497e-02
-3.806850910186767578e-01
-6.346231698989868164e-01
-1.901459693908691406e-01
-2.160677164793014526e-01
-2.635521292686462402e-01
-4.368795454502105713e-01
-1.161610484123229980e-01
-2.814870513975620270e-02
-2.472456693649291992e-01
-5.226097106933593750e-01
-8.196408748626708984e-01
-3.472535908222198486e-01
-1.719669103622436523e-01
-5.613071918487548828e-01
-1.594581604003906250e-01
3.238178491592407227e-01
2.660958766937255859e-01
1.070981025695800781e-01
9.153898805379867554e-02
2.589092850685119629e-01
1.588248014450073242e-01
2.689420580863952637e-01
2.367527633905410767e-01
2.805077135562896729e-01
5.350858345627784729e-02
-2.415098249912261963e-01
-3.190532922744750977e-01
5.288193225860595703e-01
1.400035470724105835e-01
3.793785870075225830e-01
-2.434995584189891815e-02
-4.287646443117409945e-04
6.629488617181777954e-02
2.917575538158416748e-01
8.505708724260330200e-02
3.085415363311767578e-01
6.512737600132822990e-04
3.160527348518371582e-01
2.174128741025924683e-01
-2.392182797193527222e-01
-7.826624065637588501e-02
-2.839732766151428223e-01
9.247740358114242554e-02
-3.470089137554168701e-01
-2.072446197271347046e-01
3.986079096794128418e-01
1.308808922767639160e-01
-1.488848179578781128e-01
1.711884886026382446e-01
3.655476570129394531e-01
4.022606015205383301e-01
-6.568809747695922852e-01
-2.566016614437103271e-01
-4.674909114837646484e-01
-3.315923362970352173e-02
-2.241247743368148804e-01
-2.613938599824905396e-02
-3.458759784698486328e-01
4.860300198197364807e-02
-2.027607113122940063e-01
4.236823916435241699e-01
2.203992009162902832e-01
1.929533034563064575e-01
-2.171408534049987793e-01
-3.834642767906188965e-01
9.057836723513901234e-04
-7.520472258329391479e-02
-2.830841839313507080e-01
3.938742280006408691e-01
-1.348223984241485596e-01
-3.592533171176910400e-01
-3.687440976500511169e-02
8.262111246585845947e-02
7.747226860374212265e-03
-1.753865159116685390e-03
-1.656520366668701172e-01
-1.911658942699432373e-01
1.976769566535949707e-01
-6.830900162458419800e-02
-7.246547378599643707e-03
2.032248824834823608e-01
4.556731507182121277e-02
2.162451595067977905e-01
1.656573414802551270e-01
4.921540990471839905e-02
-1.014261394739151001e-01
1.555872801691293716e-02
-4.287567734718322754e-01
1.661196500062942505e-01
-9.680993854999542236e-02
1.944305747747421265e-01
-2.298038452863693237e-03
2.624073624610900879e-01
-1.847569942474365234e-01
-3.142597973346710205e-01
-3.430565297603607178e-01
-3.523935079574584961e-01
-3.266026973724365234e-01
-1.635669469833374023e-01
-4.934609830379486084e-01
-4.697597026824951172e-01
-5.263156890869140625e-01
2.064404487609863281e-01
-2.386286258697509766e-01
7.069411873817443848e-02
8.867415785789489746e-01
7.746361494064331055e-01
5.937347412109375000e-01
-2.225650846958160400e-01
1.901870518922805786e-01
2.003745585680007935e-01
-5.740404725074768066e-01
-3.200986981391906738e-01
-3.456757664680480957e-01
1.380011381115764380e-04
1.337380558252334595e-01
1.031133532524108887e-01
4.971136450767517090e-01
5.459254384040832520e-01
4.174261093139648438e-01
5.240065455436706543e-01
-1.720151305198669434e-02
2.089647352695465088e-01
3.977778851985931396e-01
4.404567778110504150e-01
1.401289924979209900e-02
1.380786597728729248e-01
9.217112511396408081e-02
1.173894032835960388e-01
3.682366311550140381e-01
4.086983799934387207e-01
3.522202074527740479e-01
-6.726018786430358887e-01
-6.098586916923522949e-01
-6.993879675865173340e-01
-2.379751801490783691e-01
-2.076651155948638916e-01
-2.934538125991821289e-01
1.027422398328781128e-01
2.443198412656784058e-01
3.872774243354797363e-01
-4.953170716762542725e-01
-9.812552481889724731e-02
2.417529970407485962e-01
-2.000864595174789429e-01
-4.000270366668701172e-01
-6.628721952438354492e-02
3.613556325435638428e-01
1.424271911382675171e-01
6.846962869167327881e-02
-2.341429740190505981e-01
-4.359012246131896973e-01
7.109386380761861801e-03
-3.490699827671051025e-01
4.640456289052963257e-02
-1.279198378324508667e-01
-4.490162432193756104e-02
-3.361201584339141846e-01
-3.705036938190460205e-01
-1.929230242967605591e-01
-3.642398416996002197e-01
1.962739527225494385e-01
-2.293354272842407227e-01
-3.308836221694946289e-01
-3.582565188407897949e-01
2.510066628456115723e-01
2.754053771495819092e-01
1.758467704057693481e-01
-3.727404177188873291e-01
-3.976137042045593262e-01
3.825609805062413216e-03
2.548698186874389648e-01
5.797442793846130371e-01
1.162807792425155640e-01
-1.841410994529724121e-01
-1.061616539955139160e-01
2.285903543233871460e-01
3.510797023773193359e-02
3.304051980376243591e-02
-3.522223979234695435e-02
-5.541893839836120605e-01
-3.362249135971069336e-01
9.186138957738876343e-02
-2.056003212928771973e-01
-2.084213644266128540e-01
-2.293825000524520874e-01
1.750806905329227448e-02
1.270330278202891350e-03
5.312449336051940918e-01
3.248858265578746796e-03
3.062526583671569824e-01
5.449205636978149414e-01
3.929438591003417969e-01
7.553421854972839355e-01
5.226041078567504883e-01
5.150513723492622375e-02
2.437653392553329468e-01
1.565000414848327637e-01
2.909001894295215607e-02
5.130029916763305664e-01
-4.149765893816947937e-02
3.867245912551879883e-01
2.214327454566955566e-01
1.718336790800094604e-01
-3.973538577556610107e-01
-3.738047182559967041e-01
-2.358409613370895386e-01
-1.903472095727920532e-01
-4.519268274307250977e-01
-4.851768016815185547e-01
1.522177010774612427e-01
5.480431914329528809e-01
5.978305339813232422e-01
-3.897696733474731445e-01
-1.108503434807062149e-02
-6.553803682327270508e-01
-3.349516391754150391e-01
-1.474373042583465576e-01
-3.856154382228851318e-01
2.790100872516632080e-01
4.105066657066345215e-01
2.427766919136047363e-01
-2.077410668134689331e-01
-3.737379014492034912e-01
-2.267432957887649536e-01
-1.732625812292098999e-01
-2.469999790191650391e-01
-1.697470545768737793e-01
1.903328448534011841e-01
-1.088406071066856384e-01
7.732461206614971161e-03
-2.070632129907608032e-01
-1.222110167145729065e-01
-3.382592499256134033e-01
2.677371259778738022e-03
-1.037352066487073898e-02
-2.765978276729583740e-01
3.315765559673309326e-01
3.991084992885589600e-01
1.623542755842208862e-01
1.567188352346420288e-01
2.277104705572128296e-01
4.643361642956733704e-02
-1.139778792858123779e-01
6.318465620279312134e-02
6.640161573886871338e-02
1.795577108860015869e-01
-3.760238587856292725e-01
-2.345711290836334229e-01
1.723964931443333626e-03
3.826990723609924316e-01
3.948396444320678711e-02
6.127087473869323730e-01
4.249220490455627441e-01
9.920967370271682739e-02
-3.367364406585693359e-01
5.499169230461120605e-02
5.798930674791336060e-02
-4.035513401031494141e-01
-6.724910140037536621e-01
-4.615713953971862793e-01
1.311202198266983032e-01
-1.616469919681549072e-01
-2.137034982442855835e-01
-6.352300941944122314e-02
-3.772884905338287354e-01
-3.632215559482574463e-01
-4.411417245864868164e-01
-4.214451014995574951e-01
-4.468762576580047607e-01
1.140860170125961304e-01
1.967640519142150879e-01
1.057320088148117065e-01
-2.991030514240264893e-01
-2.881258726119995117e-01
-3.391095995903015137e-02
4.417687058448791504e-01
6.964278966188430786e-02
3.111056387424468994e-01
1.337640285491943359e-01
-3.820928931236267090e-01
4.766814038157463074e-02
-1.489927768707275391e-01
-1.548234969377517700e-01
-1.734331995248794556e-01
2.397889196872711182e-01
3.132718503475189209e-01
-1.302402839064598083e-02
-1.703749746084213257e-01
-3.533825650811195374e-02
-3.447002544999122620e-02
4.379194676876068115e-01
-1.094892248511314392e-01
-8.637886494398117065e-02
-2.927895486354827881e-01
-3.392383754253387451e-01
4.797536134719848633e-01
-1.174873188138008118e-01
7.931755483150482178e-02
-1.095985695719718933e-01
-4.941104650497436523e-01
-2.831815183162689209e-01
-3.874039947986602783e-01
-3.055290281772613525e-01
-1.888877600431442261e-01
1.568053960800170898e-01
4.774913787841796875e-01
4.766729474067687988e-01
4.761327058076858521e-02
-4.160646498203277588e-01
-5.549286603927612305e-01
-3.913672864437103271e-01
1.542119532823562622e-01
-2.866161763668060303e-01
-3.477742671966552734e-01
2.320097237825393677e-01
9.210542589426040649e-02
3.086633086204528809e-01
1.208659037947654724e-01
-6.778587587177753448e-03
4.788473248481750488e-02
-3.742357194423675537e-01
-3.203245997428894043e-01
-4.974841177463531494e-01
-4.222747087478637695e-01
-3.732546567916870117e-01
-1.571489274501800537e-01
-1.819420903921127319e-01
-3.118697702884674072e-01
2.863094806671142578e-01
4.202427864074707031e-01
1.919563263654708862e-01
3.651345074176788330e-01
-4.988513290882110596e-01
-2.028241008520126343e-02
-3.233919441699981689e-01
-2.758851349353790283e-01
1.200873404741287231e-01
-1.350565850734710693e-01
3.367345929145812988e-01
5.461352467536926270e-01
4.234968721866607666e-01
3.461238443851470947e-01
4.300381541252136230e-01
3.786320388317108154e-01
-2.982190810143947601e-02
-8.979789912700653076e-02
-4.864734411239624023e-01
-2.290946692228317261e-01
3.269231021404266357e-01
4.043619632720947266e-01
-3.643255531787872314e-01
-1.929851472377777100e-01
-3.041855990886688232e-01
-4.818891286849975586e-01
-4.558135867118835449e-01
-5.796303972601890564e-02
-4.993152916431427002e-01
1.186553761363029480e-01
1.993539929389953613e-01
1.978003382682800293e-01
2.355222553014755249e-01
-3.146760165691375732e-02
-4.025887846946716309e-01
9.112783521413803101e-02
1.888347417116165161e-02
-2.715504914522171021e-02
-5.834127590060234070e-02
3.977316021919250488e-01
8.995380252599716187e-02
1.983581930398941040e-01
2.998776137828826904e-01
1.117604412138462067e-02
1.104092970490455627e-01
-1.770393252372741699e-01
3.109158873558044434e-01
2.980465590953826904e-01
-1.988812536001205444e-01
1.938163116574287415e-02
-2.103639841079711914e-01
-4.042388498783111572e-01
-7.475291192531585693e-02
2.254643291234970093e-01
4.345116615295410156e-01
3.006691932678222656e-01
3.581448495388031006e-01
3.138133585453033447e-01
-2.165707498788833618e-01
-3.934648334980010986e-01
1.478102207183837891e-01
-1.842766851186752319e-01
-4.099077731370925903e-02
1.555709093809127808e-01
5.187402963638305664e-01
1.861710548400878906e-01
5.642129182815551758e-01
6.933945417404174805e-02
3.001894652843475342e-01
2.915825843811035156e-01
-3.593919426202774048e-02
8.783844113349914551e-02
-4.439568147063255310e-02
-3.884272575378417969e-01
-3.974615037441253662e-01
-1.943623274564743042e-01
-1.259637027978897095e-01
-8.505371958017349243e-02
-1.636592000722885132e-01
-3.841550946235656738e-01
-2.224238961935043335e-01
-2.821061294525861740e-03
6.918592751026153564e-02
8.071989566087722778e-02
-1.963118650019168854e-02
-1.187292411923408508e-01
4.204760491847991943e-01
-4.063135385513305664e-02
1.495077759027481079e-01
1.829273998737335205e-01
4.726416766643524170e-01
-1.762518435716629028e-01
-6.510999798774719238e-02
-1.611592993140220642e-02
1.553953438997268677e-01
-2.251610755920410156e-01
7.776810228824615479e-02
2.421946376562118530e-01
-2.771745324134826660e-01
-1.760722696781158447e-01
4.481049776077270508e-01
5.057882145047187805e-02
-1.223245114088058472e-01
-1.268125921487808228e-01
-2.720584571361541748e-01
-2.102502435445785522e-01
5.518543124198913574e-01
1.009970307350158691e+00
4.155023694038391113e-01
3.097169399261474609e-01
-9.464321285486221313e-02
-2.712890803813934326e-01
5.203273296356201172e-01
5.622201561927795410e-01
4.538031816482543945e-01
1.464457362890243530e-01
2.608509361743927002e-01
2.028917521238327026e-01
-2.912934124469757080e-01
7.555186003446578979e-02
-2.492594420909881592e-01
2.092521339654922485e-01
7.684505730867385864e-02
-1.838755160570144653e-01
2.531536519527435303e-01
7.621675729751586914e-02
8.624635636806488037e-03
-1.031836047768592834e-01
2.886042296886444092e-01
3.995277360081672668e-02
9.232896566390991211e-02
3.019283413887023926e-01
1.447564642876386642e-02
2.147698104381561279e-01
-1.043812930583953857e-01
-4.392899870872497559e-01
-1.697692275047302246e-01
2.320376038551330566e-01
2.122497409582138062e-01
-7.452516555786132812e-01
-3.232071995735168457e-01
-1.907484605908393860e-02
-2.164612114429473877e-01
5.098186731338500977e-01
4.892036318778991699e-01
-1.099298000335693359e+00
-8.007092475891113281e-01
-5.717228055000305176e-01
1.531458646059036255e-01
-9.093341231346130371e-02
4.190617501735687256e-01
3.592826128005981445e-01
2.943300902843475342e-01
4.955393373966217041e-01
4.272986352443695068e-01
4.093820452690124512e-01
2.635070085525512695e-01
-1.553967595100402832e-01
-6.741051077842712402e-01
-3.398894071578979492e-01
-3.971325159072875977e-01
-6.131480932235717773e-01
-1.073460802435874939e-01
4.754517972469329834e-01
2.205439656972885132e-01
-2.567133605480194092e-01
4.179490506649017334e-01
4.618689417839050293e-01
5.602268576622009277e-01
3.279713094234466553e-01
4.602485299110412598e-01
3.632245361804962158e-01
-2.017053961753845215e-01
2.413615435361862183e-01
-1.783533543348312378e-01
-7.164874672889709473e-02
3.837373256683349609e-01
-1.092081367969512939e-01
-1.424795389175415039e-01
-3.881552815437316895e-02
3.885627910494804382e-02
-3.260246217250823975e-01
-4.227788746356964111e-01
5.597630515694618225e-02
-3.030786812305450439e-01
-3.502043187618255615e-01
-3.478625714778900146e-01
2.943552434444427490e-01
3.486594855785369873e-01
4.117720574140548706e-02
1.730701029300689697e-01
4.481968283653259277e-01
4.976852536201477051e-01
-3.108809888362884521e-01
-3.906251490116119385e-01
-5.731948018074035645e-01
-1.792574822902679443e-01
-1.815243065357208252e-02
-3.325463533401489258e-01
1.023598685860633850e-01
1.603517085313796997e-01
-1.099661663174629211e-01
3.886706829071044922e-01
-1.025333553552627563e-01
-2.192590087652206421e-01
2.365823239088058472e-01
1.987645626068115234e-01
2.588597536087036133e-01
-2.089282572269439697e-01
-3.648909330368041992e-01
-3.781808316707611084e-01
9.864018857479095459e-02
-3.047311007976531982e-01
-2.639116905629634857e-02
3.152705132961273193e-01
3.431946933269500732e-01
3.816171884536743164e-01
2.836758792400360107e-01
3.942400217056274414e-01
2.007394731044769287e-01
-3.599602878093719482e-01
1.616721004247665405e-01
-3.127228915691375732e-01
-1.306589096784591675e-01
3.743558228015899658e-01
-3.310947120189666748e-01
-3.442896306514739990e-01
-1.055103912949562073e-01
4.589404761791229248e-01
6.341810524463653564e-02
2.837252616882324219e-01
1.624333709478378296e-01
1.158682107925415039e-01
2.227049618959426880e-01
-5.340083837509155273e-01
1.149315461516380310e-01
-2.844963967800140381e-01
-2.243003398180007935e-01
7.719373703002929688e-02
3.338598012924194336e-01
-7.803995162248611450e-02
-4.135163426399230957e-01
2.494219541549682617e-01
2.204144895076751709e-01
-4.150378704071044922e-02
-1.385955661535263062e-01
2.207001671195030212e-02
6.814474612474441528e-02
2.863052487373352051e-01
1.344875246286392212e-01
8.100983500480651855e-02
1.643610000610351562e-02
-1.348009854555130005e-01
2.075164020061492920e-02
-5.131291151046752930e-01
-2.565809786319732666e-01
-1.520162522792816162e-01
-6.991036981344223022e-02
4.428624734282493591e-02
-3.068986833095550537e-01
-1.538638025522232056e-01
-2.856432795524597168e-01
-2.688366770744323730e-01
-2.221010029315948486e-01
-3.326237797737121582e-01
-1.583740115165710449e-01
-5.037058517336845398e-02
3.998499512672424316e-01
-2.100037038326263428e-01
6.052254885435104370e-02
-2.884218990802764893e-01
-5.043010786175727844e-02
-1.771617233753204346e-01
1.419245302677154541e-01
-7.013398408889770508e-02
8.350419811904430389e-03
3.214763998985290527e-01
-9.308104962110519409e-02
-2.674149870872497559e-01
-2.026954442262649536e-01
-1.708124391734600067e-02
1.711717993021011353e-01
5.892364308238029480e-02
-5.623126029968261719e-02
-4.444080591201782227e-02
-2.076201885938644409e-01
2.030797600746154785e-01
-1.083668917417526245e-01
-1.440922319889068604e-01
-2.312935441732406616e-01
-3.979759514331817627e-01
-2.343150973320007324e-01
1.668639630079269409e-01
3.047033250331878662e-01
2.009698748588562012e-01
3.978812694549560547e-01
3.973288536071777344e-01
-3.493237495422363281e-01
-8.934362232685089111e-02
4.791349172592163086e-02
-4.067214578390121460e-02
-1.609398424625396729e-01
-3.117889165878295898e-01
-2.605730593204498291e-01
2.054807841777801514e-01
-4.827129840850830078e-02
2.459184974431991577e-01
4.483450353145599365e-01
-5.272117909044027328e-03
2.665680944919586182e-01
-3.845379874110221863e-02
-2.209511250257492065e-01
-6.057322621345520020e-01
-4.014068245887756348e-01
-6.440175175666809082e-01
-6.164941191673278809e-01
-6.145413219928741455e-02
-1.075968444347381592e-01
3.524202704429626465e-01
1.162995002232491970e-03
-6.595689337700605392e-03
-1.757358163595199585e-01
-1.371801942586898804e-01
-1.370021551847457886e-01
-1.420274227857589722e-01
1.576545834541320801e-01
2.477111108601093292e-02
1.097646877169609070e-01
-6.475417613983154297e-01
-6.526387333869934082e-01
-2.958711087703704834e-01
6.172883440740406513e-04
-6.764623522758483887e-02
9.992703050374984741e-02
-2.321254611015319824e-01
-2.416298389434814453e-01
-3.564042448997497559e-01
-4.870007336139678955e-01
-1.782705038785934448e-01
-4.852485656738281250e-02
1.466720998287200928e-01
2.208918482065200806e-01
-4.390547424554824829e-02
6.917253136634826660e-02
2.527717053890228271e-01
3.592173457145690918e-01
1.106849405914545059e-02
-1.156558245420455933e-01
4.515616968274116516e-02
9.383966773748397827e-02
-2.855150401592254639e-01
1.291712820529937744e-01
-2.212624847888946533e-01
1.061735376715660095e-01
-3.208444267511367798e-02
-4.846689105033874512e-01
-4.733352661132812500e-01
-2.319666892290115356e-01
-1.899726390838623047e-01
-5.916194319725036621e-01
-1.226868703961372375e-01
3.515471816062927246e-01
1.222360134124755859e-01
2.996520400047302246e-01
-2.965477108955383301e-01
-2.546040713787078857e-01
-8.767653256654739380e-02
4.192164540290832520e-02
-3.375657796859741211e-01
-1.745704002678394318e-02
-1.580801308155059814e-01
-1.441126316785812378e-01
-4.036599695682525635e-01
-2.302944660186767578e-01
-3.825305104255676270e-01
-2.414883822202682495e-01
-3.148818621411919594e-03
-5.203742533922195435e-02
-2.049231529235839844e-01
2.112406641244888306e-01
5.119490250945091248e-02
8.880537748336791992e-02
-2.590184807777404785e-01
-4.306697249412536621e-01
-2.434406429529190063e-01
3.194665312767028809e-01
3.196059465408325195e-01
2.373482733964920044e-01
-5.163665413856506348e-01
-4.854712188243865967e-01
-4.129192829132080078e-01
1.029431372880935669e-01
2.884559035301208496e-01
1.323440223932266235e-01
3.833886981010437012e-01
1.493727117776870728e-01
-4.701215773820877075e-02
-1.513122022151947021e-01
-6.970768328756093979e-03
-7.902062684297561646e-02
5.808814167976379395e-01
8.242202550172805786e-02
-3.546112179756164551e-01
-8.193104714155197144e-02
-1.080849170684814453e-01
-2.477444410324096680e-01
1.134016886353492737e-01
2.288952916860580444e-01
2.539974451065063477e-01
7.800818234682083130e-02
9.805269539356231689e-02
1.122306138277053833e-01
2.335862666368484497e-01
9.081664681434631348e-02
1.150876879692077637e-01
-1.400819718837738037e-01
-1.203797459602355957e-01
-7.082659006118774414e-02
-3.262874484062194824e-01
3.256256580352783203e-01
1.383179519325494766e-02
3.038941323757171631e-01
-7.783362269401550293e-02
3.003794550895690918e-01
9.950187802314758301e-02
1.588349193334579468e-01
2.711633685976266861e-03
1.331536620855331421e-01
1.959672421216964722e-01
8.005467243492603302e-03
-2.046502381563186646e-01
-4.788927137851715088e-01
1.154340207576751709e-01
-6.160462647676467896e-02
2.405658215284347534e-01
-4.712309241294860840e-01
-6.146362423896789551e-01
-3.078289628028869629e-01
-2.684105336666107178e-01
3.994442224502563477e-01
3.057238161563873291e-01
4.085057377815246582e-01
-3.197150528430938721e-01
-1.179517954587936401e-01
-3.109751045703887939e-01
7.139242440462112427e-02
1.287178248167037964e-01
2.322422266006469727e-01
-5.609361082315444946e-02
-2.648741751909255981e-02
3.465687930583953857e-01
-1.683688610792160034e-01
-9.955304861068725586e-02
-1.445738673210144043e-01
-3.819590210914611816e-01
-1.188228204846382141e-01
-3.726630806922912598e-01
1.157568395137786865e-01
3.059524809941649437e-03
-2.770321965217590332e-01
-1.319653391838073730e-01
-2.271687984466552734e-01
1.312509030103683472e-01
6.520117819309234619e-02
5.508087202906608582e-02
2.151870429515838623e-01
-2.237134426832199097e-01
-1.819275021553039551e-01
-1.849855482578277588e-01
-1.066734492778778076e-01
-2.271139807999134064e-02
4.313687607645988464e-02
7.378409802913665771e-02
-5.558848381042480469e-02
-2.201170325279235840e-01
4.796866774559020996e-01
1.793136745691299438e-01
5.660043358802795410e-01
4.225928708910942078e-02
-3.637419641017913818e-01
-3.166806697845458984e-01
4.590662717819213867e-01
-1.281348168849945068e-01
3.440682291984558105e-01
1.944114118814468384e-01
1.439359784126281738e-01
1.846813559532165527e-01
-1.954750418663024902e-01
-1.062975078821182251e-01
-6.200660765171051025e-02
1.908143982291221619e-02
7.086399942636489868e-02
-2.153417617082595825e-01
-1.504033803939819336e-01
-2.772718071937561035e-01
-5.206963047385215759e-02
5.365685820579528809e-01
4.149017035961151123e-01
-2.238149195909500122e-01
1.634102612733840942e-01
2.426153719425201416e-01
2.690865099430084229e-01
-1.592651605606079102e-01
-1.512762606143951416e-01
-1.188169941306114197e-01
1.178510561585426331e-01
1.923317015171051025e-01
-3.387102782726287842e-01
1.919423490762710571e-01
7.683198153972625732e-02
2.824752032756805420e-01
-4.036446809768676758e-01
-3.513594567775726318e-01
-2.144503742456436157e-01
4.525790214538574219e-01
2.748379707336425781e-01
5.543861389160156250e-01
-5.695682391524314880e-02
8.723682165145874023e-02
-3.051924407482147217e-01
-4.184502959251403809e-01
2.026040107011795044e-01
2.151573896408081055e-01
-5.087405443191528320e-01
-3.671979010105133057e-01
-1.382818222045898438e-01
-9.730249643325805664e-02
7.001014053821563721e-02
-2.913553453981876373e-02
-3.658575117588043213e-01
-3.233052492141723633e-01
-1.745745390653610229e-01
-1.544299125671386719e-01
-6.967449933290481567e-02
-2.213661819696426392e-01
9.998120367527008057e-02
1.359128206968307495e-02
2.070973217487335205e-01
5.550022050738334656e-02
9.446816146373748779e-02
2.736586928367614746e-01
-3.729243576526641846e-01
-1.845095008611679077e-01
-2.963238023221492767e-02
-2.724173069000244141e-01
-2.124562263488769531e-01
-1.310337334871292114e-01
-1.857422739267349243e-01
-1.546262204647064209e-01
1.194335073232650757e-01
5.244480967521667480e-01
3.794660866260528564e-01
1.999079734086990356e-01
4.004461765289306641e-01
2.611586153507232666e-01
1.956665366888046265e-01
-3.285296261310577393e-01
-3.236773014068603516e-01
-5.223904252052307129e-01
-4.067737981677055359e-02
4.855871945619583130e-02
3.308816999197006226e-02
2.274482101202011108e-01
3.280279934406280518e-01
2.931932508945465088e-01
-4.403771162033081055e-01
-4.982050880789756775e-02
9.745815186761319637e-04
-1.404890120029449463e-01
-4.234465211629867554e-02
1.156373694539070129e-01
3.926955461502075195e-01
3.918497562408447266e-01
2.971838712692260742e-01
3.457148373126983643e-02
1.314437761902809143e-02
-4.462654236704111099e-03
1.854391768574714661e-02
2.090777456760406494e-01
4.412420466542243958e-02
-9.665739536285400391e-02
8.514578640460968018e-02
-3.829520642757415771e-01
6.583923846483230591e-02
3.022658824920654297e-01
2.762150168418884277e-01
1.636501997709274292e-01
3.046197295188903809e-01
2.489160560071468353e-02
2.355932146310806274e-01
2.589922845363616943e-01
1.733187586069107056e-01
-2.160202711820602417e-01
-7.399281114339828491e-02
-5.180710181593894958e-02
-3.370145335793495178e-02
-2.409369498491287231e-01
5.938303098082542419e-02
3.864421546459197998e-01
1.690470278263092041e-01
2.036121115088462830e-02
-1.009560525417327881e-01
1.536631882190704346e-01
4.683068394660949707e-02
-6.374595761299133301e-01
-5.502492785453796387e-01
-4.612632393836975098e-01
-4.384544789791107178e-01
1.508477181196212769e-01
-5.791590735316276550e-02
-1.816475540399551392e-01
2.317723035812377930e-01
-2.677844166755676270e-01
-1.584966033697128296e-01
-4.315413907170295715e-02
3.808427229523658752e-02
-8.067703992128372192e-02
1.016410887241363525e-01
5.165280103683471680e-01
-2.243694663047790527e-02
-3.415344953536987305e-01
-1.461056768894195557e-01
3.107601106166839600e-01
4.107603803277015686e-03
3.606552481651306152e-01
-6.278908252716064453e-02
-1.491273492574691772e-01
-3.728862702846527100e-01
1.184882447123527527e-01
4.929993748664855957e-01
3.603734672069549561e-01
7.832363843917846680e-01
5.176655650138854980e-01
3.906859755516052246e-01
1.999870240688323975e-01
2.853289544582366943e-01
2.517019808292388916e-01
2.527071237564086914e-01
5.478079915046691895e-01
4.899141788482666016e-01
5.046187341213226318e-02
3.852554857730865479e-01
2.460799664258956909e-01
-5.008158683776855469e-01
-2.588920891284942627e-01
-1.386470943689346313e-01
-4.774481356143951416e-01
-5.178025364875793457e-01
-2.287584990262985229e-01
4.655410945415496826e-01
5.093460083007812500e-01
3.610855937004089355e-01
-2.890190780162811279e-01
-3.739520907402038574e-01
-3.092082440853118896e-01
-4.094807803630828857e-01
-5.835511684417724609e-01
-4.382556974887847900e-01
2.933451831340789795e-01
3.026270270347595215e-01
3.371017575263977051e-01
-5.774782896041870117e-01
-4.656907916069030762e-01
2.763908728957176208e-02
8.563746511936187744e-02
-2.950903773307800293e-01
-6.751500964164733887e-01
6.781113743782043457e-01
3.168252408504486084e-01
4.495454728603363037e-01
-5.844228267669677734e-01
-1.830246895551681519e-01
-4.458272829651832581e-03
2.292629182338714600e-01
-3.885080106556415558e-03
4.511101543903350830e-01
-1.686507090926170349e-02
2.125469446182250977e-01
-2.513873577117919922e-01
-3.330933675169944763e-02
-2.829218804836273193e-01
5.855081602931022644e-02
3.226313274353742599e-03
3.539676219224929810e-02
1.462719738483428955e-01
-1.079951450228691101e-01
2.689993381500244141e-01
-2.409115582704544067e-01
2.174306474626064301e-02
5.746395587921142578e-01
3.767192363739013672e-01
2.682731449604034424e-01
-6.990546733140945435e-02
6.997451186180114746e-02
-2.539876103401184082e-01
1.924979239702224731e-01
-4.659490585327148438e-01
2.643759250640869141e-01
-1.162112802267074585e-01
2.666951715946197510e-01
-8.702605962753295898e-02
-3.501272499561309814e-01
-2.678539752960205078e-01
-1.649001836776733398e-01
-4.778222143650054932e-01
-2.506245076656341553e-01
1.596714705228805542e-01
-1.313103288412094116e-01
1.500402987003326416e-01
-1.035046055912971497e-01
-1.265917420387268066e-01
-9.068952500820159912e-02
3.648522496223449707e-01
3.811547458171844482e-01
2.548220753669738770e-01
5.763755440711975098e-01
4.260611832141876221e-01
2.900020778179168701e-01
1.170607283711433411e-01
-1.806116253137588501e-01
-2.804999649524688721e-01
-2.016184478998184204e-01
-1.026436462998390198e-01
-1.624916642904281616e-01
-3.099991381168365479e-02
5.500056743621826172e-01
2.681118547916412354e-01
-1.765771210193634033e-01
-1.080115810036659241e-01
-5.931904911994934082e-02
1.885947734117507935e-01
-1.067036613821983337e-01
2.522036433219909668e-01
-4.438287392258644104e-02
-3.459512293338775635e-01
2.178778201341629028e-01
-2.372527122497558594e-01
-9.028761088848114014e-02
-3.133406341075897217e-01
-2.031618356704711914e-01
-3.747462332248687744e-01
-5.393829941749572754e-01
-2.074803858995437622e-01
-2.797117829322814941e-01
4.291241168975830078e-01
5.428246855735778809e-01
3.469390273094177246e-01
5.767361521720886230e-01
-3.391249775886535645e-01
-1.835427582263946533e-01
-3.932668566703796387e-01
2.336472719907760620e-01
4.338324368000030518e-01
2.341316938400268555e-01
3.635116815567016602e-01
-1.109827216714620590e-02
2.548173964023590088e-01
4.801647663116455078e-01
3.252367079257965088e-01
5.286954045295715332e-01
-8.614422082901000977e-01
-5.337217450141906738e-01
-1.059494018554687500e+00
-5.976777672767639160e-01
-3.093181252479553223e-01
-4.240449070930480957e-01
-1.481258682906627655e-02
2.359923273324966431e-01
2.461172193288803101e-01
-1.475914716720581055e-01
-2.332280725240707397e-01
1.166536211967468262e-01
-1.890105456113815308e-01
-5.548186227679252625e-02
-2.895907759666442871e-01
-3.651391267776489258e-01
-1.526793688535690308e-01
-2.667743861675262451e-01
-8.214678615331649780e-03
-3.437236696481704712e-02
6.323911547660827637e-01
4.276151657104492188e-01
5.752847790718078613e-01
3.877497017383575439e-01
-2.328660488128662109e-01
-7.065456360578536987e-02
2.219863235950469971e-02
4.755036532878875732e-01
-4.958725348114967346e-02
5.475028753280639648e-01
-1.304144859313964844e-01
-2.655356824398040771e-01
-2.141195833683013916e-01
-5.155670046806335449e-01
-5.735917687416076660e-01
-6.876106858253479004e-01
-1.175814270973205566e-01
2.259594947099685669e-01
3.870375454425811768e-01
2.642600983381271362e-02
3.716300725936889648e-01
8.303932100534439087e-02
-1.536391973495483398e-01
-2.705004513263702393e-01
1.062518078833818436e-02
2.734693884849548340e-01
-2.096974551677703857e-01
1.926080286502838135e-01
2.880392670631408691e-01
1.784164309501647949e-01
1.245143190026283264e-01
-1.334689557552337646e-01
-5.912775639444589615e-03
-2.326198220252990723e-01
1.429237276315689087e-01
-3.188175708055496216e-02
-1.738922148942947388e-01
-7.015696167945861816e-02
-4.507229477167129517e-02
-2.406133413314819336e-01
-1.062929704785346985e-01
5.012422204017639160e-01
3.828752636909484863e-01
-2.891294891014695168e-03
-1.887373812496662140e-02
4.220125973224639893e-01
5.816995725035667419e-02
-1.498398780822753906e-01
6.867717206478118896e-02
-1.105887740850448608e-01
-7.863921672105789185e-02
3.049285113811492920e-01
6.825650334358215332e-01
6.379635930061340332e-01
2.665326297283172607e-01
4.821572005748748779e-01
9.722489863634109497e-02
4.257692992687225342e-01
3.380782306194305420e-01
2.218720167875289917e-01
1.142058372497558594e-01
-3.813672363758087158e-01
-1.253960281610488892e-01
4.857247322797775269e-02
3.288190811872482300e-02
-2.435720860958099365e-01
6.175609678030014038e-02
-5.751114487648010254e-01
-6.374488770961761475e-02
-2.202745378017425537e-01
-1.324781626462936401e-01
-4.420898258686065674e-01
-1.991006284952163696e-01
-8.834553509950637817e-02
3.512240052223205566e-01
6.624795198440551758e-01
-2.272419482469558716e-01
3.726010918617248535e-01
2.079638540744781494e-01
-1.146902441978454590e-01
-5.463120937347412109e-01
-3.462455272674560547e-01
2.029273360967636108e-01
-4.162517935037612915e-02
4.700930714607238770e-01
3.475655913352966309e-01
3.084221780300140381e-01
-1.257337182760238647e-01
-4.348236620426177979e-01
3.221087157726287842e-01
-2.531069517135620117e-01
-2.015195786952972412e-01
4.381979629397392273e-02
-2.848868370056152344e-01
9.254829883575439453e-01
7.270665764808654785e-01
6.285388469696044922e-01
3.423214256763458252e-01
2.257385402917861938e-01
3.199568986892700195e-01
1.952205151319503784e-01
5.874904394149780273e-01
5.143830180168151855e-01
1.621210388839244843e-02
-8.411542326211929321e-02
-8.799993991851806641e-02
1.047995910048484802e-01
-4.832797646522521973e-01
-3.902156352996826172e-01
2.260463684797286987e-01
-3.251583874225616455e-01
-5.626391619443893433e-02
3.106279671192169189e-01
1.955566704273223877e-01
3.781685531139373779e-01
4.877470731735229492e-01
6.593765318393707275e-02
2.501306533813476562e-01
-1.095516979694366455e-01
-1.342658251523971558e-01
-1.518665105104446411e-01
8.392653614282608032e-02
1.180927157402038574e-01
-2.651019692420959473e-01
2.067479863762855530e-02
1.354789137840270996e-01
5.527117475867271423e-02
-1.805221587419509888e-01
-2.043427824974060059e-01
-1.838432699441909790e-01
-3.563783466815948486e-01
2.007913142442703247e-01
1.746192276477813721e-01
-5.834748148918151855e-01
-3.604400530457496643e-02
-3.766687810420989990e-01
4.980858862400054932e-01
5.210072398185729980e-01
3.323739469051361084e-01
5.894404053688049316e-01
6.387769579887390137e-01
3.890326321125030518e-01
5.710104107856750488e-01
2.283623367547988892e-01
3.784106671810150146e-01
-3.649320900440216064e-01
-5.000637769699096680e-01
-4.997000098228454590e-01
-6.697226166725158691e-01
-4.846516847610473633e-01
-6.432763934135437012e-01
1.969596892595291138e-01
3.973437845706939697e-01
-2.460969686508178711e-01
2.833375334739685059e-01
-3.201655298471450806e-02
2.801256477832794189e-01
1.694758236408233643e-01
2.411218583583831787e-01
3.178348541259765625e-01
-7.166320085525512695e-02
-2.819867730140686035e-01
2.120773196220397949e-01
-1.848203241825103760e-01
-4.239693880081176758e-01
-5.805217847228050232e-02
-1.898430138826370239e-01
-1.122797727584838867e-01
-3.641504645347595215e-01
1.270251441746950150e-02
-2.351566031575202942e-02
2.775683104991912842e-01
-4.268676936626434326e-01
-3.175366520881652832e-01
-5.529406070709228516e-01
8.140884339809417725e-03
-3.892541676759719849e-02
2.441217154264450073e-01
9.152974188327789307e-02
9.183140099048614502e-02
-1.172293275594711304e-01
-2.910791635513305664e-01
-5.442153215408325195e-01
-4.090536832809448242e-01
2.596131563186645508e-01
2.922325134277343750e-01
8.278404176235198975e-02
-1.915603131055831909e-01
1.411865502595901489e-01
-1.833358407020568848e-01
1.418860629200935364e-02
8.178752660751342773e-02
-6.390526890754699707e-02
7.117228955030441284e-02
3.615801632404327393e-01
1.730266362428665161e-01
6.341336667537689209e-02
1.220108419656753540e-01
-5.746632069349288940e-02
1.197000816464424133e-01
-1.060887053608894348e-01
-7.398730516433715820e-02
9.839347004890441895e-02
5.497295875102281570e-03
3.144749999046325684e-01
4.270500838756561279e-01
4.202157557010650635e-01
3.773937523365020752e-01
-2.796278148889541626e-02
9.274461120367050171e-02
3.942251801490783691e-01
3.483862429857254028e-02
-1.586351096630096436e-01
1.425357460975646973e-01
-1.697069108486175537e-01
-4.630563035607337952e-02
-2.805878818035125732e-01
-1.919802427291870117e-01
-1.016203090548515320e-01
-5.221949815750122070e-01
-7.944464683532714844e-02
-9.765721857547760010e-02
-2.920280694961547852e-01
-1.002551093697547913e-01
6.744109839200973511e-02
1.284024119377136230e-01
-3.887368366122245789e-02
-7.716548442840576172e-02
2.093652784824371338e-01
-2.843276560306549072e-01
-2.955082617700099945e-02
-2.032707184553146362e-01
-3.731536865234375000e-01
-4.491124451160430908e-01
-3.993549942970275879e-01
-3.296854719519615173e-02
1.162553876638412476e-01
-2.421545535326004028e-01
3.901570290327072144e-02
-9.060332551598548889e-03
-9.183959104120731354e-03
-6.543096303939819336e-01
-3.286579549312591553e-01
-4.890502095222473145e-01
1.869675070047378540e-01
1.571689099073410034e-01
-1.889724582433700562e-01
4.338061213493347168e-01
7.528531551361083984e-02
3.093183934688568115e-01
1.134810298681259155e-01
2.388231903314590454e-01
4.936753213405609131e-01
-4.451478719711303711e-01
-5.870246291160583496e-01
-2.695674598217010498e-01
-1.187767460942268372e-01
3.302391171455383301e-01
-1.909575164318084717e-01
1.621671617031097412e-01
-1.003503724932670593e-01
1.232329383492469788e-01
2.018880695104598999e-01
1.569739282131195068e-01
-1.156123541295528412e-02
-3.062842786312103271e-01
-5.004987716674804688e-01
-2.084473222494125366e-01
-1.895912885665893555e-01
2.787216603755950928e-01
2.607030272483825684e-01
-4.408552348613739014e-01
-3.645420968532562256e-01
-4.021782577037811279e-01
1.900381743907928467e-01
-1.750371307134628296e-01
-5.094513297080993652e-03
-2.523763775825500488e-01
-3.914790153503417969e-01
-1.787986457347869873e-01
5.932459607720375061e-02
1.270777434110641479e-01
-8.029863238334655762e-02
4.242028594017028809e-01
2.003308683633804321e-01
1.220940425992012024e-01
-1.456118226051330566e-01
2.186897909268736839e-03
-1.306366175413131714e-02
1.056041419506072998e-01
-2.737780809402465820e-01
-3.138901293277740479e-01
-1.196971610188484192e-01
5.409502610564231873e-02
-1.385022848844528198e-01
3.996286168694496155e-02
-3.142836391925811768e-01
6.976355612277984619e-02
-3.153861761093139648e-01
-4.477598965167999268e-01
-2.260901927947998047e-01
-3.517027199268341064e-01
5.539926514029502869e-02
-5.542621612548828125e-01
3.050712496042251587e-02
1.014898642897605896e-01
5.198864936828613281e-01
1.926726251840591431e-01
3.584421873092651367e-01
2.751221954822540283e-01
-6.144176796078681946e-02
2.698387801647186279e-01
6.838409602642059326e-02
-2.973982095718383789e-01
-1.522478908300399780e-01
-3.127104043960571289e-02
-6.402845382690429688e-01
-5.995904207229614258e-01
8.788829296827316284e-02
-3.964375555515289307e-01
-2.041198760271072388e-01
-9.699374437332153320e-02
1.572603732347488403e-01
-3.782490640878677368e-02
-5.649863481521606445e-01
3.211221098899841309e-01
-2.169045954942703247e-01
-3.964539170265197754e-01
4.370357841253280640e-02
-3.346441388130187988e-01
-1.331233382225036621e-01
5.292935371398925781e-01
4.037075638771057129e-01
2.713291049003601074e-01
1.505544483661651611e-01
1.734624058008193970e-01
-3.986323177814483643e-01
3.719285726547241211e-01
3.138347268104553223e-01
2.301952540874481201e-01
-1.144983321428298950e-01
-3.823118805885314941e-01
-1.489812731742858887e-01
-2.466021627187728882e-01
-2.583427131175994873e-01
-5.739536508917808533e-02
-1.663846522569656372e-01
-6.187147498130798340e-01
-2.273215949535369873e-01
-2.158266007900238037e-01
-5.061524510383605957e-01
-8.000902831554412842e-03
5.964036285877227783e-02
2.286761850118637085e-01
8.665269613265991211e-02
-4.682239294052124023e-01
2.128866761922836304e-01
8.239371329545974731e-02
-8.861370086669921875e-01
-6.645594835281372070e-01
-3.314654827117919922e-01
-5.309584736824035645e-01
-5.929357409477233887e-01
-4.984033107757568359e-01
1.573997586965560913e-01
1.181183084845542908e-01
1.439262628555297852e-01
3.629902601242065430e-01
3.558191061019897461e-01
6.090582609176635742e-01
-1.745277643203735352e-01
-1.388400495052337646e-01
-2.438398748636245728e-01
1.377612724900245667e-02
3.008581399917602539e-01
-2.381338477134704590e-01
-2.803477048873901367e-01
7.572232931852340698e-02
-3.273582458496093750e-01
3.380420804023742676e-01
-6.222325190901756287e-02
2.026548683643341064e-01
2.193267643451690674e-01
-1.324763987213373184e-02
7.133606076240539551e-02
-2.935290634632110596e-01
-1.725845485925674438e-01
-4.537276178598403931e-02
-2.039943784475326538e-01
4.792603477835655212e-02
-2.228429019451141357e-01
-2.516371011734008789e-01
-2.953688800334930420e-01
-4.070314168930053711e-01
2.316615879535675049e-01
2.655342817306518555e-01
4.635138511657714844e-01
4.834120348095893860e-02
3.837795853614807129e-01
4.923022091388702393e-01
2.842455208301544189e-01
2.381918728351593018e-01
4.171620309352874756e-01
-2.480568131431937218e-03
-4.808370471000671387e-01
-3.783506155014038086e-01
-5.718493834137916565e-02
1.053998321294784546e-01
-8.693788200616836548e-02
-3.218770623207092285e-01
-3.499815762042999268e-01
-4.658196568489074707e-01
-6.557357031852006912e-03
5.561021342873573303e-02
-5.726938843727111816e-01
4.791151732206344604e-02
1.101497784256935120e-01
4.049489647150039673e-02
-2.795015573501586914e-01
8.238483220338821411e-02
-2.566694021224975586e-01
-1.361561864614486694e-01
2.729831337928771973e-01
1.069211959838867188e-01
-1.956738978624343872e-01
-2.796281278133392334e-01
-4.537706077098846436e-01
4.725242555141448975e-01
2.400563061237335205e-01
1.841448694467544556e-01
-1.351266205310821533e-01
-2.420739680528640747e-01
-4.032019376754760742e-01
4.565877616405487061e-01
3.494359850883483887e-01
1.740372776985168457e-01
-3.442221283912658691e-01
-3.673802018165588379e-01
-1.257998794317245483e-01
-1.054350286722183228e-01
-6.529641151428222656e-02
-3.277427554130554199e-01
-5.556473135948181152e-01
-4.800582528114318848e-01
-4.089369475841522217e-01
-6.433767825365066528e-02
-2.717600166797637939e-01
-2.386799547821283340e-03
2.384209632873535156e-02
5.825161933898925781e-03
1.174834594130516052e-01
1.165382787585258484e-01
-1.642069220542907715e-01
1.723422557115554810e-01
-1.352103203535079956e-01
3.284594742581248283e-03
-2.646864950656890869e-01
1.119985878467559814e-01
1.703285723924636841e-01
1.687421351671218872e-01
3.527668118476867676e-02
-1.175584867596626282e-01
-7.666880637407302856e-02
5.653620958328247070e-01
2.130787372589111328e-01
3.015218973159790039e-01
-4.017451405525207520e-01
-4.392215907573699951e-01
-2.792709767818450928e-01
2.392080277204513550e-01
2.829073369503021240e-01
1.051570102572441101e-02
-6.316288560628890991e-02
2.930524051189422607e-01
9.465812146663665771e-02
-4.259681701660156250e-01
-8.106663823127746582e-03
-3.479945939034223557e-03
-2.209338247776031494e-01
-3.770221769809722900e-01
-1.790436804294586182e-01
-1.330362409353256226e-01
-4.601910710334777832e-01
-3.063513040542602539e-01
3.238874375820159912e-01
1.374336183071136475e-01
-1.509217321872711182e-01
2.004559040069580078e-01
1.226912438869476318e-01
3.673113882541656494e-01
3.268881440162658691e-01
4.525548815727233887e-01
-1.270058304071426392e-01
3.222986757755279541e-01
-1.221107989549636841e-01
3.385435417294502258e-02
3.702559042721986771e-03
8.315113373100757599e-04
2.439840510487556458e-02
-4.876991212368011475e-01
-3.591675162315368652e-01
-2.730827331542968750e-01
4.177559912204742432e-01
3.817256391048431396e-01
6.624770760536193848e-01
2.391100861132144928e-02
-1.328556388616561890e-01
9.719928354024887085e-02
4.667674750089645386e-02
-8.307716343551874161e-04
3.354352116584777832e-01
7.374253869056701660e-02
1.573403626680374146e-01
-4.228401463478803635e-03
7.974154502153396606e-02
-1.012360006570816040e-01
-3.653326034545898438e-01
3.984769880771636963e-01
1.064088419079780579e-01
4.729814231395721436e-01
-4.464698582887649536e-02
-1.406316757202148438e-01
-1.685365736484527588e-01
-8.220219612121582031e-02
1.169940829277038574e-01
3.578822612762451172e-01
2.421995438635349274e-02
-1.133107766509056091e-01
-7.695023715496063232e-02
-2.255968004465103149e-02
-1.060388684272766113e-01
2.178629040718078613e-01
3.452565073966979980e-01
1.038514375686645508e-01
1.964705437421798706e-01
-5.191109180450439453e-01
-3.310148119926452637e-01
1.408655643463134766e-01
4.034742116928100586e-01
3.468652069568634033e-01
3.343488276004791260e-01
-1.078227534890174866e-01
1.292820721864700317e-01
-8.456549793481826782e-02
-2.555897235870361328e-01
-2.037979513406753540e-01
-3.323884010314941406e-01
3.946799412369728088e-02
9.803036227822303772e-03
-2.720960602164268494e-02
3.087808489799499512e-01
3.575472533702850342e-01
1.182438805699348450e-02
1.813059896230697632e-01
7.565055042505264282e-02
2.409230619668960571e-01
1.040618494153022766e-01
-9.891429543495178223e-02
6.800529360771179199e-02
1.907418221235275269e-01
1.696095466613769531e-01
5.426986515522003174e-02
-5.869460105895996094e-01
-5.465533137321472168e-01
-5.712758302688598633e-01
6.791784763336181641e-01
6.343363523483276367e-01
4.440434575080871582e-01
1.097742840647697449e-01
-3.505891859531402588e-01
-2.304048836231231689e-01
4.385578036308288574e-01
5.708922147750854492e-01
2.771920561790466309e-01
-6.916623562574386597e-03
2.908076345920562744e-01
-1.074743717908859253e-01
2.904277741909027100e-01
3.691834509372711182e-01
2.448464035987854004e-01
1.599837541580200195e-01
1.943447291851043701e-01
1.473351269960403442e-01
2.087583392858505249e-01
-9.341037273406982422e-02
-1.450795773416757584e-02
5.066976547241210938e-01
-7.749509811401367188e-02
-5.704396367073059082e-01
-3.421348035335540771e-01
-4.235117435455322266e-01
-3.284632563591003418e-01
-2.962452173233032227e-01
-2.607971429824829102e-01
-2.661187350749969482e-01
-3.098486065864562988e-01
-2.828006260097026825e-02
-2.779989242553710938e-01
-1.545208841562271118e-01
1.428458690643310547e-01
-2.627892792224884033e-01
2.748545259237289429e-02
-5.549516081809997559e-01
-1.786493323743343353e-02
9.104376286268234253e-02
-8.123235404491424561e-02
4.079886078834533691e-01
2.082981169223785400e-01
2.240751683712005615e-01
3.842765465378761292e-02
-1.420491784811019897e-01
-1.988725215196609497e-01
3.828793466091156006e-01
-1.827364265918731689e-01
-4.838800132274627686e-01
-3.028791025280952454e-02
-4.566124454140663147e-02
3.305140733718872070e-01
5.049024522304534912e-02
-1.276693642139434814e-01
-2.268270403146743774e-01
-3.567321300506591797e-01
2.825953662395477295e-01
-1.401432156562805176e-01
5.924813821911811829e-02
-1.801529675722122192e-01
-2.455231100320816040e-01
-5.441692471504211426e-01
-3.085024356842041016e-01
7.944745570421218872e-02
-3.186122179031372070e-01
1.764111816883087158e-01
-6.996132433414459229e-02
-2.724844962358474731e-02
-1.899321377277374268e-02
2.196115255355834961e-01
2.208689749240875244e-01
-1.556475609540939331e-01
9.979543834924697876e-02
-1.347251143306493759e-02
1.035863459110260010e-01
-2.568132579326629639e-01
-9.054306149482727051e-02
-1.587054729461669922e-01
-1.908263750374317169e-02
3.995391353964805603e-02
3.460571765899658203e-01
3.595625162124633789e-01
1.917564719915390015e-01
-3.559114336967468262e-01
-2.454818785190582275e-01
-3.421392142772674561e-01
-3.584266453981399536e-02
1.832228749990463257e-01
1.795464754104614258e-02
-3.051230609416961670e-01
-4.353639185428619385e-01
-1.312634944915771484e-01
-1.927725672721862793e-01
1.777583919465541840e-02
-1.536696851253509521e-01
-2.895190555136650801e-04
-2.417688518762588501e-01
-1.407275199890136719e-01
1.887802928686141968e-01
1.829904764890670776e-01
3.652581274509429932e-01
4.059699177742004395e-01
-1.136923357844352722e-01
-1.270547807216644287e-01
-7.058247923851013184e-02
1.212977766990661621e-01
-1.118110790848731995e-01
-2.975788712501525879e-01
-3.643769323825836182e-01
-2.106416523456573486e-01
-1.177597716450691223e-01
9.140621125698089600e-02
-5.230462178587913513e-02
2.438816130161285400e-01
2.708686292171478271e-01
2.746578156948089600e-01
-8.078420907258987427e-02
-1.018336340785026550e-01
-4.126798510551452637e-01
-4.303874671459197998e-01
-4.695861935615539551e-01
-6.469075679779052734e-01
3.974538147449493408e-01
2.112844437360763550e-01
3.380281329154968262e-01
2.871436178684234619e-01
1.031179353594779968e-01
2.747310698032379150e-01
9.878326207399368286e-02
2.800681889057159424e-01
-9.616662561893463135e-02
-1.686764881014823914e-03
6.289723515510559082e-02
3.301280736923217773e-02
-5.605806112289428711e-01
-6.327825784683227539e-01
-5.656532645225524902e-01
-1.502601951360702515e-01
-4.025892615318298340e-01
-3.263388574123382568e-01
-1.857314705848693848e-01
-1.176460757851600647e-01
-2.845064699649810791e-01
-2.909874618053436279e-01
1.153771877288818359e-01
1.436136811971664429e-01
-5.302717089653015137e-01
-1.042589172720909119e-01
-4.920874536037445068e-02
5.144445896148681641e-01
3.523939847946166992e-01
3.406742513179779053e-01
2.526417076587677002e-01
5.760316550731658936e-02
-2.663038671016693115e-01
-2.874913997948169708e-02
-1.785174459218978882e-01
-2.949894666671752930e-01
-2.845663130283355713e-01
-2.341247648000717163e-01
-3.495935499668121338e-01
-1.744014173746109009e-01
-6.168576702475547791e-02
-2.960239723324775696e-02
-1.424057036638259888e-01
-4.646053314208984375e-01
-3.448102474212646484e-01
-1.795106008648872375e-02
2.273471057415008545e-01
-3.484827876091003418e-01
-8.049772679805755615e-02
1.058131754398345947e-01
-1.003899052739143372e-01
1.875228434801101685e-01
4.024384617805480957e-01
-3.924863636493682861e-01
-7.292841076850891113e-01
-3.178599774837493896e-01
-2.242505550384521484e-01
-5.371196269989013672e-01
-4.845850467681884766e-01
-5.952332019805908203e-01
3.845784962177276611e-01
3.276304528117179871e-02
5.113731026649475098e-01
1.642516851425170898e-01
2.522011399269104004e-01
3.717598617076873779e-01
-2.632345817983150482e-02
-5.344037413597106934e-01
-3.212151229381561279e-01
9.797250479459762573e-02
1.768216788768768311e-01
3.771415054798126221e-01
-1.047701016068458557e-01
-1.185421794652938843e-01
-5.595314502716064453e-01
4.159197807312011719e-01
3.931321501731872559e-01
2.766545712947845459e-01
-1.130903288722038269e-01
1.158108040690422058e-01
4.358297884464263916e-01
-4.659762382507324219e-01
-3.767103254795074463e-01
-1.846291422843933105e-01
2.589694857597351074e-01
7.481548935174942017e-02
-3.081679940223693848e-01
-9.722492098808288574e-02
-1.439949721097946167e-01
-4.245874285697937012e-01
2.636981904506683350e-01
2.606161534786224365e-01
4.165958166122436523e-01
-5.981083959341049194e-02
3.144060671329498291e-01
3.159338533878326416e-01
-2.592380940914154053e-01
-1.422089338302612305e-01
1.641628146171569824e-01
5.285524576902389526e-02
-1.992637813091278076e-01
-2.225664071738719940e-02
1.072272062301635742e-01
3.646692335605621338e-01
3.180081769824028015e-02
-2.956189215183258057e-01
-2.481398582458496094e-01
-3.971458077430725098e-01
-9.483837336301803589e-02
-8.538036048412322998e-02
-3.629447221755981445e-01
1.507047116756439209e-01
2.640355378389358521e-02
1.369509994983673096e-01
-5.751692876219749451e-02
-2.321281135082244873e-01
2.483851164579391479e-01
-2.145059257745742798e-01
-1.165181398391723633e-01
3.514727652072906494e-01
-4.823753237724304199e-01
-5.693594813346862793e-01
-4.306993186473846436e-01
3.765435218811035156e-01
3.646991252899169922e-01
3.700673580169677734e-01
-5.712108016014099121e-01
-2.047122716903686523e-01
1.740086823701858521e-02
1.581596732139587402e-01
8.632910996675491333e-02
2.361602783203125000e-01
-3.213988542556762695e-01
-4.004469811916351318e-01
-3.790854513645172119e-01
-3.637722432613372803e-01
-1.151228398084640503e-01
-2.547206282615661621e-01
-3.484815955162048340e-01
-4.031417071819305420e-01
-5.678702592849731445e-01
1.005953103303909302e-01
3.217157348990440369e-02
2.256435155868530273e-01
-5.221595764160156250e-01
-2.067571282386779785e-01
2.296823859214782715e-01
3.321284949779510498e-01
3.336516320705413818e-01
5.819619297981262207e-01
-7.244271785020828247e-02
-1.455181092023849487e-01
-3.478596806526184082e-01
-1.266441345214843750e-01
9.307296574115753174e-02
1.614725030958652496e-02
-1.751447021961212158e-01
1.894122548401355743e-02
-8.013796061277389526e-02
2.905188798904418945e-01
2.879022061824798584e-01
5.573970079421997070e-01
-1.758901327848434448e-01
-4.063470065593719482e-01
-4.709139764308929443e-01
3.570802211761474609e-01
3.563663065433502197e-01
-3.517471551895141602e-01
2.858417332172393799e-01
-2.746491506695747375e-02
2.161277681589126587e-01
-1.052647829055786133e-01
-2.398373335599899292e-01
3.582341596484184265e-02
-6.701148301362991333e-02
-2.599273025989532471e-01
-1.213757842779159546e-01
-3.771970272064208984e-01
-8.772236108779907227e-02
-1.852186322212219238e-01
1.209589391946792603e-01
2.643865346908569336e-01
9.634919464588165283e-02
2.101957350969314575e-01
4.596374630928039551e-01
5.609391331672668457e-01
1.705831736326217651e-01
-1.918719112873077393e-01
1.123288497328758240e-01
-3.051004111766815186e-01
-4.082888960838317871e-01
4.793115854263305664e-01
-3.798973560333251953e-01
2.232629209756851196e-01
3.221976161003112793e-01
-2.820208668708801270e-01
-3.941170573234558105e-01
-2.117063701152801514e-01
4.218688309192657471e-01
6.253966689109802246e-01
7.389681935310363770e-01
-4.856239631772041321e-02
-3.001519739627838135e-01
-3.707968294620513916e-01
3.361710906028747559e-01
1.071888431906700134e-01
6.339441984891891479e-02
-2.018615007400512695e-01
-3.092319965362548828e-01
-1.339494287967681885e-01
1.082316935062408447e-01
-2.470869868993759155e-01
-1.856870949268341064e-01
1.349686682224273682e-01
-6.653623282909393311e-02
-4.209645837545394897e-02
-2.247785925865173340e-01
8.469044230878353119e-03
1.189408078789710999e-01
8.756441995501518250e-03
-3.946790471673011780e-02
2.834088541567325592e-02
2.475817501544952393e-02
-7.269959896802902222e-02
2.054944075644016266e-02
-2.968313694000244141e-01
-1.903095394372940063e-01
1.289084702730178833e-01
2.686650454998016357e-01
-8.714187890291213989e-02
1.140117496252059937e-01
-4.502107799053192139e-01
2.520034015178680420e-01
-2.007295191287994385e-01
4.954600930213928223e-01
4.504316449165344238e-01
1.911582946777343750e-01
-2.361568436026573181e-02
2.018466964364051819e-02
-6.849679350852966309e-02
-3.248148858547210693e-01
6.757494527846574783e-03
-2.272822856903076172e-01
-5.723480507731437683e-02
-1.660303622484207153e-01
3.736695349216461182e-01
3.287774622440338135e-01
3.109501898288726807e-01
1.639531701803207397e-01
-4.491511359810829163e-02
-2.464034259319305420e-01
-2.473763674497604370e-01
2.556522488594055176e-01
-7.850304245948791504e-03
1.875184178352355957e-01
2.835886180400848389e-01
3.022758364677429199e-01
1.167842820286750793e-01
-2.688405811786651611e-01
-4.089576900005340576e-01
-5.553697943687438965e-01
6.190500259399414062e-01
4.369918406009674072e-01
4.277326464653015137e-01
-2.622396945953369141e-01
-3.388663828372955322e-01
1.213540509343147278e-02
4.886516332626342773e-01
3.896176218986511230e-01
2.758464813232421875e-01
1.621347218751907349e-01
2.943730354309082031e-01
1.037695780396461487e-01
3.159076273441314697e-01
1.849812269210815430e-01
7.490500062704086304e-02
4.975657910108566284e-02
7.221175730228424072e-02
-1.671957075595855713e-01
7.117680460214614868e-02
-5.711726378649473190e-03
5.227810516953468323e-02
2.626049220561981201e-01
2.912718057632446289e-01
-6.852367520332336426e-01
-2.029911279678344727e-01
-2.870547175407409668e-01
-1.125644072890281677e-01
-4.942898154258728027e-01
-5.536513328552246094e-01
-4.186542332172393799e-01
-1.362765282392501831e-01
-4.884479641914367676e-01
-7.187598943710327148e-02
-1.233367994427680969e-01
-2.197992652654647827e-01
6.602352112531661987e-02
4.970277845859527588e-02
-2.997341156005859375e-01
2.057419717311859131e-01
-2.715495228767395020e-01
7.976499199867248535e-02
6.905505061149597168e-02
5.905120074748992920e-02
-1.323566287755966187e-01
-1.543724983930587769e-01
-1.401552557945251465e-01
-1.066078990697860718e-01
1.425964385271072388e-02
3.018223643302917480e-01
-3.061984777450561523e-01
-3.674048185348510742e-01
-3.010171093046665192e-02
1.519905030727386475e-01
2.591036558151245117e-01
9.916007518768310547e-03
3.747748434543609619e-01
4.400677382946014404e-01
8.450842648744583130e-02
3.252192586660385132e-02
-1.197851821780204773e-01
1.759235858917236328e-01
4.015868008136749268e-01
7.191544771194458008e-01
3.982090353965759277e-01
3.501882553100585938e-01
1.701770536601543427e-02
-4.040473401546478271e-01
-4.095287024974822998e-01
-3.974196314811706543e-01
-1.725092977285385132e-01
-2.144020199775695801e-01
-2.963613532483577728e-02
5.611684918403625488e-01
5.704672932624816895e-01
3.695689737796783447e-01
-5.565984174609184265e-02
-4.531285464763641357e-01
-4.505958855152130127e-01
-7.525628805160522461e-01
-1.013031527400016785e-01
-3.010107278823852539e-01
1.858406364917755127e-01
1.795989423990249634e-01
5.301494523882865906e-02
-2.113590091466903687e-01
-3.324276804924011230e-01
-2.406035959720611572e-01
-1.648123264312744141e-01
9.888578951358795166e-02
-2.399380952119827271e-01
-1.591455489397048950e-01
4.715068936347961426e-01
2.163534760475158691e-01
-3.673866093158721924e-01
-1.116558983922004700e-01
6.233579292893409729e-02
3.175028264522552490e-01
5.969015359878540039e-01
3.906505405902862549e-01
-4.926033318042755127e-02
4.278279244899749756e-01
6.801247596740722656e-02
-4.596181213855743408e-01
-2.263519465923309326e-01
-1.309854630380868912e-02
-2.332597598433494568e-02
-8.368225395679473877e-02
-1.805535852909088135e-01
-1.222810298204421997e-01
1.290909349918365479e-01
2.680676281452178955e-01
3.444705605506896973e-01
4.293992221355438232e-01
3.346092104911804199e-01
1.650035977363586426e-01
1.870765388011932373e-01
1.268425881862640381e-01
2.571829594671726227e-02
2.456259354948997498e-02
2.953042984008789062e-01
-3.327428176999092102e-02
4.382677674293518066e-01
2.610731124877929688e-01
-4.050503969192504883e-01
-8.389068394899368286e-02
-3.168456256389617920e-01
5.036919936537742615e-02
3.189115524291992188e-01
-1.636696606874465942e-01
2.736892700195312500e-01
3.780693560838699341e-02
4.892583470791578293e-03
1.764519363641738892e-01
-4.952226206660270691e-02
2.702250778675079346e-01
3.115783333778381348e-01
4.993732273578643799e-01
2.061626911163330078e-01
1.893654316663742065e-01
2.745895683765411377e-01
7.522469758987426758e-02
2.243527173995971680e-01
1.496032774448394775e-01
-1.359375752508640289e-02
-2.489589899778366089e-01
2.973649501800537109e-01
2.194086089730262756e-02
2.819709777832031250e-01
1.566836088895797729e-01
-7.189255952835083008e-02
-2.779834866523742676e-01
-5.265192389488220215e-01
-3.780599534511566162e-01
1.212158426642417908e-01
-9.806499630212783813e-02
-3.928162455558776855e-01
6.796761602163314819e-02
-2.361621409654617310e-01
-4.474233388900756836e-01
1.767691820859909058e-01
-3.373391926288604736e-02
-8.006592094898223877e-02
-7.997636795043945312e-01
-3.628303110599517822e-01
-2.697363495826721191e-01
4.933874905109405518e-01
2.389692664146423340e-01
1.396786868572235107e-01
-1.844545304775238037e-01
3.797012567520141602e-01
9.304891526699066162e-02
-2.706708908081054688e-01
-1.340944916009902954e-01
-2.083198577165603638e-01
-9.029563516378402710e-02
3.306911289691925049e-01
-1.332024186849594116e-01
2.376098632812500000e-01
1.541134994477033615e-02
4.868069291114807129e-01
5.274727344512939453e-01
4.553942680358886719e-01
1.015267521142959595e-01
-3.382806181907653809e-01
-2.587542831897735596e-01
-2.710648775100708008e-01
-4.171129763126373291e-01
-5.775151848793029785e-01
-6.252819895744323730e-01
-1.071265637874603271e-01
3.890971839427947998e-02
4.253978654742240906e-02
-1.368983387947082520e-01
-1.203156784176826477e-01
5.037683844566345215e-01
2.500479342415928841e-03
-1.141559779644012451e-01
3.278292343020439148e-02
4.470942169427871704e-02
2.590550184249877930e-01
3.048930168151855469e-01
3.971249163150787354e-01
-1.324742287397384644e-01
5.768567323684692383e-01
4.651339054107666016e-01
3.872521221637725830e-01
3.361192941665649414e-01
-1.893229186534881592e-01
-3.290535137057304382e-02
-1.101607009768486023e-01
-7.978192716836929321e-02
8.832540363073348999e-02
1.092326790094375610e-01
1.201643869280815125e-01
-2.747400291264057159e-02
-9.758483618497848511e-02
-4.259303808212280273e-01
-3.264332115650177002e-01
-4.430848360061645508e-01
-1.144268885254859924e-01
-4.925419092178344727e-01
-3.062464892864227295e-01
1.296600997447967529e-01
2.358015626668930054e-01
5.427864193916320801e-01
-3.673961460590362549e-01
-1.894958615303039551e-01
4.515933692455291748e-01
4.806791990995407104e-02
-7.305955048650503159e-03
4.006271064281463623e-01
1.912319660186767578e-01
6.286034584045410156e-01
2.950566411018371582e-01
-1.726206988096237183e-01
-1.483630090951919556e-01
-6.748708337545394897e-02
3.362954854965209961e-01
1.150323897600173950e-01
4.663052260875701904e-01
1.110271960496902466e-01
-3.011790215969085693e-01
-4.330622553825378418e-01
3.253313302993774414e-01
1.983532309532165527e-01
5.927207469940185547e-01
1.059007830917835236e-03
-9.181883186101913452e-02
1.963201910257339478e-01
3.192235529422760010e-02
-2.346021085977554321e-01
2.454830408096313477e-01
-3.512279391288757324e-01
-5.218975543975830078e-01
-1.662966609001159668e-01
3.793828785419464111e-01
3.741855025291442871e-01
7.895030826330184937e-02
7.345382869243621826e-02
6.132131069898605347e-02
2.511182613670825958e-02
3.946610391139984131e-01
2.203004658222198486e-01
1.275990903377532959e-01
1.380956321954727173e-01
-3.307229280471801758e-01
-2.624711990356445312e-01
2.713514268398284912e-01
-1.385942697525024414e-01
2.511769346892833710e-02
-7.611111551523208618e-02
-1.278570890426635742e-01
-2.976778447628021240e-01
-1.094300597906112671e-01
2.195870280265808105e-01
-2.239302098751068115e-01
1.034378558397293091e-01
-6.588759273290634155e-02
4.921944439411163330e-01
-7.923219352960586548e-02
1.489044576883316040e-01
5.394762158393859863e-01
-1.022639870643615723e-02
-3.247195780277252197e-01
-3.075366318225860596e-01
1.433653384447097778e-01
4.575683772563934326e-01
3.428437113761901855e-01
-2.684963643550872803e-01
-3.643794730305671692e-02
-2.221665233373641968e-01
3.319325447082519531e-01
-7.956036925315856934e-02
4.029822349548339844e-01
1.080181822180747986e-01
-3.736862540245056152e-02
2.425884641706943512e-02
5.401201844215393066e-01
6.723735928535461426e-01
2.939608395099639893e-01
1.354265511035919189e-01
3.073950409889221191e-01
4.746108353137969971e-01
2.927336096763610840e-01
3.477656245231628418e-01
-1.883520632982254028e-01
2.067805677652359009e-01
3.957155942916870117e-01
1.998944431543350220e-01
-1.147523149847984314e-01
-5.955195426940917969e-01
1.652894467115402222e-01
3.509643077850341797e-01
1.022517457604408264e-01
-7.263850420713424683e-02
1.090352758765220642e-01
4.742821753025054932e-01
2.759670019149780273e-01
6.556614041328430176e-01
5.201372504234313965e-01
1.769730746746063232e-01
-1.669330596923828125e-01
-4.378843121230602264e-03
-1.830480098724365234e-01
-1.707611829042434692e-01
1.070587337017059326e-01
-1.544138342142105103e-01
-3.854681253433227539e-01
3.219783008098602295e-01
-4.593680799007415771e-01
-3.627470135688781738e-01
-2.040560245513916016e-01
-1.155752465128898621e-01
6.379868984222412109e-01
3.280171155929565430e-01
4.618846476078033447e-01
-7.498645782470703125e-01
-5.787190198898315430e-01
-3.957806825637817383e-01
-1.387986689805984497e-01
3.352079689502716064e-01
9.090822935104370117e-02
1.654829233884811401e-01
-1.331239491701126099e-01
-4.159712418913841248e-02
2.463939189910888672e-01
2.251115590333938599e-01
-1.826997287571430206e-02
9.936539083719253540e-02
-2.764033675193786621e-01
-8.864498883485794067e-02
-2.152641862630844116e-01
4.434983432292938232e-02
-5.414466857910156250e-01
2.103723734617233276e-01
1.869405657052993774e-01
-1.805703788995742798e-01
-2.924305200576782227e-01
-2.079513370990753174e-01
-1.453365087509155273e-01
4.964464902877807617e-01
-2.132421731948852539e-02
2.713688015937805176e-01
1.197070628404617310e-01
2.638744413852691650e-01
3.105817139148712158e-01
-1.538842171430587769e-01
6.664879620075225830e-02
-8.104031533002853394e-02
-8.151996880769729614e-02
-1.913601458072662354e-01
-2.801054418087005615e-01
-4.390610754489898682e-02
-6.282562389969825745e-03
1.955705434083938599e-01
-7.437323778867721558e-02
-1.151667325757443905e-03
-2.586340010166168213e-01
2.677771747112274170e-01
-3.891060873866081238e-02
-5.940517410635948181e-02
3.523623049259185791e-01
1.711897999048233032e-01
-1.451516896486282349e-01
-5.644047260284423828e-01
-2.724162936210632324e-01
1.135574467480182648e-02
-1.792329400777816772e-01
-2.568540871143341064e-01
1.780798137187957764e-01
-2.458711117506027222e-01
-3.580457866191864014e-01
-1.806258969008922577e-02
1.209845840930938721e-01
9.603095054626464844e-02
1.081071868538856506e-01
-3.656208813190460205e-01
-1.593662500381469727e-01
-1.008308213204145432e-02
3.027254641056060791e-01
1.220156699419021606e-01
-4.602682963013648987e-02
-2.972901463508605957e-01
-2.846950888633728027e-01
1.279773563146591187e-01
-8.088909834623336792e-02
2.618005685508251190e-02
-2.807896137237548828e-01
5.478318929672241211e-01
5.312368273735046387e-01
1.041492596268653870e-01
2.863266468048095703e-01
1.065141856670379639e-01
1.792721003293991089e-01
-9.329149127006530762e-02
-3.332489728927612305e-01
-5.032723397016525269e-02
-6.767264008522033691e-02
-2.771771252155303955e-01
1.506031155586242676e-01
4.961927831172943115e-01
4.597689211368560791e-01
3.115322589874267578e-01
-3.506152629852294922e-01
9.310275316238403320e-02
-1.408044099807739258e-01
-3.647696375846862793e-01
-4.993887543678283691e-01
-2.925933897495269775e-01
-4.596768617630004883e-01
-3.022216260433197021e-02
-1.040567904710769653e-01
1.870019733905792236e-01
1.857025176286697388e-01
4.322943091392517090e-01
-2.764725685119628906e-01
-4.570590555667877197e-01
-5.076774954795837402e-01
-5.699075460433959961e-01
-6.908071637153625488e-01
-5.617961883544921875e-01
-4.147275537252426147e-02
-1.906000375747680664e-01
-2.156005799770355225e-01
1.612023115158081055e-01
-4.261101409792900085e-02
5.384743958711624146e-02
-4.397059679031372070e-01
-5.972354412078857422e-01
-6.671484708786010742e-01
8.406598120927810669e-02
-5.078546702861785889e-02
-1.356851011514663696e-01
4.251334965229034424e-01
1.815693676471710205e-01
1.239538714289665222e-01
8.852778375148773193e-02
2.699720859527587891e-01
3.761909008026123047e-01
2.479909658432006836e-01
1.902067810297012329e-01
-1.194613799452781677e-01
6.285826861858367920e-02
-4.688299819827079773e-02
9.752140194177627563e-02
-1.214771494269371033e-01
-1.580850332975387573e-01
-3.440513908863067627e-01
3.732244074344635010e-01
2.983732819557189941e-01
1.444477140903472900e-01
2.531417310237884521e-01
1.382742375135421753e-01
6.010985374450683594e-01
-2.787606120109558105e-01
-3.957166075706481934e-01
-3.011010587215423584e-01
1.227170750498771667e-01
-1.931524872779846191e-01
-1.824063509702682495e-01
4.259309768676757812e-01
4.127536714076995850e-01
2.054599672555923462e-01
-1.398594975471496582e-01
-3.304404020309448242e-02
7.311759889125823975e-02
-6.967771053314208984e-01
-2.661854624748229980e-01
-3.725332915782928467e-01
-2.366084903478622437e-01
-1.802259087562561035e-01
-1.832617521286010742e-01
-3.038669824600219727e-01
-1.827507913112640381e-01
7.388184964656829834e-02
-6.666865199804306030e-02
2.426339089870452881e-01
-7.941365242004394531e-03
1.438726484775543213e-01
1.855721920728683472e-01
2.204604297876358032e-01
-1.052567362785339355e-01
-3.761066868901252747e-02
1.718282550573348999e-01
-2.128589153289794922e-01
-4.043057188391685486e-02
2.127155512571334839e-01
-1.082922220230102539e-01
-4.175443947315216064e-01
-2.667132616043090820e-01
4.934989809989929199e-01
2.007875740528106689e-01
2.406523078680038452e-01
5.130703449249267578e-01
3.937042057514190674e-01
8.204384148120880127e-02
3.245528042316436768e-01
