3.715151846408843994e-01
6.609341502189636230e-01
2.124709844589233398e+00
3.904677331447601318e-01
-4.207059144973754883e-01
2.362437486648559570e+00
-1.159144401550292969e+00
2.220591545104980469e+00
2.648389339447021484e+00
-2.215728282928466797e+00
-9.133913367986679077e-02
1.390876889228820801e+00
-6.528118252754211426e-01
2.752664804458618164e+00
-9.002086520195007324e-01
-8.565954566001892090e-01
-2.691471099853515625e+00
6.279727816581726074e-01
1.208486437797546387e+00
1.350155949592590332e+00
-6.737133860588073730e-01
-1.865544557571411133e+00
-1.091440558433532715e+00
9.771241545677185059e-01
2.503487586975097656e+00
-1.352007627487182617e+00
-9.884696602821350098e-01
-4.312391877174377441e-01
-1.018347442150115967e-01
-1.037864610552787781e-01
-6.730930805206298828e-01
6.954510807991027832e-01
3.022726774215698242e-01
2.318696260452270508e+00
-8.501114845275878906e-01
1.924762129783630371e+00
1.304566502571105957e+00
1.718420147895812988e+00
-8.340712785720825195e-01
-9.551531672477722168e-01
-6.863755583763122559e-01
1.259116053581237793e+00
-5.522179603576660156e-01
-1.124847412109375000e+00
-1.003433465957641602e+00
-1.233951374888420105e-01
-1.290537834167480469e+00
2.177256822586059570e+00
1.365089893341064453e+00
1.207358837127685547e+00
-5.761878490447998047e-01
6.856490969657897949e-01
-5.946586132049560547e-01
-1.058542132377624512e-01
-1.291052699089050293e+00
1.821420311927795410e+00
-7.309122085571289062e-01
-1.676934123039245605e+00
6.871309280395507812e-01
-1.662423849105834961e+00
-1.671206951141357422e+00
9.067772030830383301e-01
1.898990273475646973e-01
-1.277747273445129395e+00
