1.288132462650537491e-02
-2.175001800060272217e-01
-1.099450662732124329e-01
2.411846220493316650e-01
-6.670213490724563599e-02
-5.797523632645606995e-02
1.162536665797233582e-01
-1.319540888071060181e-01
-1.874439567327499390e-01
1.462595630437135696e-02
-5.787353962659835815e-02
-8.521418273448944092e-02
1.608462631702423096e-01
-1.629054099321365356e-01
-7.605469971895217896e-02
-1.647529900074005127e-01
5.889741331338882446e-02
-4.199359565973281860e-02
1.306334733963012695e-01
5.993511527776718140e-02
2.683110348880290985e-02
-7.094502449035644531e-02
2.201550155878067017e-01
-1.504586786031723022e-01
1.878358125686645508e-01
-7.145990431308746338e-02
-1.072501167654991150e-01
-1.516057103872299194e-01
-7.949631661176681519e-02
1.055817008018493652e-01
1.831370405852794647e-02
4.143600165843963623e-02
1.140912696719169617e-01
1.411988139152526855e-01
6.018465012311935425e-02
-6.201243028044700623e-02
2.160159051418304443e-01
-7.581975311040878296e-02
3.850686131045222282e-03
1.210746318101882935e-01
3.409906476736068726e-02
-1.986693441867828369e-01
-5.379872024059295654e-02
-1.436486244201660156e-01
9.722323715686798096e-02
-1.008437275886535645e-01
-1.761783063411712646e-01
-2.776538766920566559e-02
1.101743653416633606e-01
4.736281931400299072e-02
1.299578398466110229e-01
2.100363820791244507e-01
1.123421639204025269e-01
-6.281048804521560669e-02
8.327719569206237793e-02
6.550548970699310303e-02
-1.157246753573417664e-01
-4.500589147210121155e-02
4.812781512737274170e-02
-1.847736537456512451e-02
1.268987171351909637e-02
2.544221282005310059e-02
9.170055389404296875e-02
1.247553527355194092e-01
7.049775123596191406e-02
1.247918903827667236e-01
-4.423396661877632141e-02
-5.160861182957887650e-03
-2.671238183975219727e-01
-8.525125682353973389e-03
-1.592895686626434326e-01
5.468882992863655090e-02
1.652353405952453613e-01
1.546636074781417847e-01
-1.369238644838333130e-01
3.857092699036002159e-03
-1.325616147369146347e-02
1.255587339401245117e-01
-8.459921926259994507e-02
-1.464376300573348999e-01
-7.264712359756231308e-03
-9.448891133069992065e-02
4.248133674263954163e-02
-1.223799660801887512e-01
4.163827747106552124e-02
5.229099187999963760e-03
-1.499696969985961914e-01
-8.947500586509704590e-02
-1.589154591783881187e-03
-1.098944395780563354e-01
-1.578834354877471924e-01
-9.435485303401947021e-02
-2.287030592560768127e-02
-1.103713810443878174e-01
9.212255477905273438e-02
1.638085395097732544e-01
2.195069044828414917e-01
1.422896832227706909e-01
-2.643480710685253143e-02
-2.873569354414939880e-02
1.926054507493972778e-01
-4.711829591542482376e-03
-1.681623756885528564e-01
-1.351425703614950180e-02
1.903129220008850098e-01
3.386219963431358337e-02
5.765646696090698242e-02
-1.659718602895736694e-01
2.958581037819385529e-02
-9.160320460796356201e-02
1.052306964993476868e-01
-2.450572326779365540e-02
8.818931877613067627e-02
1.717397421598434448e-01
-1.164674386382102966e-01
-7.937027513980865479e-02
-1.909841895103454590e-01
7.947192341089248657e-02
-1.021824628114700317e-01
-1.831472069025039673e-01
-2.332017570734024048e-01
-8.978958427906036377e-02
7.480149506591260433e-04
-1.259224563837051392e-01
-1.596309393644332886e-01
1.212654486298561096e-01
9.823363274335861206e-02
-9.688206017017364502e-02
1.133078932762145996e-01
-8.156915754079818726e-02
-1.541292369365692139e-01
2.886326750740408897e-03
-4.265318065881729126e-02
-2.194500714540481567e-01
1.449571549892425537e-01
-3.501537814736366272e-02
1.913761347532272339e-02
1.217145994305610657e-01
-2.103555249050259590e-03
-1.029619127511978149e-01
-1.453795880079269409e-01
-5.200656875967979431e-02
4.314224794507026672e-02
2.087867073714733124e-02
1.318552643060684204e-01
1.137254312634468079e-01
-1.375275105237960815e-01
5.016876384615898132e-02
-1.770734488964080811e-01
-1.250392496585845947e-01
2.161413617432117462e-02
-4.677337035536766052e-02
-9.061979502439498901e-02
1.217454820871353149e-01
1.324869692325592041e-01
-1.606240123510360718e-01
1.530190706253051758e-01
8.941271901130676270e-02
3.271081671118736267e-02
-1.481266319751739502e-01
-1.556648761034011841e-01
-8.337023667991161346e-03
-1.352074891328811646e-01
-1.087167207151651382e-02
-1.008897721767425537e-01
1.346320062875747681e-01
9.403726458549499512e-02
-1.557989120483398438e-01
2.481927536427974701e-02
1.803975999355316162e-01
3.337193280458450317e-02
1.018778514117002487e-02
-1.234067007899284363e-01
8.176554739475250244e-02
-6.339874863624572754e-02
-2.195044010877609253e-01
-3.901484981179237366e-02
-3.717889543622732162e-03
-9.187480807304382324e-02
1.352541148662567139e-01
1.506934165954589844e-01
1.782466471195220947e-02
5.183645337820053101e-02
6.585730612277984619e-02
-1.939878165721893311e-01
-1.456858664751052856e-01
-1.781490594148635864e-01
-1.016690433025360107e-01
7.784298807382583618e-02
6.531555950641632080e-02
-1.192604843527078629e-02
-1.646475121378898621e-02
-1.895170658826828003e-01
2.581753768026828766e-02
5.912738386541604996e-03
-6.591514497995376587e-02
-2.720902860164642334e-01
-3.637632131576538086e-01
-2.251988202333450317e-01
-9.632781147956848145e-02
-1.371509730815887451e-01
7.090105861425399780e-02
1.602084636688232422e-01
3.189325034618377686e-01
4.100292176008224487e-02
-5.167620838619768620e-04
1.268393099308013916e-01
-5.770226195454597473e-02
1.563851833343505859e-01
-1.089826971292495728e-01
-1.198217868804931641e-01
2.336808294057846069e-01
1.511916965246200562e-01
-2.403938770294189453e-01
-1.430715024471282959e-01
-2.577611505985260010e-01
-3.915797173976898193e-02
-2.596155107021331787e-01
1.077093034982681274e-01
-2.318768054246902466e-01
-8.691611140966415405e-02
3.184603750705718994e-01
-1.658342927694320679e-01
-2.367730289697647095e-01
4.067553281784057617e-01
-2.668270170688629150e-01
9.444782882928848267e-02
2.442449182271957397e-01
6.599661707878112793e-02
-1.790046095848083496e-01
2.557127773761749268e-01
2.403426617383956909e-01
-1.922077536582946777e-01
-1.553015708923339844e-01
-6.658884137868881226e-02
1.188874691724777222e-01
9.011756628751754761e-02
-1.064433529973030090e-02
9.693246334791183472e-02
3.484655022621154785e-01
1.160260103642940521e-02
1.232275962829589844e-01
1.822202205657958984e-01
1.847637258470058441e-02
1.468284875154495239e-01
2.540622353553771973e-01
2.196748256683349609e-01
1.482022851705551147e-01
-1.303886622190475464e-01
3.317664377391338348e-04
-1.294526159763336182e-01
-1.392779052257537842e-01
-5.357331410050392151e-02
1.140549257397651672e-01
-1.066501364111900330e-01
-2.657724022865295410e-01
-5.728034675121307373e-02
-1.596184074878692627e-01
-1.834626048803329468e-01
-5.316529795527458191e-02
6.564386188983917236e-03
7.613523863255977631e-03
2.111797481775283813e-01
-7.233803719282150269e-02
1.750140488147735596e-01
-1.552229970693588257e-01
2.940978668630123138e-02
-4.045707881450653076e-01
-1.156053692102432251e-02
-9.404990822076797485e-02
3.154469728469848633e-01
-2.228413373231887817e-01
5.791130661964416504e-02
-1.548645198345184326e-01
8.373863995075225830e-02
4.821939021348953247e-02
5.689130350947380066e-02
-1.270820796489715576e-01
1.890410333871841431e-01
-3.022756660357117653e-03
-1.519602723419666290e-02
-1.130829527974128723e-01
-2.553887069225311279e-01
-3.058196604251861572e-01
2.092331945896148682e-01
2.766119241714477539e-01
-9.928461164236068726e-02
-4.078006371855735779e-02
1.452619731426239014e-01
2.382911890745162964e-01
8.733921684324741364e-03
2.863516286015510559e-02
-1.259473711252212524e-01
7.405417412519454956e-02
-2.159991860389709473e-01
-2.970939576625823975e-01
-7.520442456007003784e-02
-2.220559567213058472e-01
-1.163347885012626648e-01
3.933181241154670715e-02
3.410668075084686279e-01
2.849155366420745850e-01
-7.548853009939193726e-02
1.031323801726102829e-02
2.717078030109405518e-01
-3.719250857830047607e-02
1.612682342529296875e-01
-2.935745194554328918e-02
-2.732844352722167969e-01
-1.240506470203399658e-01
2.215384878218173981e-02
-1.659531593322753906e-01
-1.833922266960144043e-01
2.273405641317367554e-01
-3.345663547515869141e-01
-9.254901856184005737e-02
1.253842711448669434e-01
-7.126905024051666260e-02
7.096239179372787476e-02
9.356736391782760620e-02
-1.605469733476638794e-01
-1.246580481529235840e-02
4.497893899679183960e-02
-2.873604595661163330e-01
7.350152730941772461e-02
1.723842024803161621e-01
-2.667497396469116211e-01
2.258310094475746155e-02
9.835111349821090698e-02
9.344489127397537231e-02
-2.658820748329162598e-01
-2.241937220096588135e-01
3.356487154960632324e-01
2.233867496252059937e-01
3.458237946033477783e-01
2.256295531988143921e-01
-1.137879714369773865e-01
1.305060088634490967e-01
-1.208776086568832397e-01
-1.261675804853439331e-01
-3.467019200325012207e-01
2.529156804084777832e-01
-1.791588030755519867e-02
1.804079860448837280e-02
-2.151833623647689819e-01
1.947658360004425049e-01
-7.439550012350082397e-02
-7.989536970853805542e-03
-3.171730786561965942e-02
1.407969743013381958e-01
3.444109112024307251e-02
1.693652383983135223e-02
-3.646377325057983398e-01
-2.269462645053863525e-01
1.258240193128585815e-01
-1.053974106907844543e-01
-1.985955536365509033e-01
-1.367056965827941895e-01
-3.629182875156402588e-01
-3.771083056926727295e-02
4.417372494935989380e-02
2.221466749906539917e-01
-2.198833823204040527e-01
-1.368336081504821777e-01
-3.830745071172714233e-02
1.120375189930200577e-02
3.032495081424713135e-01
1.041173189878463745e-01
-6.978189200162887573e-02
-1.665491610765457153e-01
7.315477728843688965e-02
-1.316518485546112061e-01
-2.532700635492801666e-02
2.854398190975189209e-01
-3.664016351103782654e-02
-1.771168559789657593e-01
-1.266610920429229736e-01
1.464160252362489700e-02
-1.760142892599105835e-01
-1.868377625942230225e-01
1.877544671297073364e-01
-2.739088796079158783e-02
-1.684389561414718628e-01
1.413296461105346680e-01
1.255546361207962036e-01
1.199256479740142822e-01
9.910465031862258911e-02
-2.386161237955093384e-01
1.893098582513630390e-03
-5.307418107986450195e-02
4.472904279828071594e-02
-1.502169016748666763e-02
-5.044328048825263977e-02
9.365443885326385498e-02
-1.086404547095298767e-01
3.208687528967857361e-02
-5.192466080188751221e-02
-6.203288584947586060e-02
1.190893724560737610e-02
1.288472563028335571e-01
2.660833299160003662e-03
1.359276920557022095e-01
-4.086823610123246908e-04
6.873586028814315796e-02
3.395560756325721741e-02
-2.652319520711898804e-02
-8.473344892263412476e-02
-4.337641969323158264e-02
-7.615662366151809692e-02
1.475159972906112671e-01
4.740627110004425049e-02
1.725638210773468018e-01
1.348288357257843018e-01
2.985844761133193970e-02
-1.560161560773849487e-01
6.813047826290130615e-02
9.456072747707366943e-02
5.724274739623069763e-02
5.591959506273269653e-02
-1.124580129981040955e-01
-2.737191915512084961e-01
-1.021893620491027832e-01
-3.254104554653167725e-01
1.189127564430236816e-01
6.531818211078643799e-02
-4.337542131543159485e-02
2.459395527839660645e-01
9.067588299512863159e-02
-1.191610544919967651e-01
-8.659058809280395508e-02
6.742133200168609619e-02
-2.053520381450653076e-01
-1.334364712238311768e-02
3.876838460564613342e-02
-1.721190363168716431e-01
1.652797460556030273e-01
-8.035095781087875366e-02
-2.328958511352539062e-01
-1.344941854476928711e-01
-1.414651572704315186e-01
-3.984648734331130981e-02
1.145809516310691833e-02
-2.450638562440872192e-01
1.199065595865249634e-01
-1.313535720109939575e-01
1.467237323522567749e-01
5.600614473223686218e-02
-2.449123933911323547e-02
2.230698317289352417e-01
1.810178607702255249e-01
-1.546519808471202850e-02
2.936341799795627594e-03
9.624917060136795044e-02
-1.442723423242568970e-01
-6.584916263818740845e-02
-1.930587142705917358e-01
6.207531318068504333e-02
9.013836085796356201e-02
9.230600297451019287e-02
1.132821366190910339e-01
6.355050206184387207e-02
-4.561477527022361755e-02
-1.817329376935958862e-01
9.962162375450134277e-02
-9.755845367908477783e-02
-2.180093899369239807e-02
1.787048391997814178e-02
5.007359012961387634e-02
-1.817447543144226074e-01
5.197599902749061584e-02
1.080108210444450378e-01
-1.624779999256134033e-01
-8.973007649183273315e-02
-1.839045137166976929e-01
-1.797458976507186890e-01
1.454056054353713989e-01
6.746381521224975586e-02
1.037188246846199036e-01
-8.919353783130645752e-02
-7.810949534177780151e-02
-1.294917520135641098e-02
6.066286563873291016e-02
3.029108233749866486e-02
-1.409340351819992065e-01
-7.472714781761169434e-02
-1.536403745412826538e-01
1.422203332185745239e-01
1.536365300416946411e-01
-2.167015522718429565e-02
-1.979578733444213867e-01
-1.654415279626846313e-01
1.184702664613723755e-02
-1.262087672948837280e-01
3.972810879349708557e-02
9.564574062824249268e-02
-1.003839001059532166e-01
1.650450527667999268e-01
1.027807742357254028e-01
-2.246929146349430084e-02
1.963174492120742798e-01
-4.461508616805076599e-02
1.054993197321891785e-01
-1.592476516962051392e-01
8.974118530750274658e-02
-3.670778498053550720e-02
-1.250640451908111572e-01
8.800990879535675049e-02
1.777928695082664490e-02
1.791524328291416168e-02
5.700428783893585205e-02
-2.075419761240482330e-02
-1.168628782033920288e-02
-1.920311748981475830e-01
-2.331063747406005859e-01
-1.217774227261543274e-01
-1.435485333204269409e-01
-1.237343326210975647e-01
1.787641644477844238e-01
-1.862151362001895905e-02
1.121255569159984589e-02
-1.949832215905189514e-02
1.354974657297134399e-01
-2.543979883193969727e-01
-9.398472309112548828e-02
-7.929234951734542847e-02
4.443067312240600586e-02
-3.165154159069061279e-02
1.286822110414505005e-01
-1.620178669691085815e-02
2.568802833557128906e-01
9.008733928203582764e-02
8.455792814493179321e-02
4.628922615665942430e-04
-1.993556767702102661e-01
1.103750243782997131e-01
1.958093047142028809e-01
6.886333227157592773e-02
7.464490085840225220e-02
-2.501901984214782715e-01
7.710174471139907837e-02
3.751668334007263184e-02
-1.799688786268234253e-01
1.415497511625289917e-01
1.563030630350112915e-01
-4.475555615499615669e-04
2.879445850849151611e-01
4.258928820490837097e-02
1.320998966693878174e-01
-1.752396076917648315e-01
-1.505440622568130493e-01
9.399060159921646118e-02
-6.399770826101303101e-02
-7.385747879743576050e-02
-6.348017603158950806e-02
9.288719296455383301e-02
6.562762707471847534e-02
-2.174565345048904419e-01
-4.083826765418052673e-02
1.394743565469980240e-02
1.683042198419570923e-02
-1.139067932963371277e-01
1.311639547348022461e-01
-1.312508136034011841e-01
9.179247170686721802e-02
-5.918481200933456421e-02
-1.485880613327026367e-01
-1.014258340001106262e-01
-4.170416668057441711e-02
1.120859161019325256e-01
-6.241577118635177612e-02
-3.202031552791595459e-02
-1.475840341299772263e-02
-2.469604648649692535e-02
-8.239169418811798096e-02
1.091673001646995544e-01
9.109914302825927734e-02
6.944118533283472061e-03
1.307583898305892944e-01
9.547465294599533081e-02
1.355942189693450928e-01
-3.754815086722373962e-02
1.134318336844444275e-01
-3.285678848624229431e-02
3.661366924643516541e-02
-4.795162379741668701e-02
-9.864693135023117065e-02
6.617166846990585327e-02
9.064354002475738525e-02
-3.173307701945304871e-02
4.768756031990051270e-02
2.112409472465515137e-02
5.510051175951957703e-02
-2.464334480464458466e-02
2.933376654982566833e-02
8.975347876548767090e-02
8.395882695913314819e-02
-1.821137778460979462e-02
3.777625784277915955e-02
-1.556203812360763550e-01
2.960457652807235718e-02
-2.076258659362792969e-01
7.585699856281280518e-02
2.773227915167808533e-02
-2.981476951390504837e-03
6.745164841413497925e-02
-7.209915667772293091e-02
9.562466293573379517e-02
1.135106086730957031e-01
-8.961787819862365723e-02
-1.564384102821350098e-01
3.376756608486175537e-02
-7.329899817705154419e-02
-1.002373248338699341e-01
4.341607540845870972e-02
9.124647825956344604e-03
2.545868046581745148e-02
-7.798576354980468750e-02
-9.424094855785369873e-02
-6.942009180784225464e-02
-9.083208627998828888e-03
-1.018637120723724365e-01
-1.001170948147773743e-01
-5.110811814665794373e-02
-5.795923247933387756e-02
-8.945457637310028076e-02
3.743064776062965393e-02
5.044909776188433170e-04
7.188364118337631226e-02
-5.450091324746608734e-03
-1.289182454347610474e-01
2.440440095961093903e-02
-1.175822988152503967e-01
4.534664005041122437e-02
5.837474949657917023e-03
1.025659847073256969e-03
-7.819667458534240723e-02
-3.230546787381172180e-02
-5.080031603574752808e-02
-9.613576345145702362e-03
4.247646033763885498e-02
-5.201601982116699219e-02
-4.945199564099311829e-02
-7.413110882043838501e-02
-7.814087718725204468e-02
-3.152738139033317566e-02
-8.031670749187469482e-02
8.798422664403915405e-02
2.131813205778598785e-02
7.475984096527099609e-02
-4.823021590709686279e-02
-1.230991259217262268e-02
-4.440025612711906433e-02
-5.841884389519691467e-02
1.865098625421524048e-02
-2.894072420895099640e-02
3.076572902500629425e-02
-7.071978598833084106e-02
4.077846184372901917e-02
-3.991765901446342468e-02
1.076699644327163696e-01
4.594871774315834045e-03
-1.296928972005844116e-01
-1.033475901931524277e-02
-3.083542734384536743e-02
-1.012412831187248230e-01
-9.632218629121780396e-02
1.373147964477539062e-02
3.739006072282791138e-02
-3.505293279886245728e-02
-1.079704388976097107e-01
3.695904091000556946e-02
-1.264520138502120972e-01
-3.771496564149856567e-02
-1.734183914959430695e-02
-7.081047515384852886e-04
-1.263674944639205933e-01
6.976867467164993286e-02
9.575526230037212372e-03
9.523231536149978638e-03
2.066238783299922943e-02
1.137604285031557083e-02
-1.030205786228179932e-01
-2.817198261618614197e-02
-1.388893872499465942e-01
7.468327134847640991e-02
-4.579819142236374319e-05
1.057103425264358521e-01
-8.583881705999374390e-02
-1.933523640036582947e-02
-6.570518016815185547e-02
-3.100812248885631561e-02
-2.724488824605941772e-02
-2.247407287359237671e-02
-3.040901944041252136e-02
-2.897990494966506958e-02
2.001645416021347046e-02
-2.677535405382514000e-03
1.412427797913551331e-02
5.127728730440139771e-02
5.702801793813705444e-02
1.187806054949760437e-01
8.213284611701965332e-02
-1.129932468757033348e-03
7.492440938949584961e-02
3.414959460496902466e-02
-1.286194771528244019e-01
-1.714204847812652588e-01
3.816727548837661743e-02
-5.708778277039527893e-02
1.037941426038742065e-01
-5.804463475942611694e-02
7.965955138206481934e-02
5.608966946601867676e-02
-9.025767445564270020e-02
-1.582027375698089600e-01
-9.479100257158279419e-02
4.138845019042491913e-03
1.012468934059143066e-01
-5.958102177828550339e-03
1.610175520181655884e-02
5.076517537236213684e-02
5.084082856774330139e-02
6.159833818674087524e-02
1.161227226257324219e-01
4.452680051326751709e-02
-3.257948160171508789e-02
-4.255791008472442627e-02
-2.089845947921276093e-02
1.690361499786376953e-01
-9.710870683193206787e-02
7.229880895465612411e-03
5.908882617950439453e-02
2.228317968547344208e-02
-1.203399300575256348e-01
-1.588261574506759644e-01
-7.552748173475265503e-02
5.026235058903694153e-02
-3.688517585396766663e-02
9.987126290798187256e-02
7.412312179803848267e-02
-1.608207076787948608e-01
1.087149232625961304e-01
7.079911231994628906e-02
-1.068035066127777100e-01
-1.014356315135955811e-01
-1.167812570929527283e-01
-1.142201870679855347e-01
4.819776862859725952e-02
-3.083094023168087006e-03
-5.691363289952278137e-02
-8.573933690786361694e-02
-9.888456761837005615e-02
1.335636377334594727e-01
-8.844210766255855560e-03
3.286394849419593811e-02
-3.915154561400413513e-02
6.166931986808776855e-02
2.735665813088417053e-02
6.742934882640838623e-02
2.708760276436805725e-02
-9.108102321624755859e-02
-5.972940847277641296e-02
-2.019421756267547607e-02
7.350271195173263550e-02
-3.383942693471908569e-02
-1.204369366168975830e-01
8.741404861211776733e-02
-1.697531789541244507e-01
-6.147403270006179810e-02
-4.009623527526855469e-01
-3.665934503078460693e-01
-1.015679836273193359e-01
2.203045636415481567e-01
4.703824818134307861e-01
-1.795373409986495972e-01
-9.849480539560317993e-02
-3.777915835380554199e-01
-2.913126945495605469e-01
-3.692725002765655518e-01
1.499365922063589096e-02
-2.936251163482666016e-01
-1.854725182056427002e-01
1.328242942690849304e-02
-2.412454411387443542e-02
-5.379276350140571594e-02
-9.799330681562423706e-02
3.857814371585845947e-01
-2.803449332714080811e-01
-3.155363798141479492e-01
3.712625503540039062e-01
1.449013799428939819e-01
2.722222208976745605e-01
2.847142815589904785e-01
-2.259141206741333008e-01
-1.227214783430099487e-01
-4.382978975772857666e-01
1.124355718493461609e-01
1.831400096416473389e-01
-3.972616791725158691e-01
-2.667090296745300293e-01
-1.039475426077842712e-01
1.459527760744094849e-01
7.430981844663619995e-03
1.213075891137123108e-01
4.182103276252746582e-02
3.299992680549621582e-01
1.730418354272842407e-01
7.951332628726959229e-02
6.946233659982681274e-02
8.758366107940673828e-03
-2.119479924440383911e-01
3.315761983394622803e-01
-4.352041333913803101e-02
5.714420601725578308e-02
-2.076180186122655869e-03
-2.060240358114242554e-01
1.708740144968032837e-01
1.858943849802017212e-01
2.793177366256713867e-01
2.167969048023223877e-01
1.954521089792251587e-01
-1.314974762499332428e-02
9.804444387555122375e-03
1.505103558301925659e-01
1.126099079847335815e-01
-9.574494510889053345e-02
-5.342085659503936768e-02
1.078314408659934998e-01
2.425128519535064697e-01
1.903067082166671753e-01
-2.475771158933639526e-01
-1.889316178858280182e-02
-1.902791410684585571e-01
1.331447996199131012e-02
-1.949849575757980347e-01
-4.065718501806259155e-02
6.082370132207870483e-02
3.043231964111328125e-01
1.658287793397903442e-01
-2.324869390577077866e-03
1.365176290273666382e-01
1.879839412868022919e-02
-1.113225892186164856e-01
8.187151700258255005e-02
-1.445492058992385864e-01
7.168133743107318878e-03
-1.499292552471160889e-01
-1.365976631641387939e-01
-3.151532113552093506e-01
-7.676962763071060181e-02
8.871118724346160889e-02
4.640642181038856506e-02
-1.732192337512969971e-01
3.049008920788764954e-02
1.958624422550201416e-01
-2.796431481838226318e-01
-3.084167838096618652e-01
2.766067683696746826e-01
-4.200694561004638672e-01
-4.189149737358093262e-01
-4.634959697723388672e-01
-2.177769839763641357e-01
-3.484038114547729492e-01
1.814284734427928925e-02
-7.250396162271499634e-02
3.531740903854370117e-01
-2.403607964515686035e-01
-3.312607109546661377e-01
-3.926851153373718262e-01
-3.796266615390777588e-01
1.413883268833160400e-01
-1.856722086668014526e-01
-4.811001941561698914e-02
1.037415210157632828e-02
-9.170366451144218445e-03
-1.789521574974060059e-01
6.351000666618347168e-01
1.499820221215486526e-02
-9.795191697776317596e-03
1.877316981554031372e-01
3.076637685298919678e-01
2.646579444408416748e-01
3.601763769984245300e-02
3.256818652153015137e-02
-2.061331421136856079e-01
7.118638604879379272e-02
3.813660889863967896e-02
-2.813086509704589844e-01
-4.456405714154243469e-02
5.609894543886184692e-02
7.206687331199645996e-02
4.568854868412017822e-01
2.927073836326599121e-01
-3.170902281999588013e-02
-4.525023400783538818e-01
-1.635437309741973877e-01
-2.691901326179504395e-01
-1.522720456123352051e-01
1.180117428302764893e-01
-4.136994853615760803e-02
-1.524493657052516937e-02
2.138045281171798706e-01
-2.661135792732238770e-01
1.412580907344818115e-01
2.332516014575958252e-01
1.771375834941864014e-01
2.321333624422550201e-02
-2.655065059661865234e-02
-5.233310461044311523e-01
2.450946420431137085e-01
-2.998217009007930756e-02
-1.214226186275482178e-01
4.514047130942344666e-02
3.677659928798675537e-01
-5.605911463499069214e-02
2.065621018409729004e-01
5.288898572325706482e-02
-6.442832201719284058e-02
-1.545981466770172119e-01
2.927980720996856689e-01
3.088358938694000244e-01
4.666791558265686035e-01
3.645187318325042725e-01
-2.722731791436672211e-02
-2.943657040596008301e-01
-1.924871653318405151e-01
-1.607036888599395752e-01
-1.235238239169120789e-01
1.677308976650238037e-01
-1.155737936496734619e-01
9.941339492797851562e-02
-1.377474665641784668e-01
1.059229671955108643e-01
1.299063712358474731e-01
2.113390415906906128e-01
1.604302525520324707e-01
9.686476737260818481e-02
2.844246625900268555e-01
1.527779400348663330e-01
-3.143531829118728638e-02
-5.330997705459594727e-02
-1.558595150709152222e-01
8.283073455095291138e-02
-1.467914432287216187e-01
-7.133036851882934570e-02
-1.267134398221969604e-01
-1.333322823047637939e-01
3.466273844242095947e-01
-2.546462714672088623e-01
8.903581649065017700e-02
5.190761387348175049e-02
-2.096933498978614807e-02
-4.555754959583282471e-01
-6.775949895381927490e-02
-2.074216306209564209e-01
-1.582949161529541016e-01
-1.893036812543869019e-01
-3.042301237583160400e-01
3.249975293874740601e-02
8.633200824260711670e-02
2.834709882736206055e-01
-9.037343412637710571e-02
-1.103028506040573120e-01
6.009307131171226501e-02
-1.716561615467071533e-02
3.531978651881217957e-02
8.779140189290046692e-03
-1.112137883901596069e-01
-7.741081714630126953e-02
-1.550784111022949219e-01
3.208041936159133911e-02
-1.799571327865123749e-02
1.317809224128723145e-01
1.370757669210433960e-01
1.776366978883743286e-01
-9.908505529165267944e-02
1.132591366767883301e-01
1.115472093224525452e-01
-1.512582898139953613e-01
-7.472386211156845093e-02
5.564125627279281616e-02
2.083398550748825073e-01
-3.616847097873687744e-02
-7.362025231122970581e-02
4.342372342944145203e-02
6.895781308412551880e-02
1.132335141301155090e-01
9.849581867456436157e-02
1.541426777839660645e-02
-2.157852947711944580e-01
1.626320779323577881e-01
4.986406117677688599e-02
-2.264151908457279205e-02
3.402915969491004944e-02
5.227204784750938416e-02
8.452203869819641113e-02
-4.411600902676582336e-02
-6.502540782094001770e-03
1.883689016103744507e-01
1.359875202178955078e-01
2.250368744134902954e-01
1.023808494210243225e-01
9.325609356164932251e-02
4.396131634712219238e-02
-4.672073200345039368e-02
9.597717225551605225e-02
1.174827888607978821e-01
-1.046555340290069580e-01
1.295692771673202515e-01
1.082666870206594467e-02
-1.167403385043144226e-01
-1.261249929666519165e-01
2.082276046276092529e-01
-1.781612932682037354e-01
7.205650955438613892e-02
-6.168674305081367493e-02
-1.383485049009323120e-01
1.137658357620239258e-01
1.886882334947586060e-01
1.512064188718795776e-01
-1.917851157486438751e-02
4.652125388383865356e-02
1.669188588857650757e-01
-3.366780281066894531e-02
1.153447404503822327e-01
1.896066963672637939e-01
-6.105991825461387634e-02
2.844583801925182343e-02
-1.074889004230499268e-01
-2.047166228294372559e-02
9.852204471826553345e-02
1.310436148196458817e-02
-1.907797604799270630e-01
1.576400101184844971e-01
1.327839046716690063e-01
-6.625998765230178833e-02
-1.896629929542541504e-01
-5.279993265867233276e-02
-9.028570353984832764e-02
-7.993655651807785034e-02
7.277989387512207031e-02
-3.268826985731720924e-03
2.542592585086822510e-01
1.019666716456413269e-01
-2.846533358097076416e-01
-1.866924613714218140e-01
-1.526787132024765015e-01
4.606879130005836487e-02
-8.358304202556610107e-02
-7.479152083396911621e-02
-9.965393692255020142e-02
1.356149613857269287e-01
-1.041331291198730469e-01
-1.698462516069412231e-01
-2.185301668941974640e-02
1.196788325905799866e-01
-9.871553629636764526e-02
-1.142473369836807251e-01
6.408210098743438721e-02
-1.707506030797958374e-01
1.464022248983383179e-01
1.463504135608673096e-01
1.919143497943878174e-01
1.834206879138946533e-01
1.169008240103721619e-01
-7.494934648275375366e-02
1.733315885066986084e-01
4.095660522580146790e-02
3.270884454250335693e-01
2.896779403090476990e-02
-6.745009124279022217e-02
-1.945412307977676392e-01
2.250803168863058090e-03
-2.213668311014771461e-03
2.561193145811557770e-02
1.700697392225265503e-01
-7.300150394439697266e-02
7.964873313903808594e-02
1.569237560033798218e-03
-2.556431852281093597e-02
1.057072505354881287e-01
1.084317788481712341e-01
-8.555102348327636719e-02
1.162580028176307678e-01
3.534982725977897644e-02
2.331390045583248138e-02
-1.442990154027938843e-01
1.854884065687656403e-02
-4.755918309092521667e-02
-8.261995017528533936e-02
-3.412038087844848633e-02
-1.437476277351379395e-01
3.209860622882843018e-02
1.504047960042953491e-01
-1.487397700548171997e-01
-4.240900278091430664e-02
1.298372596502304077e-01
1.641656607389450073e-01
2.121593505144119263e-01
1.275121886283159256e-02
1.882554590702056885e-01
2.039818838238716125e-02
-1.165128778666257858e-02
1.715499609708786011e-01
-2.208000235259532928e-02
1.305250637233257294e-02
2.066514343023300171e-01
9.143614768981933594e-02
-1.036697700619697571e-01
4.468621313571929932e-02
1.186511665582656860e-01
1.413305103778839111e-01
4.744282737374305725e-02
-1.367729902267456055e-01
-1.555308550596237183e-01
-1.457881880924105644e-03
1.729537397623062134e-01
1.945124268531799316e-01
9.650881588459014893e-02
7.279232889413833618e-02
-1.966812014579772949e-01
1.317195743322372437e-01
9.415668994188308716e-02
5.393327027559280396e-02
9.967354685068130493e-02
-1.768616288900375366e-01
-3.317741677165031433e-02
-1.155469864606857300e-01
1.069446429610252380e-01
-2.404707223176956177e-01
-1.784582436084747314e-01
-1.862098276615142822e-01
8.371655642986297607e-02
1.970772296190261841e-01
1.943807750940322876e-01
1.705100536346435547e-01
3.078314103186130524e-02
8.627986162900924683e-02
1.120301038026809692e-01
1.257805675268173218e-01
-4.163767769932746887e-02
-3.512353822588920593e-02
1.691196411848068237e-01
-1.052097678184509277e-01
1.274461043067276478e-03
-6.681118905544281006e-02
-2.933767624199390411e-03
-2.681112289428710938e-02
7.036233693361282349e-02
4.869546741247177124e-03
-1.549382507801055908e-01
-1.510854959487915039e-01
-7.732283324003219604e-02
8.683630079030990601e-02
-1.549065951257944107e-02
-2.047735638916492462e-02
-7.556084543466567993e-02
1.003229916095733643e-01
-8.893688768148422241e-02
-1.039788872003555298e-01
-1.709379553794860840e-01
1.623596400022506714e-01
-2.913072407245635986e-01
1.456865668296813965e-01
2.390300631523132324e-01
1.407409310340881348e-01
-7.701437175273895264e-02
4.173255339264869690e-02
1.604446023702621460e-01
-2.067773193120956421e-01
8.683398365974426270e-02
-8.402389287948608398e-02
1.580587215721607208e-02
-9.004032611846923828e-02
-2.700415253639221191e-01
-5.687969177961349487e-02
1.993992328643798828e-01
-3.585343062877655029e-02
-1.554399430751800537e-01
-3.355573415756225586e-01
-1.985938251018524170e-01
-6.759409606456756592e-02
-2.955573610961437225e-02
2.105079442262649536e-01
1.331997364759445190e-01
1.081236079335212708e-02
1.229539364576339722e-01
1.440086513757705688e-01
-3.299358487129211426e-02
-2.821176946163177490e-01
-3.050511181354522705e-01
3.642512019723653793e-03
-1.943629384040832520e-01
-4.667820334434509277e-01
2.541763782501220703e-01
1.879929006099700928e-01
-2.636924088001251221e-01
1.696597486734390259e-01
-6.394637376070022583e-02
-6.388212554156780243e-03
3.611582219600677490e-01
2.420454770326614380e-01
9.507298469543457031e-02
-3.726527839899063110e-02
1.545604914426803589e-01
1.309531033039093018e-01
-7.139030098915100098e-02
-2.644897997379302979e-01
2.032157927751541138e-01
-1.694707274436950684e-01
-2.459553629159927368e-01
-3.500553965568542480e-01
1.116741374135017395e-01
2.298793196678161621e-02
-1.278222203254699707e-01
-2.145251631736755371e-01
2.550864815711975098e-01
1.017108932137489319e-01
1.528903394937515259e-01
-9.284779429435729980e-03
-7.510499656200408936e-02
-8.301670104265213013e-02
-1.050006970763206482e-01
3.505695238709449768e-02
5.577799677848815918e-02
2.859567105770111084e-01
4.558612126857042313e-03
-3.083419799804687500e-01
-3.282983601093292236e-01
-6.655926257371902466e-02
1.954043284058570862e-02
-1.553564965724945068e-01
1.392177045345306396e-01
-1.409118436276912689e-02
6.907068192958831787e-02
4.961133003234863281e-02
-3.544918028637766838e-03
4.493660479784011841e-02
4.159190133213996887e-02
-1.467669010162353516e-01
-2.701254785060882568e-01
1.139500178396701813e-02
-1.279058605432510376e-01
-1.248245760798454285e-01
-1.601664870977401733e-01
2.076991498470306396e-01
-1.669656485319137573e-01
2.414175719022750854e-01
1.439082324504852295e-01
1.038932614028453827e-02
-2.017564773559570312e-01
-1.692324131727218628e-01
-8.115043491125106812e-02
1.209315359592437744e-01
-1.159960553050041199e-01
-4.123837687075138092e-03
2.364798635244369507e-01
5.267479573376476765e-04
4.911231994628906250e-02
-1.762381941080093384e-01
1.961961835622787476e-01
-1.032019853591918945e-01
-5.920015275478363037e-02
-2.062248587608337402e-01
6.625656038522720337e-02
-1.537338495254516602e-01
-7.671583443880081177e-02
9.591607749462127686e-02
-8.650675415992736816e-02
2.775108516216278076e-01
1.817494332790374756e-01
-8.442812412977218628e-02
-1.756120175123214722e-01
-2.654990255832672119e-01
2.378712594509124756e-02
9.436814486980438232e-02
1.174075081944465637e-01
-3.033892214298248291e-01
1.158777847886085510e-01
2.528793811798095703e-01
8.625733852386474609e-02
2.270947992801666260e-01
-3.402352333068847656e-02
-2.476627081632614136e-01
-2.070538885891437531e-02
1.347494125366210938e-01
-2.420682609081268311e-01
-1.920428723096847534e-01
1.329153925180435181e-01
-1.070814505219459534e-01
2.336659654974937439e-02
1.527435332536697388e-01
2.644002810120582581e-02
1.955506950616836548e-02
1.992519348859786987e-01
5.396100133657455444e-02
-2.091306895017623901e-01
-2.163014262914657593e-01
-2.147011309862136841e-01
-4.956544190645217896e-02
1.524589657783508301e-01
1.461372822523117065e-01
1.935006082057952881e-01
2.247772514820098877e-01
2.359304577112197876e-01
-2.978256344795227051e-01
-3.206899166107177734e-01
-1.850032131187617779e-03
1.431772857904434204e-01
4.259153082966804504e-02
5.835006758570671082e-02
-3.223337531089782715e-01
-2.596206963062286377e-01
-4.780552163720130920e-02
-1.123313307762145996e-01
-1.859933286905288696e-01
2.194483578205108643e-01
-2.218489646911621094e-01
-2.015932053327560425e-01
-2.054989784955978394e-01
-1.951701641082763672e-01
-2.344188652932643890e-02
-7.124055922031402588e-02
1.927700340747833252e-01
1.314598172903060913e-01
1.098074093461036682e-01
1.852528452873229980e-01
-2.600124478340148926e-01
-2.339878976345062256e-01
1.647010743618011475e-01
1.460802555084228516e-01
7.405600696802139282e-02
1.340322196483612061e-01
8.866266906261444092e-02
1.145858243107795715e-01
3.921969980001449585e-02
9.914474189281463623e-02
-8.092636615037918091e-02
2.124639451503753662e-01
-1.790015995502471924e-01
-8.981818705797195435e-02
-5.371144041419029236e-03
-2.605823576450347900e-01
-1.801597774028778076e-01
-1.869722902774810791e-01
-1.897039860486984253e-01
-1.692193001508712769e-01
-5.642872303724288940e-02
-6.512332707643508911e-02
-7.339016348123550415e-02
-5.713154375553131104e-02
-1.574092358350753784e-02
-1.404994353652000427e-02
-1.095261350274085999e-01
-4.765580594539642334e-02
1.483296453952789307e-01
-1.599513739347457886e-01
-5.932326614856719971e-02
-8.815096318721771240e-02
1.638401895761489868e-01
1.258772313594818115e-01
3.394617885351181030e-02
-1.088838502764701843e-01
-1.362531781196594238e-01
-4.262052848935127258e-02
1.086034178733825684e-01
6.717749685049057007e-02
-2.395331114530563354e-02
-2.008543908596038818e-01
1.480228900909423828e-01
5.725672468543052673e-02
8.274924755096435547e-02
-1.570343822240829468e-01
-2.389436773955821991e-02
1.110538318753242493e-01
-1.619995236396789551e-01
-2.277325242757797241e-01
-2.196248918771743774e-01
-1.473360508680343628e-01
-1.231125518679618835e-01
4.156961664557456970e-02
-1.423328965902328491e-01
5.427664145827293396e-02
-8.145758509635925293e-02
5.559151992201805115e-02
-2.491260021924972534e-01
1.773658767342567444e-02
6.414055824279785156e-02
9.448932856321334839e-02
-1.245018020272254944e-01
-5.318962410092353821e-02
-9.854374825954437256e-02
-7.554231584072113037e-02
8.354007452726364136e-02
-2.251441590487957001e-02
4.950119927525520325e-02
-1.056712493300437927e-01
-7.470144331455230713e-02
7.567149400711059570e-02
-5.608265474438667297e-02
5.058383941650390625e-02
-2.035033702850341797e-01
5.643647909164428711e-02
-8.319735527038574219e-02
-1.101187765598297119e-01
-7.492427527904510498e-02
5.191169306635856628e-02
1.090498939156532288e-01
-9.064865857362747192e-02
7.848692685365676880e-02
-9.489127993583679199e-02
-5.696155503392219543e-02
-7.889480143785476685e-02
1.642003096640110016e-02
-1.717678010463714600e-01
2.025294676423072815e-02
-6.529533118009567261e-02
1.206948161125183105e-01
1.403693109750747681e-01
7.804431021213531494e-02
-3.044364973902702332e-02
6.357112433761358261e-03
-2.545879185199737549e-01
-7.943224161863327026e-03
-2.103176414966583252e-01
8.798509836196899414e-03
4.624818917363882065e-03
9.226819872856140137e-02
3.232250735163688660e-02
9.907438606023788452e-02
1.035986989736557007e-01
-6.396351754665374756e-02
-1.400273144245147705e-01
-3.797564189881086349e-03
-8.680567145347595215e-02
-6.512872129678726196e-02
-3.170253708958625793e-03
1.341672986745834351e-01
1.104577258229255676e-01
-4.076327383518218994e-02
-8.842009305953979492e-02
1.550147980451583862e-01
1.223700121045112610e-01
-1.706734150648117065e-01
-2.335193008184432983e-02
-1.557949036359786987e-01
1.659873314201831818e-02
-7.359375804662704468e-02
-5.020449310541152954e-02
-1.016083955764770508e-01
-9.734100848436355591e-02
3.814807161688804626e-02
-2.126235961914062500e-01
-1.129278764128684998e-01
5.366671085357666016e-02
6.094516068696975708e-02
9.685417171567678452e-05
-1.291509568691253662e-01
3.694376349449157715e-02
1.175026148557662964e-01
-1.105441674590110779e-01
-1.250670254230499268e-01
2.994101308286190033e-02
1.255565136671066284e-02
1.193338260054588318e-01
5.123192071914672852e-02
8.366349339485168457e-02
-3.025312442332506180e-03
-8.873433619737625122e-02
-2.953608334064483643e-02
-8.306935429573059082e-02
-3.681037575006484985e-02
3.050524741411209106e-02
-9.010161459445953369e-02
-8.069549500942230225e-02
-4.567447304725646973e-02
6.519501656293869019e-02
3.679563850164413452e-02
1.348060928285121918e-02
-2.564788982272148132e-02
-1.667868942022323608e-01
1.044725850224494934e-01
1.008992344141006470e-01
1.209665536880493164e-01
-1.674689948558807373e-01
1.423156708478927612e-01
5.685489252209663391e-02
-9.322407655417919159e-03
7.887742668390274048e-02
-9.907003492116928101e-02
-7.151297479867935181e-02
6.666715722531080246e-03
7.658873498439788818e-02
-1.733236312866210938e-01
6.186309736222028732e-03
-1.809975355863571167e-01
-1.145934686064720154e-01
-9.509331732988357544e-02
-7.460690289735794067e-02
6.862992793321609497e-02
1.392121464014053345e-01
-2.352959662675857544e-02
-6.028886884450912476e-02
2.646606974303722382e-02
1.014810707420110703e-02
1.604790538549423218e-01
7.552027818746864796e-04
-8.204780519008636475e-03
-2.110981494188308716e-01
6.446079909801483154e-02
7.400058954954147339e-02
6.744214147329330444e-02
2.338804118335247040e-02
-2.761372737586498260e-02
7.854630053043365479e-02
-1.141662672162055969e-01
-3.839528933167457581e-02
-2.057675272226333618e-01
6.413163989782333374e-02
-1.086127012968063354e-01
4.348197206854820251e-02
2.055199258029460907e-02
-2.195456996560096741e-03
-1.095803678035736084e-01
1.102653332054615021e-02
1.266948133707046509e-01
-1.262018382549285889e-01
-1.521115303039550781e-01
1.615194827318191528e-01
2.075779885053634644e-01
6.892763823270797729e-02
9.079129248857498169e-02
-5.375685542821884155e-02
-4.869800806045532227e-02
-1.957922615110874176e-02
5.785956978797912598e-02
1.315622925758361816e-01
-2.042503654956817627e-01
-1.821549832820892334e-01
-1.411953866481781006e-01
-3.728812932968139648e-02
-6.397081911563873291e-02
1.057104989886283875e-01
1.187640875577926636e-01
-5.259244143962860107e-02
-4.074553493410348892e-03
-3.829997405409812927e-02
4.967149719595909119e-02
1.333590596914291382e-01
-5.090354755520820618e-02
4.227898269891738892e-02
1.492430418729782104e-01
8.004523813724517822e-03
-1.541263312101364136e-01
1.329798698425292969e-01
-8.799247443675994873e-02
1.073484346270561218e-01
-1.270351856946945190e-01
-1.216794252395629883e-01
-1.157929599285125732e-01
4.384262114763259888e-02
-2.074653953313827515e-01
-9.794621169567108154e-02
9.308023750782012939e-02
-2.447579987347126007e-02
-1.439278423786163330e-01
1.244598776102066040e-01
1.479931324720382690e-01
1.105134636163711548e-01
-9.271371364593505859e-02
-2.147150635719299316e-01
-1.042260089889168739e-03
1.708315871655941010e-02
-8.115524053573608398e-02
1.421908289194107056e-01
3.015937097370624542e-02
-1.646738052368164062e-01
-2.659733891487121582e-01
2.421278879046440125e-02
-1.210336908698081970e-01
-2.328080981969833374e-01
-8.926225453615188599e-02
3.119187196716666222e-03
1.007469929754734039e-02
-1.271011978387832642e-01
1.219078302383422852e-01
-8.057315647602081299e-02
-1.104465052485466003e-01
1.311105042695999146e-01
-1.157830469310283661e-02
2.339583486318588257e-01
-1.427016258239746094e-01
-5.829340219497680664e-02
-1.850177496671676636e-01
2.472555637359619141e-01
6.178381666541099548e-02
1.366171892732381821e-02
1.211715415120124817e-01
-2.475579231977462769e-01
-1.860082894563674927e-01
1.888220608234405518e-01
-9.422701783478260040e-03
9.685599058866500854e-02
1.275720447301864624e-01
7.718436419963836670e-03
-1.936049312353134155e-01
-6.367503106594085693e-02
1.396550238132476807e-01
6.142454966902732849e-02
-2.535287104547023773e-02
1.742396131157875061e-02
-1.275018155574798584e-01
1.178487902507185936e-03
9.421119838953018188e-02
9.507518261671066284e-02
1.203874275088310242e-01
7.685877382755279541e-02
-5.287541449069976807e-02
-4.875734448432922363e-02
-2.245246917009353638e-01
-2.370301447808742523e-02
-5.716609768569469452e-03
-1.360825449228286743e-01
1.861248165369033813e-01
-8.717804402112960815e-02
-2.185508310794830322e-01
-1.008484046906232834e-02
1.147523242980241776e-02
-1.259736120700836182e-01
1.212170049548149109e-01
9.236009791493415833e-03
-9.086165577173233032e-02
-1.334145013242959976e-02
-2.293132841587066650e-01
2.385879494249820709e-02
7.324774749577045441e-03
2.185286208987236023e-02
-7.947462052106857300e-02
-8.668285608291625977e-02
5.516814440488815308e-02
-1.937914639711380005e-01
2.129861339926719666e-02
8.872106671333312988e-02
4.520663525909185410e-03
-2.522158622741699219e-01
1.019551157951354980e-01
-1.307439357042312622e-01
-1.258128434419631958e-01
1.032873988151550293e-01
-1.386560648679733276e-01
3.885816410183906555e-02
6.701920926570892334e-02
1.208155229687690735e-01
-3.768575936555862427e-02
2.223582118749618530e-01
1.822783797979354858e-01
2.718561328947544098e-03
2.530987188220024109e-02
-7.669246196746826172e-02
-2.403172105550765991e-01
1.499001085758209229e-01
2.402642071247100830e-01
4.663572832942008972e-02
1.883850097656250000e-01
-1.385822147130966187e-01
4.274830687791109085e-03
-1.107361093163490295e-01
6.185397878289222717e-02
-2.329337783157825470e-02
-1.916735619306564331e-01
-1.292948797345161438e-02
5.468918755650520325e-02
-9.902175515890121460e-02
-7.366178091615438461e-03
-8.095009624958038330e-02
1.530377566814422607e-01
-1.997813433408737183e-01
-1.447673887014389038e-01
-9.601125121116638184e-02
-9.072770923376083374e-02
-1.582645177841186523e-01
-9.348133206367492676e-02
6.310982257127761841e-02
-1.623730361461639404e-02
9.660427272319793701e-02
1.251303106546401978e-01
-2.005605995655059814e-01
-4.404942970722913742e-03
1.051638424396514893e-01
3.212161734700202942e-02
-2.297168523073196411e-01
-1.204294413328170776e-01
-9.383655339479446411e-02
2.055878937244415283e-01
-1.081304922699928284e-01
-5.599965527653694153e-02
5.691810324788093567e-02
2.979498170316219330e-02
-2.173636108636856079e-01
-8.516028523445129395e-02
-1.063392404466867447e-02
-2.842735126614570618e-02
-1.177255511283874512e-01
-5.692608654499053955e-02
-9.100944548845291138e-02
-7.517642527818679810e-02
-1.537796016782522202e-02
1.538454275578260422e-02
-5.811400711536407471e-02
-1.387597471475601196e-01
9.216380119323730469e-02
6.824515014886856079e-02
6.807443499565124512e-02
2.206301093101501465e-01
4.431840498000383377e-03
6.626060605049133301e-02
-1.870082914829254150e-01
-7.286969572305679321e-02
1.245192289352416992e-01
-1.104370206594467163e-01
4.005423188209533691e-02
-2.219275981187820435e-01
-6.759510189294815063e-02
1.769484430551528931e-01
4.513867571949958801e-02
4.038235172629356384e-03
3.162103593349456787e-01
-6.719947606325149536e-02
-3.218836337327957153e-02
-6.266591697931289673e-02
-2.529929876327514648e-01
5.627195537090301514e-02
9.870816022157669067e-02
7.517864555120468140e-02
2.101520895957946777e-01
3.102786540985107422e-01
-1.053219661116600037e-01
-1.332160234451293945e-01
-3.282367289066314697e-01
9.952738136053085327e-02
1.006020754575729370e-01
-4.581299051642417908e-02
1.792313456535339355e-01
-2.832150757312774658e-01
-3.641553968191146851e-02
1.054962072521448135e-02
7.198254764080047607e-02
1.611028313636779785e-01
-9.195635467767715454e-02
1.784352958202362061e-01
1.922206431627273560e-01
5.863011255860328674e-02
-1.067685484886169434e-01
9.297499805688858032e-02
1.526289135217666626e-01
-3.528936579823493958e-02
2.722601592540740967e-01
-3.088725209236145020e-01
-1.551778018474578857e-01
-5.075712874531745911e-02
4.599687084555625916e-02
2.013960778713226318e-01
4.604335129261016846e-02
1.123206317424774170e-01
-3.067478835582733154e-01
-2.282452285289764404e-01
5.649691075086593628e-02
-1.366882473230361938e-01
-2.463955804705619812e-02
1.098744384944438934e-02
-5.141071602702140808e-02
1.641769111156463623e-01
1.050203442573547363e-01
1.488439589738845825e-01
-2.705040574073791504e-01
-2.772304415702819824e-01
-9.457211196422576904e-02
1.072035133838653564e-01
-2.126237303018569946e-01
-1.499264985322952271e-01
-2.884056866168975830e-01
-1.684080809354782104e-01
1.546960622072219849e-01
-6.348113715648651123e-02
-7.454577833414077759e-02
6.540849059820175171e-02
-5.989114567637443542e-02
-8.673501014709472656e-02
6.945474445819854736e-02
-2.999831922352313995e-02
2.004619389772415161e-01
4.127697274088859558e-02
1.134626865386962891e-01
7.764489948749542236e-02
3.003944754600524902e-01
1.877047866582870483e-02
-3.801859319210052490e-01
-8.034583181142807007e-02
-9.617523849010467529e-02
-2.513467967510223389e-01
-1.236749365925788879e-01
1.970235109329223633e-01
1.050035655498504639e-01
9.375559166073799133e-03
1.031480729579925537e-01
2.759426832199096680e-01
-2.089738547801971436e-01
-1.826966106891632080e-01
-3.120535016059875488e-01
-2.020074576139450073e-01
5.311863869428634644e-02
1.024822667241096497e-01
-1.348244100809097290e-01
6.213969551026821136e-03
-1.002864390611648560e-01
-1.018154993653297424e-01
-1.029626727104187012e-01
8.081469684839248657e-03
-3.596818819642066956e-02
-2.082141935825347900e-01
-5.270759575068950653e-03
7.609641179442405701e-03
-1.187674477696418762e-01
-2.243536263704299927e-01
1.941011659801006317e-02
1.225887164473533630e-01
-2.210094034671783447e-01
-1.406435389071702957e-02
-2.124856263399124146e-01
-2.899982929229736328e-01
1.037870422005653381e-01
-1.086819693446159363e-01
-3.112889528274536133e-01
-1.356227695941925049e-01
-5.390056222677230835e-02
1.408962160348892212e-01
-6.487120687961578369e-02
-1.742055714130401611e-01
-1.441945880651473999e-01
3.450045362114906311e-03
2.156145274639129639e-01
1.281612273305654526e-02
-2.340666949748992920e-01
-9.780998528003692627e-02
1.265240013599395752e-01
-2.366875857114791870e-01
-1.714401245117187500e-01
1.176737844944000244e-01
-7.885573059320449829e-02
1.821072548627853394e-01
-2.186344563961029053e-01
1.712591797113418579e-01
2.803001403808593750e-01
9.417835623025894165e-02
-2.417541444301605225e-01
-4.419344663619995117e-02
8.933243155479431152e-02
-1.886683553457260132e-01
-2.231326848268508911e-01
-3.204592168331146240e-01
1.035642102360725403e-01
1.344965845346450806e-01
-7.959555089473724365e-02
1.039993837475776672e-01
-1.078390777111053467e-01
1.132325083017349243e-01
-3.383710086345672607e-01
-4.051149785518646240e-01
-4.206556975841522217e-01
5.843525007367134094e-02
-1.611199579201638699e-03
-1.804101169109344482e-01
-1.150075793266296387e-01
-1.266351342201232910e-01
-5.206425860524177551e-02
-7.015945017337799072e-02
1.024821326136589050e-01
7.541565597057342529e-02
-6.901672482490539551e-02
8.537378162145614624e-04
2.435796558856964111e-01
6.852930784225463867e-02
-1.480569839477539062e-01
1.378905866295099258e-02
-2.142027020454406738e-01
9.915642440319061279e-02
2.051217555999755859e-01
1.158355847001075745e-01
1.195182055234909058e-01
2.507118284702301025e-01
6.395848933607339859e-03
-1.041274964809417725e-01
-1.169153489172458649e-02
8.104757964611053467e-02
-2.689629234373569489e-02
-1.634999066591262817e-01
2.566550672054290771e-01
3.848456442356109619e-01
2.098388075828552246e-01
2.438715249300003052e-01
2.539344727993011475e-01
-1.029083803296089172e-01
-1.207509785890579224e-01
1.881869435310363770e-01
7.906066626310348511e-02
1.109564155340194702e-01
-4.303956776857376099e-02
-2.305834144353866577e-01
7.610134035348892212e-02
-8.425113558769226074e-02
-1.391481459140777588e-01
2.179661095142364502e-01
-6.819368153810501099e-02
6.168091297149658203e-02
-1.992142945528030396e-01
-1.032677814364433289e-01
-4.540861397981643677e-02
1.986166089773178101e-01
1.604886353015899658e-01
1.782037317752838135e-01
6.982770748436450958e-03
7.507298141717910767e-02
2.307183891534805298e-01
-1.196826919913291931e-01
-6.307314336299896240e-02
-9.351495653390884399e-02
1.905162781476974487e-01
-1.815487891435623169e-01
-8.382530510425567627e-02
-3.458916908130049706e-03
2.566771395504474640e-02
2.131637930870056152e-01
6.557352095842361450e-02
-1.779554784297943115e-02
1.056969389319419861e-01
-8.992698788642883301e-02
-2.198774814605712891e-01
-5.884366855025291443e-02
-2.489087134599685669e-01
1.231838986277580261e-01
2.666247822344303131e-02
4.088282585144042969e-02
-1.075720191001892090e-01
-4.839666187763214111e-02
-1.648343056440353394e-01
1.193602532148361206e-01
-3.241116926074028015e-02
-1.313195973634719849e-01
-1.229517310857772827e-01
1.923859417438507080e-01
-5.397404357790946960e-02
5.745409429073333740e-02
2.130881696939468384e-01
2.216575443744659424e-01
-1.825811415910720825e-01
-7.954533398151397705e-02
-1.697546690702438354e-01
-1.402650028467178345e-02
1.474485360085964203e-02
-6.073916703462600708e-02
1.133144423365592957e-01
-1.349323242902755737e-02
5.438308045268058777e-02
-8.389839529991149902e-02
1.670642048120498657e-01
1.684103906154632568e-01
-6.929359585046768188e-02
-1.314328163862228394e-01
-1.309762299060821533e-01
-1.807096898555755615e-01
5.547599121928215027e-02
1.706433743238449097e-01
2.833484299480915070e-02
1.662781685590744019e-01
1.143275275826454163e-01
1.544466465711593628e-01
-3.090645372867584229e-02
5.531177669763565063e-02
-2.372411936521530151e-01
-4.140632748603820801e-01
6.158370152115821838e-02
-1.914271861314773560e-01
1.953867822885513306e-02
-3.998319804668426514e-01
-1.704042553901672363e-01
-2.485724389553070068e-01
2.868821024894714355e-01
-9.370435774326324463e-02
-2.625883519649505615e-01
9.291326999664306641e-02
-1.318354159593582153e-01
-2.214771807193756104e-01
1.060304418206214905e-01
5.517099052667617798e-02
1.181040778756141663e-01
1.106260046362876892e-01
-1.298945546150207520e-01
-1.963912993669509888e-01
-7.542064785957336426e-02
-1.926835477352142334e-01
3.020359762012958527e-02
-1.246880963444709778e-01
9.549464285373687744e-02
-1.458446383476257324e-01
1.797960996627807617e-01
7.904145866632461548e-02
7.273774594068527222e-02
1.014738231897354126e-01
1.552827656269073486e-01
8.059590309858322144e-02
5.580397788435220718e-03
-7.103440910577774048e-02
1.687067449092864990e-01
-7.192121446132659912e-02
1.615899652242660522e-01
3.629409521818161011e-02
7.621878758072853088e-03
-1.103039532899856567e-01
-1.433424204587936401e-01
-1.178053021430969238e-01
-1.133709773421287537e-01
4.459749534726142883e-02
-5.287872627377510071e-02
-1.473297774791717529e-01
4.467234760522842407e-02
-7.213242352008819580e-02
-5.143698304891586304e-02
-5.109902843832969666e-02
1.180140972137451172e-01
-2.458686679601669312e-01
-3.139326572418212891e-01
1.280398666858673096e-01
-9.195270389318466187e-02
-9.385032951831817627e-02
-2.013146579265594482e-01
2.232935465872287750e-02
1.254270821809768677e-01
-1.272458136081695557e-01
3.685372322797775269e-02
3.902682336047291756e-03
-3.897318243980407715e-02
1.660116612911224365e-01
-1.565115153789520264e-02
6.067829206585884094e-02
-6.905010342597961426e-02
-1.800519041717052460e-02
7.428450137376785278e-02
-4.060067236423492432e-02
8.381247520446777344e-02
2.292258590459823608e-01
1.828720271587371826e-01
-1.455969810485839844e-01
-1.052571013569831848e-01
-1.447690185159444809e-02
-2.518367469310760498e-01
-2.798402309417724609e-01
1.271345615386962891e-01
-1.630731672048568726e-01
3.139643073081970215e-01
-2.492992430925369263e-01
-2.623623311519622803e-01
9.549506939947605133e-03
-6.782098859548568726e-02
-1.885440945625305176e-01
1.328676193952560425e-01
-1.263216882944107056e-01
-1.092195585370063782e-01
-9.170845896005630493e-02
-2.142412662506103516e-01
-2.399481981992721558e-01
1.392561793327331543e-01
-1.676477193832397461e-01
-3.283075988292694092e-02
-3.293707966804504395e-01
4.377669841051101685e-02
9.381676465272903442e-02
7.705667987465858459e-03
1.422421634197235107e-01
7.092919200658798218e-02
-2.708147764205932617e-01
1.341806352138519287e-01
9.304867684841156006e-02
1.077504083514213562e-01
9.391389787197113037e-02
-6.534493714570999146e-02
-8.953486382961273193e-02
-1.650516390800476074e-01
-3.741868585348129272e-02
2.964924322441220284e-03
-2.409490048885345459e-01
-1.216445192694664001e-01
-2.921874225139617920e-01
2.356229908764362335e-02
-2.970267087221145630e-02
1.842996925115585327e-01
5.919427052140235901e-02
7.945214211940765381e-02
1.054795533418655396e-01
-2.227773964405059814e-01
-3.018191317096352577e-03
-1.508373171091079712e-01
8.902788907289505005e-02
1.099939197301864624e-01
-8.786286343820393085e-04
-1.306243687868118286e-01
1.022895872592926025e-01
1.690458878874778748e-02
-2.324509769678115845e-01
-2.535001635551452637e-01
-9.442707151174545288e-02
-9.895624965429306030e-02
-9.718430787324905396e-02
-5.647557973861694336e-02
3.817821294069290161e-02
3.751318529248237610e-02
-8.633705787360668182e-03
-1.190269142389297485e-01
1.484721247106790543e-02
8.193597942590713501e-02
1.241139844059944153e-01
1.035817787051200867e-01
1.211942359805107117e-01
8.870834112167358398e-02
-8.807993680238723755e-02
-3.135096654295921326e-02
1.930899359285831451e-02
5.320511758327484131e-02
-1.488794237375259399e-01
6.279926747083663940e-02
-1.675576418638229370e-01
3.477589413523674011e-02
-4.266107454895973206e-03
4.281006753444671631e-02
-5.543045327067375183e-02
7.777023315429687500e-02
1.240889728069305420e-01
-8.888305723667144775e-02
-1.471282243728637695e-01
-1.428776886314153671e-02
8.721834048628807068e-03
-7.414850592613220215e-02
4.088845476508140564e-02
-6.379846483469009399e-02
5.252845957875251770e-02
1.302964240312576294e-01
1.236583441495895386e-01
-6.292834132909774780e-02
-2.274319380521774292e-01
-2.611747570335865021e-02
-6.350952386856079102e-02
-1.197119131684303284e-01
1.622522920370101929e-01
-9.126869961619377136e-03
7.980362325906753540e-02
-1.324312239885330200e-01
-1.061958521604537964e-01
3.792727366089820862e-02
-3.642749786376953125e-02
-1.060506105422973633e-01
1.549226138740777969e-02
4.560425505042076111e-02
-1.557130890432745218e-04
1.059173122048377991e-01
-1.313319504261016846e-01
-2.344530820846557617e-01
-5.779931321740150452e-02
1.251850128173828125e-01
9.300068765878677368e-02
-8.457550406455993652e-02
1.276935786008834839e-01
1.099763810634613037e-01
-7.534101605415344238e-02
9.430284053087234497e-02
-3.051602840423583984e-02
-3.274811059236526489e-02
-1.545086689293384552e-02
-9.272548556327819824e-02
-1.490067541599273682e-01
-5.664710327982902527e-02
-6.960065662860870361e-02
-9.975605644285678864e-03
8.522244170308113098e-03
-1.301973164081573486e-01
-1.128884032368659973e-01
1.286544799804687500e-01
-9.365977346897125244e-02
-3.802853077650070190e-02
-1.332458108663558960e-01
-1.102938726544380188e-01
2.282810211181640625e-02
3.536621108651161194e-02
1.761338673532009125e-02
-3.533060848712921143e-02
-1.137770414352416992e-01
-4.224653542041778564e-02
1.063874363899230957e-01
3.675822541117668152e-02
-5.972775630652904510e-03
-4.537594690918922424e-02
1.340501159429550171e-01
7.599135488271713257e-02
-2.455450221896171570e-02
-1.078767478466033936e-01
1.347767710685729980e-01
-8.004958182573318481e-02
-7.553939521312713623e-02
9.292444214224815369e-03
-6.943514943122863770e-02
-1.415127217769622803e-01
-1.431149691343307495e-01
4.497003555297851562e-02
-5.826735123991966248e-02
7.794269919395446777e-02
-1.739547355100512505e-03
-1.138423234224319458e-01
-1.353861242532730103e-01
-7.268162816762924194e-02
1.582041680812835693e-01
-1.543228477239608765e-01
-1.798235327005386353e-01
6.374620646238327026e-02
3.359764814376831055e-02
-1.199086084961891174e-01
-9.796351939439773560e-02
1.487257629632949829e-01
-8.175004273653030396e-02
1.382878422737121582e-01
-6.739251315593719482e-02
-1.604590117931365967e-01
-1.164293289184570312e-01
1.140690594911575317e-01
7.323282957077026367e-02
1.504548173397779465e-02
6.914973258972167969e-02
6.101749464869499207e-02
2.712013572454452515e-02
1.723843440413475037e-02
4.482278600335121155e-02
8.042304962873458862e-02
-2.208304777741432190e-02
1.356916315853595734e-02
-1.354561001062393188e-01
1.701412536203861237e-02
2.446930110454559326e-02
7.417473196983337402e-02
-3.195078461430966854e-04
1.096554175019264221e-01
-2.604768425226211548e-02
-8.142182976007461548e-02
1.299773715436458588e-02
4.491485282778739929e-02
1.690931804478168488e-02
1.739806830883026123e-01
8.482666313648223877e-02
-4.985410347580909729e-02
-1.161850467324256897e-01
1.107956655323505402e-02
-1.522457301616668701e-01
-9.710465371608734131e-02
1.274176687002182007e-01
-2.875198423862457275e-02
4.755690693855285645e-02
-6.715098768472671509e-02
-1.382084190845489502e-01
6.040621548891067505e-02
9.679374098777770996e-02
-1.907765418291091919e-01
-8.538772165775299072e-02
-1.517774444073438644e-02
1.011716574430465698e-01
-1.178554520010948181e-01
1.060005649924278259e-01
1.741587817668914795e-01
-1.715789884328842163e-01
-1.425066776573657990e-02
-2.589820884168148041e-02
1.330578178167343140e-01
3.674875572323799133e-02
3.932020440697669983e-02
-1.508052460849285126e-02
-4.325908794999122620e-02
-9.466872364282608032e-02
4.481369629502296448e-02
-9.814705699682235718e-02
-8.627918362617492676e-02
-4.322249069809913635e-02
-1.266379505395889282e-01
8.636424690485000610e-02
1.090875566005706787e-01
1.307313740253448486e-01
8.317639678716659546e-02
1.032882282743230462e-04
1.209923401474952698e-01
4.190745577216148376e-02
-8.083445951342582703e-03
-1.323760598897933960e-01
3.535434231162071228e-02
-1.910935156047344208e-02
3.221878781914710999e-02
1.269495952874422073e-02
-1.273456066846847534e-01
-9.652324765920639038e-02
-1.369276046752929688e-01
-5.728377029299736023e-02
6.047277152538299561e-02
6.565917283296585083e-02
1.911122649908065796e-01
-1.010945662856101990e-01
1.396348178386688232e-01
1.551406830549240112e-01
-1.754579395055770874e-01
-1.522428691387176514e-01
8.682163804769515991e-02
-1.281187832355499268e-01
5.276885628700256348e-02
-1.071778610348701477e-01
-9.019876271486282349e-02
-1.507895141839981079e-01
1.065103337168693542e-01
-4.425485432147979736e-02
-2.609246969223022461e-01
-9.235154837369918823e-02
2.061242237687110901e-02
2.626181840896606445e-01
7.517746835947036743e-02
2.290414460003376007e-02
-7.798886299133300781e-02
1.641235351562500000e-01
-1.033618301153182983e-02
-4.839099198579788208e-02
-1.356376856565475464e-01
2.402750216424465179e-02
1.139975190162658691e-01
-1.257349401712417603e-01
-3.570120036602020264e-02
7.189950346946716309e-02
-9.509430825710296631e-02
1.500877141952514648e-01
5.697589740157127380e-02
5.383962020277976990e-02
-1.789251267910003662e-01
-1.812666282057762146e-02
5.063886940479278564e-02
1.774191409349441528e-01
-7.625234127044677734e-02
-2.862878739833831787e-01
8.907396346330642700e-02
7.108320295810699463e-02
-1.198293194174766541e-01
-1.412633359432220459e-01
1.436905413866043091e-01
8.057697676122188568e-03
-9.518242627382278442e-02
-3.957474138587713242e-03
7.837051153182983398e-02
-8.069544285535812378e-02
-2.102702260017395020e-01
-5.814918503165245056e-02
-8.663566410541534424e-02
6.937417387962341309e-02
-1.465140730142593384e-01
-8.685307204723358154e-02
-1.818138957023620605e-01
-2.008875608444213867e-01
1.791171133518218994e-01
1.075394675135612488e-01
3.352991119027137756e-02
6.411518901586532593e-02
1.027954444289207458e-01
2.328969724476337433e-02
-2.544095180928707123e-02
-2.220356017351150513e-01
-2.669514119625091553e-01
-8.398330956697463989e-02
9.028646163642406464e-03
1.463158130645751953e-01
-8.472812175750732422e-02
-1.590190082788467407e-01
-1.953698694705963135e-01
-1.486708670854568481e-01
1.614642143249511719e-01
-8.340716361999511719e-02
-7.991268485784530640e-02
-4.510880261659622192e-02
-6.071192678064107895e-03
-3.317325562238693237e-02
-1.859770715236663818e-01
1.958214342594146729e-01
1.467131730169057846e-02
-2.734385058283805847e-02
3.163800761103630066e-02
1.629822701215744019e-01
7.932399213314056396e-02
-1.698150932788848877e-01
-4.687361791729927063e-02
-3.329195454716682434e-02
3.183542564511299133e-02
-1.035733446478843689e-01
2.111645489931106567e-01
4.068510606884956360e-02
9.391263127326965332e-02
2.663163281977176666e-02
6.635545939207077026e-02
-4.137490317225456238e-02
-9.260848909616470337e-02
-2.232255637645721436e-01
1.207166761159896851e-01
6.971725821495056152e-02
3.011419810354709625e-02
1.199669986963272095e-01
-8.491641841828823090e-03
-2.632089704275131226e-02
5.150090903043746948e-02
2.126786410808563232e-01
2.486657537519931793e-02
-7.465039938688278198e-02
1.264317780733108521e-01
5.733434483408927917e-02
-7.825646549463272095e-02
1.961455866694450378e-02
-1.863811910152435303e-01
-4.356272891163825989e-02
-1.276031434535980225e-01
-2.581019140779972076e-02
-5.033827200531959534e-02
8.367613703012466431e-02
-2.043520212173461914e-01
1.995254158973693848e-01
-2.498562633991241455e-02
-5.068681761622428894e-02
1.462829411029815674e-01
-6.678459793329238892e-02
3.949689865112304688e-02
3.269318118691444397e-02
-8.308078348636627197e-02
2.981075830757617950e-02
-5.583342909812927246e-02
1.004394963383674622e-01
-1.727061867713928223e-01
-6.460362672805786133e-02
-1.169450730085372925e-01
-4.891839250922203064e-02
1.204350739717483521e-01
8.064951747655868530e-02
-1.545027643442153931e-01
1.404305398464202881e-01
1.964300870895385742e-01
1.559678465127944946e-01
6.130217760801315308e-02
1.664972156286239624e-01
1.493785828351974487e-01
2.503252327442169189e-01
2.357692085206508636e-02
-1.870644977316260338e-03
2.206949591636657715e-01
1.074934005737304688e-01
1.933115124702453613e-01
8.079571276903152466e-02
6.190500687807798386e-03
-9.369004517793655396e-02
1.266808658838272095e-01
8.889503031969070435e-02
2.687399834394454956e-02
3.285248577594757080e-02
1.845717430114746094e-01
8.321519941091537476e-02
-9.028195589780807495e-02
-2.359537631273269653e-01
1.036729216575622559e-01
-9.353523701429367065e-02
-1.979649960994720459e-01
1.077049598097801208e-01
-7.524507492780685425e-02
2.705827169120311737e-02
-1.026021689176559448e-01
1.980935037136077881e-01
4.294879361987113953e-02
-9.325185418128967285e-02
1.157413050532341003e-01
1.659056395292282104e-01
1.350986957550048828e-01
1.214073449373245239e-01
-1.873652338981628418e-01
-1.660662442445755005e-01
1.631514132022857666e-01
-7.032834924757480621e-03
1.116599217057228088e-01
1.598525345325469971e-01
-5.985670164227485657e-02
-9.305214136838912964e-02
1.605729460716247559e-01
-4.292766377329826355e-02
-1.594889163970947266e-01
2.015810757875442505e-01
2.403053641319274902e-02
-2.243052050471305847e-02
7.758997380733489990e-02
-4.825036600232124329e-02
-4.395443946123123169e-02
5.618280172348022461e-02
1.792686618864536285e-02
1.219029724597930908e-01
2.603263407945632935e-02
-3.221698105335235596e-03
1.051204279065132141e-01
4.190031811594963074e-02
3.453471884131431580e-02
-3.488379344344139099e-02
-2.242785133421421051e-02
-1.731785833835601807e-01
-1.191368475556373596e-01
-6.356188654899597168e-02
1.085427328944206238e-01
1.271729171276092529e-01
1.832134425640106201e-01
1.023862063884735107e-01
1.526515092700719833e-02
-3.161456808447837830e-02
-2.300032228231430054e-02
-1.619955338537693024e-02
1.007318031042814255e-02
1.888482421636581421e-01
9.372761845588684082e-02
1.649351418018341064e-02
-5.419523641467094421e-02
2.812059409916400909e-02
2.092896588146686554e-02
-3.960265591740608215e-02
-3.960480168461799622e-02
-6.795716285705566406e-02
-4.428618401288986206e-02
-4.687128216028213501e-02
8.365748822689056396e-02
-6.470911204814910889e-02
1.747342944145202637e-02
8.474366366863250732e-02
1.698395586572587490e-03
-1.052141655236482620e-02
2.073102630674839020e-02
6.373628973960876465e-02
1.110409153625369072e-03
2.350629493594169617e-02
5.113051831722259521e-02
-2.170247212052345276e-02
1.114976853132247925e-01
2.657794952392578125e-02
8.384829759597778320e-02
3.353845700621604919e-02
-7.064475864171981812e-02
-9.281659871339797974e-02
-1.079003978520631790e-02
-4.131024703383445740e-03
5.690842494368553162e-02
-7.319990545511245728e-02
9.005700796842575073e-02
7.671069353818893433e-02
-5.391554161906242371e-02
1.484066247940063477e-01
7.598862051963806152e-02
9.010376781225204468e-02
8.736766874790191650e-02
8.992539346218109131e-02
2.629333175718784332e-02
-8.489663898944854736e-02
-8.904495090246200562e-02
8.500392735004425049e-02
7.929816097021102905e-02
-2.346302010118961334e-02
-1.932928897440433502e-02
-8.589830249547958374e-02
-6.984350085258483887e-02
2.969234809279441833e-02
-8.722141385078430176e-02
-4.482256481423974037e-04
1.384960263967514038e-01
6.680089980363845825e-02
-5.218719691038131714e-02
6.617003679275512695e-02
-2.847119420766830444e-02
1.118905767798423767e-01
1.471926271915435791e-01
1.024210751056671143e-01
1.164855733513832092e-01
-7.918723672628402710e-02
-6.317529827356338501e-02
-2.880485728383064270e-02
5.448444187641143799e-02
1.140143275260925293e-01
1.527374144643545151e-02
-3.635776042938232422e-02
3.921458125114440918e-02
-3.561326861381530762e-02
4.353569820523262024e-02
-1.249611675739288330e-01
2.323882281780242920e-02
8.639279007911682129e-02
1.476794332265853882e-01
5.521359294652938843e-02
1.115701943635940552e-01
6.817317008972167969e-02
-8.285431563854217529e-02
9.823288768529891968e-03
-6.448585540056228638e-02
-8.847468346357345581e-02
-2.234282791614532471e-01
-9.945888817310333252e-02
-2.208695858716964722e-01
-7.385586202144622803e-02
-1.774275861680507660e-02
1.404098868370056152e-01
2.827854081988334656e-02
4.693891853094100952e-02
9.566493332386016846e-03
1.150411739945411682e-01
-1.503789331763982773e-02
5.773473903536796570e-02
-3.016000613570213318e-02
-2.257215976715087891e-02
-7.917456328868865967e-02
-8.638042211532592773e-02
7.005976140499114990e-02
-7.319346815347671509e-02
3.513854742050170898e-02
1.077543664723634720e-02
-1.339344657026231289e-03
4.256395995616912842e-02
-1.305374205112457275e-01
-6.118347402662038803e-03
-9.271296113729476929e-02
-9.943967312574386597e-02
1.097146272659301758e-01
1.441320870071649551e-02
1.142947152256965637e-01
-4.041918739676475525e-02
-8.796250075101852417e-02
-1.427996754646301270e-01
-6.023197900503873825e-03
-5.521146580576896667e-02
-3.585187718272209167e-02
5.267985910177230835e-02
1.988678425550460815e-01
-3.035962581634521484e-03
4.961952101439237595e-03
-4.273357987403869629e-02
8.631905168294906616e-02
-1.523943059146404266e-02
5.318441987037658691e-02
-1.159336566925048828e-01
6.903313845396041870e-02
2.384073585271835327e-01
4.058324918150901794e-02
-6.395952403545379639e-02
-7.834864780306816101e-03
3.447028249502182007e-02
1.702551916241645813e-02
4.134945943951606750e-02
5.281854793429374695e-02
1.114281564950942993e-01
5.158602446317672729e-02
7.964618504047393799e-02
-8.173544704914093018e-02
-4.136581718921661377e-02
5.669252946972846985e-02
-5.463220551609992981e-02
-4.719830583781003952e-03
-2.740155346691608429e-02
-1.157902181148529053e-01
5.448370054364204407e-02
-6.294543296098709106e-02
2.380295097827911377e-02
-4.831914976239204407e-02
1.335504651069641113e-01
1.309709250926971436e-01
-3.003273718059062958e-02
1.139493659138679504e-02
4.801693931221961975e-02
9.694258868694305420e-02
6.292686611413955688e-02
3.645209968090057373e-02
1.044685095548629761e-01
-1.209025755524635315e-01
5.466944072395563126e-03
7.385207712650299072e-02
-1.478089392185211182e-01
-2.563268505036830902e-02
-8.013910800218582153e-02
7.145115733146667480e-02
-4.232847318053245544e-02
-6.744558364152908325e-02
5.041692405939102173e-02
1.894102804362773895e-02
6.265479139983654022e-03
5.027716234326362610e-02
1.976084113121032715e-01
7.403293997049331665e-02
1.282991319894790649e-01
1.403668969869613647e-01
1.742710471153259277e-01
-9.488040208816528320e-02
2.570212446153163910e-02
-9.480740875005722046e-02
-1.131899561733007431e-02
-1.491241008043289185e-01
-5.329196900129318237e-02
-5.405903607606887817e-02
-2.128160595893859863e-01
-1.848170161247253418e-01
1.211619097739458084e-02
-8.500357717275619507e-02
-1.600375324487686157e-01
-3.128237277269363403e-02
-8.366626501083374023e-02
7.897761464118957520e-02
1.382748335599899292e-01
-6.364474445581436157e-02
-9.914756566286087036e-02
-1.328236907720565796e-01
-2.883068984374403954e-03
1.740239374339580536e-02
1.781644821166992188e-01
-4.888236150145530701e-02
1.775849610567092896e-01
4.544385522603988647e-02
6.597045063972473145e-02
1.707041561603546143e-01
2.353176474571228027e-01
6.446054577827453613e-02
8.451642841100692749e-02
-1.643969565629959106e-01
1.312754899263381958e-01
-2.883503772318363190e-02
1.556701809167861938e-01
3.418352454900741577e-02
1.492241173982620239e-01
9.092256426811218262e-02
-1.393516808748245239e-01
7.124188542366027832e-02
1.837813854217529297e-01
5.805999040603637695e-02
1.010169908404350281e-01
-2.081010490655899048e-02
-1.034463122487068176e-01
-9.764498681761324406e-04
-2.117217779159545898e-01
2.029462903738021851e-01
-9.622791782021522522e-03
-5.396357551217079163e-02
-1.435402482748031616e-01
-1.625548601150512695e-01
6.210611388087272644e-02
-5.148322507739067078e-02
-3.993245586752891541e-02
1.435807496309280396e-01
-1.286953091621398926e-01
1.190811470150947571e-01
-1.418237984180450439e-01
1.420565247535705566e-01
-8.686602860689163208e-02
6.300637871026992798e-02
1.835034340620040894e-01
-2.026691567152738571e-03
2.745529636740684509e-02
-1.236675679683685303e-01
7.258657366037368774e-03
-1.399579644203186035e-01
1.104158610105514526e-01
-4.365868866443634033e-02
1.424892246723175049e-01
-7.873420417308807373e-02
-7.146356254816055298e-02
-1.220731958746910095e-01
-2.143141478300094604e-01
2.665034122765064240e-02
1.842217519879341125e-02
1.142790690064430237e-01
-3.937131538987159729e-02
1.775193363428115845e-01
-5.296953395009040833e-02
-8.015580475330352783e-02
1.247907802462577820e-01
-1.387739330530166626e-01
-3.326944261789321899e-02
9.738829103298485279e-04
-1.311239972710609436e-02
-4.925071075558662415e-02
-2.033066004514694214e-01
1.360376030206680298e-01
-1.180159375071525574e-01
8.658613264560699463e-02
-2.264509052038192749e-01
5.207003559917211533e-03
-1.837230026721954346e-01
-1.614550501108169556e-01
-1.112803667783737183e-01
-2.268556654453277588e-01
-9.824939072132110596e-02
-1.272763460874557495e-01
-3.819504007697105408e-02
-7.307007908821105957e-02
4.701125994324684143e-02
-1.510028820484876633e-02
-1.809882670640945435e-01
-2.540952153503894806e-02
5.808216705918312073e-02
-1.263143569231033325e-01
9.179077297449111938e-02
5.120730027556419373e-02
9.902160614728927612e-02
-1.392068266868591309e-01
-1.632969975471496582e-01
-1.021211519837379456e-01
-6.744206883013248444e-03
1.853570044040679932e-01
-9.352007508277893066e-02
-2.144486308097839355e-01
-1.466092187911272049e-02
2.701778337359428406e-02
-1.443660706281661987e-01
-1.216382011771202087e-01
-1.866176873445510864e-01
9.854778647422790527e-02
1.303097116760909557e-03
-1.767607182264328003e-01
-6.865437328815460205e-02
-1.188852712512016296e-01
7.532332092523574829e-02
-1.935576945543289185e-01
-1.209953650832176208e-01
-2.638446986675262451e-01
-1.229634135961532593e-01
-7.953288406133651733e-02
-5.075640603899955750e-02
2.319029718637466431e-02
-1.353596895933151245e-01
2.242128103971481323e-01
-2.808060497045516968e-03
-2.501229196786880493e-02
1.772058755159378052e-02
1.835361937992274761e-03
-1.476306319236755371e-01
-1.490903794765472412e-01
3.313786536455154419e-02
-1.615440286695957184e-02
8.561193943023681641e-02
-9.850378334522247314e-02
4.764198139309883118e-02
9.828590601682662964e-02
1.227417401969432831e-02
-3.647728823125362396e-03
-1.473876535892486572e-01
-8.364976942539215088e-02
9.193995594978332520e-02
5.835053324699401855e-02
9.033246338367462158e-02
1.712938845157623291e-01
-9.198235720396041870e-02
1.943283155560493469e-02
1.466289013624191284e-01
-9.299100190401077271e-02
2.032290101051330566e-01
5.136846378445625305e-02
-8.933945745229721069e-02
-1.654443740844726562e-01
9.897789359092712402e-02
1.008765473961830139e-01
-1.147193983197212219e-01
-1.480227429419755936e-02
1.196089759469032288e-02
3.086593933403491974e-02
1.235927939414978027e-01
2.497711032629013062e-02
-1.548260748386383057e-01
2.191290855407714844e-01
2.257257103919982910e-01
-6.012836471199989319e-02
8.694228529930114746e-02
-1.127342414110898972e-02
-4.783925786614418030e-02
1.996844112873077393e-01
1.360257714986801147e-01
-1.471923440694808960e-01
1.422023624181747437e-01
-9.427130222320556641e-02
4.299244284629821777e-02
1.160776168107986450e-01
-3.768178820610046387e-02
1.281556785106658936e-01
-2.561213076114654541e-02
-1.477208733558654785e-01
1.728266626596450806e-01
9.838456660509109497e-02
1.708201020956039429e-01
1.100285630673170090e-02
-9.081189334392547607e-02
-1.593412607908248901e-01
1.576455384492874146e-01
1.731623560190200806e-01
-9.219684451818466187e-02
8.611690998077392578e-02
-1.712525077164173126e-02
-1.140389665961265564e-01
9.613847732543945312e-02
-1.086319163441658020e-01
-6.169443577527999878e-02
1.303551495075225830e-01
1.085433512926101685e-01
-2.282189875841140747e-01
2.193738892674446106e-02
-2.876609377562999725e-02
-1.487636268138885498e-01
-1.759202182292938232e-01
-9.925349056720733643e-02
-2.176539152860641479e-01
-1.456253826618194580e-01
-2.148250117897987366e-02
7.966025732457637787e-03
-1.008972972631454468e-01
1.222362741827964783e-02
5.434636399149894714e-02
1.335181146860122681e-01
-3.178335726261138916e-02
-1.408733427524566650e-02
-1.087098941206932068e-02
4.887389019131660461e-02
1.039746180176734924e-01
-1.175612136721611023e-01
-9.322173893451690674e-02
-8.245882391929626465e-02
-3.587036859244108200e-03
1.083331331610679626e-01
-1.647201031446456909e-01
-1.031100004911422729e-01
-1.713512837886810303e-01
1.304239928722381592e-01
3.684218972921371460e-02
1.635469049215316772e-01
-1.447461545467376709e-01
-4.087835550308227539e-02
1.011379063129425049e-01
-1.674525737762451172e-01
-1.882722973823547363e-01
-1.382070928812026978e-01
-5.218233168125152588e-02
-1.411979347467422485e-01
3.266226500272750854e-02
1.105085089802742004e-01
1.037652492523193359e-01
1.306392066180706024e-02
-1.024345755577087402e-01
-1.774300634860992432e-02
4.135855287313461304e-02
1.123517826199531555e-01
-1.461073458194732666e-01
-7.389910519123077393e-02
-2.689946629106998444e-02
8.138550072908401489e-02
-4.640424251556396484e-02
-6.258379667997360229e-02
-7.299073040485382080e-02
-8.511031977832317352e-03
-3.140184283256530762e-02
1.268748641014099121e-01
9.531205147504806519e-02
-2.246649004518985748e-02
-1.147277802228927612e-01
-1.759182363748550415e-01
-5.339840054512023926e-02
-4.628741741180419922e-02
1.174241900444030762e-01
1.666948571801185608e-02
-6.623120605945587158e-02
-2.735797502100467682e-02
-9.421925991773605347e-02
1.862589269876480103e-01
-2.086997777223587036e-02
-7.210611552000045776e-02
8.320799469947814941e-02
-1.919955015182495117e-01
-5.610758811235427856e-02
5.942993983626365662e-02
1.514690071344375610e-01
1.645148545503616333e-01
-4.846766591072082520e-02
-1.202369257807731628e-01
7.256914861500263214e-03
-7.487925887107849121e-02
1.595008522272109985e-01
-2.839276939630508423e-02
-6.141639500856399536e-02
-1.244321316480636597e-01
1.590663194656372070e-01
8.195380866527557373e-02
-1.447955965995788574e-01
2.038965746760368347e-02
2.978316321969032288e-02
-6.178644299507141113e-02
7.933036237955093384e-02
-1.218058094382286072e-01
-6.169920042157173157e-02
1.547846347093582153e-01
1.323444247245788574e-01
8.257655799388885498e-02
-4.843271523714065552e-02
1.139884293079376221e-01
-1.038601920008659363e-01
-1.462673395872116089e-01
-1.701554059982299805e-01
5.280245840549468994e-02
3.369801491498947144e-02
7.262972183525562286e-03
2.207774072885513306e-01
-6.160222925245761871e-03
1.669997870922088623e-01
-1.361442804336547852e-01
-1.116925925016403198e-01
4.255712032318115234e-02
4.403629526495933533e-02
4.880611971020698547e-02
1.864170134067535400e-01
-1.025457978248596191e-01
1.159698292613029480e-01
1.298561133444309235e-02
1.888113282620906830e-02
-8.047705143690109253e-02
-1.161636859178543091e-01
1.110674515366554260e-01
6.753588467836380005e-02
5.389284342527389526e-02
8.607618510723114014e-02
-2.014621347188949585e-01
1.699435710906982422e-01
-1.108664572238922119e-01
-1.672182381153106689e-01
2.010510265827178955e-01
-8.134512603282928467e-02
-6.249479949474334717e-02
-5.746177397668361664e-03
-1.337431967258453369e-01
9.141132980585098267e-02
1.885204911231994629e-01
1.314296573400497437e-01
-7.585714757442474365e-02
-1.285955160856246948e-01
1.052089482545852661e-01
-2.152031287550926208e-02
-1.071801874786615372e-02
-1.752434521913528442e-01
1.924956887960433960e-01
-3.995621204376220703e-02
-4.350243881344795227e-02
-2.576039358973503113e-02
-1.344474554061889648e-01
8.011589199304580688e-02
-2.321454435586929321e-01
-2.609024941921234131e-02
-1.354949325323104858e-01
1.036816835403442383e-01
-1.305948495864868164e-01
1.599163711071014404e-01
-1.908036172389984131e-01
-2.297493815422058105e-01
7.956716418266296387e-02
-1.097442805767059326e-01
1.611966192722320557e-01
1.548623591661453247e-01
-4.121801257133483887e-02
1.618918180465698242e-01
-3.168226778507232666e-02
1.611117422580718994e-01
-2.179178446531295776e-01
2.712218463420867920e-02
-1.086405944079160690e-03
3.244505077600479126e-02
3.861211985349655151e-02
-1.387300044298171997e-01
8.381541073322296143e-02
-1.801932975649833679e-02
4.738617315888404846e-02
1.226595882326364517e-02
-2.696532569825649261e-02
4.825100675225257874e-02
-2.731999754905700684e-02
-7.871522754430770874e-02
-3.334406996145844460e-03
-4.980077221989631653e-02
1.479202997870743275e-03
-3.436429053544998169e-02
-8.995684236288070679e-02
5.940552800893783569e-02
-3.034494072198867798e-02
-6.338638067245483398e-02
-1.178680583834648132e-01
8.459259755909442902e-03
3.075194545090198517e-02
-1.433172971010208130e-01
-1.383033096790313721e-01
8.514583855867385864e-02
-7.683622837066650391e-02
-2.496320381760597229e-02
-1.507552713155746460e-02
7.634422183036804199e-02
-6.488141417503356934e-02
1.088122949004173279e-01
-8.478333055973052979e-02
4.499549791216850281e-02
-4.808858409523963928e-02
2.482720836997032166e-02
-2.408229373395442963e-02
-3.891269909217953682e-03
6.082281842827796936e-02
-6.686522066593170166e-02
6.706023216247558594e-02
-6.664160639047622681e-02
-1.633787713944911957e-02
7.535252720117568970e-02
-1.484873592853546143e-01
-9.643101692199707031e-02
-9.079284220933914185e-02
1.485175359994173050e-02
3.780930116772651672e-02
-7.595780491828918457e-02
-2.096310630440711975e-02
2.037192694842815399e-02
-8.200485259294509888e-02
-2.498836815357208252e-02
2.764109289273619652e-03
-1.021517589688301086e-01
-5.247251689434051514e-02
-3.548920899629592896e-02
3.850819915533065796e-02
-6.566009670495986938e-02
-4.151438921689987183e-02
-7.187446206808090210e-02
4.418635368347167969e-02
8.989508263766765594e-03
-1.288620084524154663e-01
7.709232624620199203e-03
-4.833918437361717224e-02
6.958746816962957382e-03
-8.464457094669342041e-02
-7.598344236612319946e-02
-4.764426127076148987e-02
6.673131138086318970e-02
-1.757293194532394409e-01
1.272879689931869507e-01
6.148099526762962341e-02
4.407076910138130188e-02
6.288798991590738297e-03
-3.199512884020805359e-02
-5.425234884023666382e-02
-9.074681997299194336e-02
-1.577018052339553833e-01
-1.197285391390323639e-02
2.238490618765354156e-02
-8.435137569904327393e-02
9.770054370164871216e-02
-1.076463460922241211e-01
1.145696453750133514e-02
-1.969640515744686127e-02
9.952057152986526489e-02
-8.664230257272720337e-02
-2.851243689656257629e-02
2.338808961212635040e-02
-9.903769940137863159e-03
-1.158224642276763916e-01
-6.275590509176254272e-02
-7.596750743687152863e-03
-8.101467043161392212e-02
-2.719639427959918976e-02
-1.125443726778030396e-01
5.498658865690231323e-02
-4.591791424900293350e-03
-9.676104038953781128e-02
4.657676070928573608e-02
1.514479331672191620e-02
-1.045474186539649963e-01
-1.703445799648761749e-02
1.229232847690582275e-01
-1.094953641295433044e-01
-4.609971307218074799e-03
8.326045423746109009e-02
-1.173390299081802368e-01
-1.453979313373565674e-01
-1.176876481622457504e-02
-7.834444940090179443e-02
1.148564666509628296e-01
-1.903021521866321564e-02
-7.471073418855667114e-02
-1.801324822008609772e-02
-1.975367963314056396e-02
7.052110880613327026e-02
6.091589108109474182e-02
-4.586980119347572327e-02
-5.154615733772516251e-03
4.341460764408111572e-02
-6.412735581398010254e-02
1.235444331541657448e-03
-5.834793671965599060e-02
4.510182887315750122e-02
-4.601036384701728821e-02
7.047788798809051514e-02
5.254124850034713745e-02
-1.167988106608390808e-01
-2.692057378590106964e-02
-2.338737249374389648e-02
-1.277438253164291382e-01
-9.930568188428878784e-02
7.915088534355163574e-02
6.652974337339401245e-02
-6.960157305002212524e-02
-1.321447361260652542e-02
3.224781155586242676e-02
8.325663208961486816e-02
1.256508529186248779e-01
-6.849367171525955200e-03
1.445613652467727661e-01
-3.660743311047554016e-02
-2.859472483396530151e-02
6.983804702758789062e-02
-5.604100972414016724e-02
-1.233833879232406616e-01
8.998329937458038330e-02
4.456040635704994202e-02
8.609228767454624176e-03
6.053502112627029419e-02
2.962045930325984955e-02
-2.945546619594097137e-02
-3.234175220131874084e-02
2.778199128806591034e-02
-5.042719468474388123e-02
1.090064272284507751e-01
8.768589794635772705e-02
-5.593375489115715027e-02
4.529018327593803406e-02
-1.825579255819320679e-02
6.930872797966003418e-02
-1.600790917873382568e-01
2.201646799221634865e-03
-1.281629083678126335e-03
7.536841183900833130e-02
2.642786689102649689e-02
2.261196263134479523e-02
-4.661076515913009644e-02
-1.635526865720748901e-02
5.680786445736885071e-02
6.817172467708587646e-02
7.516534626483917236e-02
-6.821701675653457642e-02
8.530687540769577026e-02
-3.657659515738487244e-02
-2.345970645546913147e-02
8.663040399551391602e-02
6.673154234886169434e-02
-7.378499209880828857e-02
-1.390115078538656235e-02
7.732159644365310669e-02
-4.914161190390586853e-02
1.263649761676788330e-01
-2.931686351075768471e-03
-7.295615039765834808e-03
-7.315202802419662476e-02
3.237284719944000244e-03
2.043202286586165428e-03
3.933807834982872009e-02
-1.419061571359634399e-01
-2.450705505907535553e-02
1.239868775010108948e-01
-2.560152113437652588e-01
6.530821323394775391e-02
2.094663083553314209e-01
2.810643613338470459e-01
-1.088558733463287354e-01
2.013489603996276855e-01
3.109133243560791016e-01
-1.025941967964172363e-01
3.998450562357902527e-02
1.257854700088500977e-01
-1.316642612218856812e-01
-1.863312721252441406e-01
1.139963641762733459e-01
1.651226282119750977e-01
-1.661020815372467041e-01
-2.566983699798583984e-01
-2.850772142410278320e-01
-1.964391767978668213e-01
1.839580237865447998e-01
-1.214912161231040955e-01
4.707146435976028442e-02
-1.399452239274978638e-02
-1.215296238660812378e-01
3.484966456890106201e-01
-1.310969889163970947e-01
1.954524666070938110e-01
-1.312315315008163452e-01
4.029206633567810059e-01
8.426018804311752319e-02
1.110959053039550781e-01
1.184355616569519043e-01
1.079851016402244568e-02
-1.002382710576057434e-01
-7.318229228258132935e-02
-1.379945725202560425e-01
-7.498709857463836670e-02
4.751791805028915405e-02
-4.836788028478622437e-02
6.085647270083427429e-03
-1.490668579936027527e-02
8.632176369428634644e-02
2.053955495357513428e-01
-2.166241705417633057e-01
1.600240468978881836e-01
4.844981804490089417e-02
-1.608082950115203857e-01
1.150291562080383301e-01
7.179937511682510376e-02
1.649187207221984863e-01
2.732168436050415039e-01
9.850349277257919312e-02
3.107104264199733734e-02
-2.360899597406387329e-01
-2.470812350511550903e-01
3.880639001727104187e-02
-1.320851296186447144e-01
2.493117004632949829e-02
3.541626781225204468e-02
1.933467686176300049e-01
-4.867701977491378784e-02
-4.792501032352447510e-02
1.278967713005840778e-03
1.396766155958175659e-01
-4.181854426860809326e-02
1.317026792094111443e-03
6.125571131706237793e-01
-8.929560333490371704e-02
2.795640528202056885e-01
-1.125907450914382935e-01
1.506821066141128540e-01
-2.532452642917633057e-01
-2.914659082889556885e-01
1.647274494171142578e-01
2.374866157770156860e-01
1.253409981727600098e-01
2.412940189242362976e-02
4.165090993046760559e-02
-1.242600753903388977e-01
3.737375140190124512e-01
-1.324110627174377441e-01
-2.497459501028060913e-01
-1.071995571255683899e-01
-1.269702166318893433e-01
-1.147682592272758484e-01
-2.682111859321594238e-01
3.020098507404327393e-01
1.253838390111923218e-01
9.428698569536209106e-02
-1.321178525686264038e-01
5.310541763901710510e-02
1.493962705135345459e-01
-1.342846900224685669e-01
2.697551846504211426e-01
-3.580062836408615112e-02
-1.645373702049255371e-01
-2.894568443298339844e-01
-2.254203706979751587e-01
1.254708319902420044e-01
-1.713439524173736572e-01
-2.543843686580657959e-01
-1.716379374265670776e-01
-1.487165391445159912e-01
-2.431652545928955078e-01
-2.068685293197631836e-01
2.598628401756286621e-01
-4.796517267823219299e-02
-1.847065389156341553e-01
-1.397485882043838501e-01
2.543333470821380615e-01
-1.918468624353408813e-01
1.206570118665695190e-01
1.274135150015354156e-02
-3.623455166816711426e-01
6.915996968746185303e-02
1.311330497264862061e-01
2.775609791278839111e-01
2.379684448242187500e-01
4.760574549436569214e-02
8.822130411863327026e-02
-2.531827688217163086e-01
3.642331957817077637e-01
-1.211290732026100159e-01
2.659682035446166992e-01
-1.796747595071792603e-01
-4.349113106727600098e-01
3.205983042716979980e-01
1.976865977048873901e-01
-4.396204277873039246e-02
7.172421365976333618e-02
-2.422173321247100830e-01
-6.794624775648117065e-02
2.385166585445404053e-01
2.899072170257568359e-01
-7.470647990703582764e-02
8.116524666547775269e-02
5.071166753768920898e-01
3.008015751838684082e-01
-1.241129115223884583e-01
-3.535718023777008057e-01
-2.597725950181484222e-02
1.142850741744041443e-01
-3.852564990520477295e-01
2.388815134763717651e-01
-2.088887244462966919e-01
7.779940217733383179e-02
-1.007022410631179810e-01
3.611278831958770752e-01
-7.345182448625564575e-02
-2.030956298112869263e-01
2.272929847240447998e-01
1.102989446371793747e-02
2.702690362930297852e-01
7.027697563171386719e-02
-5.948470160365104675e-02
-1.814862936735153198e-01
-1.481961309909820557e-01
1.783389747142791748e-01
2.910451889038085938e-01
-2.204325497150421143e-01
-1.564170569181442261e-01
2.393468022346496582e-01
3.848051726818084717e-01
6.906475126743316650e-02
6.043668836355209351e-02
2.341224998235702515e-01
2.252780497074127197e-01
-2.448336184024810791e-01
-2.159130573272705078e-01
8.422902785241603851e-03
2.309488058090209961e-01
-6.595952063798904419e-02
-8.632403612136840820e-02
2.728730998933315277e-02
-1.422171592712402344e-01
2.426220476627349854e-01
2.102310070767998695e-03
1.613177806138992310e-01
1.138735115528106689e-01
5.051391944289207458e-02
-2.121364027261734009e-01
-2.054852396249771118e-01
-4.106187820434570312e-02
2.600556015968322754e-01
-2.128114402294158936e-01
3.608476817607879639e-01
2.369018942117691040e-01
-3.399725854396820068e-01
2.511437833309173584e-01
-1.529645770788192749e-01
-9.623274207115173340e-02
6.966315954923629761e-02
-1.067782267928123474e-01
-2.099526971578598022e-01
-1.234335303306579590e-01
8.084739744663238525e-02
-8.977209776639938354e-02
1.172059588134288788e-02
-1.696259677410125732e-01
1.642694175243377686e-01
-1.263490971177816391e-02
1.001808643341064453e-01
1.510164737701416016e-01
-1.155885756015777588e-01
1.724064350128173828e-02
4.916838183999061584e-02
-1.344264000654220581e-01
-1.574713438749313354e-01
3.502834122627973557e-03
8.789996057748794556e-02
1.616355478763580322e-01
-5.251360312104225159e-02
-4.729755222797393799e-02
1.228897869586944580e-01
-2.294869348406791687e-02
6.160157918930053711e-02
1.955697983503341675e-01
7.712296210229396820e-04
1.539464741945266724e-01
1.416081339120864868e-01
2.516881749033927917e-02
7.487133145332336426e-02
2.685220353305339813e-02
-2.327636256814002991e-02
1.622809469699859619e-01
1.807567104697227478e-02
1.132286060601472855e-02
1.933358758687973022e-01
2.356394827365875244e-01
-1.009995639324188232e-01
-1.843087933957576752e-02
-1.187075376510620117e-01
-1.203985065221786499e-01
5.076105892658233643e-02
-5.817395821213722229e-02
-6.072115153074264526e-02
1.308768093585968018e-01
8.550941944122314453e-02
-1.492313109338283539e-02
1.569557040929794312e-01
9.528765827417373657e-02
5.931713059544563293e-02
8.469540625810623169e-02
-7.273208349943161011e-02
-1.778905466198921204e-02
-1.636445820331573486e-01
-1.254319846630096436e-01
1.133894920349121094e-01
1.194521784782409668e-01
1.231456547975540161e-01
7.739568245597183704e-04
-4.815002158284187317e-02
6.225586682558059692e-02
-4.547427967190742493e-02
2.275512926280498505e-02
-6.550239864736795425e-03
-3.179230913519859314e-02
-8.922234177589416504e-02
-1.059716269373893738e-01
-3.075448982417583466e-02
-1.971275173127651215e-02
-3.499374538660049438e-02
1.017091050744056702e-01
8.377883583307266235e-02
2.439821325242519379e-02
6.428358703851699829e-02
1.221340894699096680e-02
1.595439948141574860e-02
-5.336752161383628845e-02
2.996080555021762848e-03
2.089854478836059570e-01
-3.139670938253402710e-02
8.326967805624008179e-02
-1.793378777801990509e-02
1.201924011111259460e-01
-7.571886479854583740e-02
-7.972892373800277710e-02
3.921960294246673584e-02
4.476885497570037842e-02
-1.337576359510421753e-01
3.440928831696510315e-02
4.939293488860130310e-03
3.081390447914600372e-02
1.808098405599594116e-01
-1.344057023525238037e-01
1.361427009105682373e-01
1.081140637397766113e-01
-1.505084782838821411e-01
-2.405980788171291351e-02
7.267397642135620117e-02
-1.405161321163177490e-01
1.654726415872573853e-01
-1.434453725814819336e-01
5.526885390281677246e-02
-2.716552000492811203e-03
-7.271389663219451904e-02
-1.148789152503013611e-01
3.748835623264312744e-02
-1.094909831881523132e-01
-5.175077542662620544e-02
4.983939602971076965e-02
-1.216488629579544067e-01
3.703442215919494629e-02
-1.557448208332061768e-01
-1.771914511919021606e-01
8.025928586721420288e-02
-1.045675724744796753e-01
9.906810522079467773e-02
-6.347573548555374146e-02
-3.969859704375267029e-02
6.086328625679016113e-02
-1.112661436200141907e-01
-1.721385270357131958e-01
3.886267542839050293e-02
1.065340414643287659e-01
9.363280236721038818e-02
1.799776405096054077e-01
2.214883454144001007e-02
1.972340978682041168e-02
8.591039478778839111e-02
-5.671657621860504150e-03
3.345144912600517273e-02
-1.537473946809768677e-01
5.568274762481451035e-03
1.171166822314262390e-01
1.619661897420883179e-01
-1.113331690430641174e-01
1.118517071008682251e-01
2.313099354505538940e-01
-3.841784596443176270e-02
1.332194264978170395e-02
-2.339147776365280151e-02
1.166301816701889038e-01
5.142595618963241577e-02
1.949226856231689453e-01
1.516073793172836304e-01
-1.703150868415832520e-01
-3.116619959473609924e-02
-1.558227539062500000e-01
-1.345915794372558594e-01
-2.182226330041885376e-01
4.185610264539718628e-02
5.611669272184371948e-02
-1.500610411167144775e-01
1.026107817888259888e-01
7.356648333370685577e-03
4.472536221146583557e-02
1.322946846485137939e-01
1.312788873910903931e-01
2.414202131330966949e-02
2.185533568263053894e-02
-3.042352944612503052e-02
-1.358664035797119141e-01
-8.810399472713470459e-02
-8.400593698024749756e-02
-2.913440763950347900e-02
-6.805337220430374146e-02
7.092954963445663452e-02
1.439900249242782593e-01
-1.466402113437652588e-01
-1.398131400346755981e-01
-4.472869262099266052e-02
6.931404024362564087e-02
1.237410381436347961e-01
-1.534429937601089478e-01
-4.316984489560127258e-02
-3.147160634398460388e-02
1.140039563179016113e-01
7.701347768306732178e-02
4.852386191487312317e-02
9.747115522623062134e-02
-5.009271204471588135e-02
1.567973941564559937e-01
-9.419549256563186646e-02
-1.455809473991394043e-01
1.206679269671440125e-01
2.173318564891815186e-01
1.527454853057861328e-01
8.907346427440643311e-02
6.986765563488006592e-02
-5.661486834287643433e-02
-1.255428344011306763e-01
-3.303541615605354309e-02
1.943810097873210907e-02
-7.736171782016754150e-02
-6.645436584949493408e-02
-1.852655597031116486e-02
5.940178409218788147e-02
-8.618181198835372925e-02
4.616598412394523621e-02
4.686271771788597107e-02
4.929025471210479736e-02
-3.562959656119346619e-02
6.869076192378997803e-02
-2.844935283064842224e-02
3.554483130574226379e-02
-5.896095559000968933e-02
-4.036480560898780823e-02
3.634364111348986626e-03
-6.119976192712783813e-02
5.677718669176101685e-02
2.759001590311527252e-02
1.305005103349685669e-01
-3.310010209679603577e-02
1.815519295632839203e-02
-4.754639789462089539e-02
1.685805432498455048e-02
3.319067880511283875e-02
1.306903660297393799e-01
3.449718281626701355e-02
4.272918030619621277e-02
5.202072113752365112e-02
6.418729573488235474e-02
1.263534724712371826e-01
7.665933668613433838e-02
-7.675732672214508057e-02
-1.241010501980781555e-01
1.358543056994676590e-02
2.937088534235954285e-02
-5.135007202625274658e-02
1.184046920388936996e-02
9.116068482398986816e-02
1.707143485546112061e-01
1.241607591509819031e-01
-7.745432108640670776e-02
1.269175857305526733e-01
3.361243009567260742e-02
-3.455909341573715210e-02
-9.923218190670013428e-02
-3.146767849102616310e-03
5.214119702577590942e-02
8.268394321203231812e-02
6.430914252996444702e-02
-9.423004090785980225e-02
2.303363755345344543e-02
8.608634769916534424e-02
8.915330469608306885e-02
-7.086032629013061523e-02
9.543891996145248413e-02
3.630195930600166321e-02
5.367280915379524231e-02
-1.072298809885978699e-01
-8.088300004601478577e-03
-2.980067394673824310e-02
-3.218376636505126953e-02
-1.099526043981313705e-02
-9.094792767427861691e-05
8.726298063993453979e-02
1.184057146310806274e-01
1.034199520945549011e-01
-1.447156770154833794e-03
-6.444314867258071899e-02
-1.909832842648029327e-02
6.288379430770874023e-02
-6.738341599702835083e-02
4.364029318094253540e-02
3.945020213723182678e-02
-4.042663797736167908e-02
-6.081835553050041199e-02
-1.209508329629898071e-01
1.833750680088996887e-02
1.058131754398345947e-01
8.590337634086608887e-02
-3.302055597305297852e-02
-1.835126429796218872e-01
-2.368170022964477539e-02
-1.450986415147781372e-02
-6.787561811506748199e-03
8.096750080585479736e-02
7.315208017826080322e-02
2.561677945777773857e-03
6.573077291250228882e-02
-1.770415715873241425e-02
-7.032265421003103256e-03
1.425432972609996796e-02
-1.265311986207962036e-01
-1.466346532106399536e-01
9.986703097820281982e-02
1.187059655785560608e-01
-1.197110638022422791e-01
-8.057993650436401367e-02
-2.966327220201492310e-02
-7.017342001199722290e-02
-1.061727479100227356e-01
-2.617992833256721497e-02
-4.874530062079429626e-02
1.019598692655563354e-01
-1.073522120714187622e-01
-2.860164828598499298e-02
-7.277400046586990356e-02
-1.188934370875358582e-01
-1.522420346736907959e-01
-1.700319200754165649e-01
1.191434413194656372e-01
-6.279144436120986938e-03
-6.120493263006210327e-02
6.417044997215270996e-02
-5.819743871688842773e-02
-4.149507358670234680e-02
5.264339502900838852e-03
-8.383965119719505310e-03
3.704573586583137512e-02
1.119428426027297974e-01
1.996243186295032501e-02
1.179314702749252319e-01
6.503526866436004639e-02
-1.038105189800262451e-01
-6.424549967050552368e-02
-1.062898058444261551e-02
1.400052458047866821e-01
-1.585166156291961670e-02
3.511632233858108521e-02
-6.391334533691406250e-02
5.708819627761840820e-02
5.634364485740661621e-02
5.065009370446205139e-02
-1.194053664803504944e-01
-2.777213975787162781e-02
1.051875352859497070e-01
-4.166250675916671753e-02
-9.745905175805091858e-03
-1.279973089694976807e-01
-9.981393814086914062e-02
1.384195685386657715e-01
7.049734145402908325e-02
4.942484200000762939e-02
-1.536418050527572632e-01
-1.171473860740661621e-01
7.677879929542541504e-02
-3.455820679664611816e-02
-6.370469182729721069e-02
-2.895266003906726837e-02
1.368462145328521729e-01
7.499238103628158569e-02
1.032299473881721497e-01
1.166187003254890442e-01
7.502303272485733032e-02
3.716286271810531616e-02
-3.564487025141716003e-02
2.400489524006843567e-02
-1.905737444758415222e-02
1.143964603543281555e-01
9.886283427476882935e-02
-1.239067222923040390e-02
-1.060283333063125610e-01
1.076587662100791931e-01
-2.227704226970672607e-02
7.985702715814113617e-03
-1.997947320342063904e-02
-6.151431053876876831e-02
-5.587374046444892883e-02
9.816192090511322021e-02
1.100251376628875732e-01
5.723706632852554321e-02
-3.270211070775985718e-02
-2.770357765257358551e-02
6.108703836798667908e-02
9.084567427635192871e-02
1.192835420370101929e-01
9.652081131935119629e-02
-1.980458013713359833e-02
-3.887764364480972290e-02
1.013279557228088379e-01
-4.729893803596496582e-02
-6.302425265312194824e-02
-1.638033054769039154e-02
-1.827042922377586365e-02
4.239960014820098877e-02
-4.465554654598236084e-02
2.660581469535827637e-02
-8.811527490615844727e-02
7.236620783805847168e-02
6.142148375511169434e-02
-1.496891230344772339e-01
2.714258618652820587e-02
8.494707196950912476e-02
1.167291626334190369e-01
-2.530075013637542725e-01
-1.287866234779357910e-01
-5.185927823185920715e-02
1.348944455385208130e-01
-7.273951172828674316e-02
-2.336732670664787292e-02
-7.857247255742549896e-03
-1.731395423412322998e-01
-1.252855211496353149e-01
2.059261314570903778e-02
3.568682447075843811e-02
1.217930242419242859e-01
-6.649770587682723999e-02
1.363035589456558228e-01
1.708480417728424072e-01
-1.709501445293426514e-01
-3.814606927335262299e-03
-9.476993232965469360e-02
-1.065112277865409851e-02
-2.008657008409500122e-01
7.552243769168853760e-02
-2.080355286598205566e-01
4.164191894233226776e-03
-1.149051785469055176e-01
1.441155374050140381e-01
-9.133649617433547974e-02
7.087870687246322632e-02
-1.196412369608879089e-01
2.828137017786502838e-02
-3.217064216732978821e-02
2.087153494358062744e-02
1.084643974900245667e-01
1.515200138092041016e-01
3.664636984467506409e-02
-2.139792293310165405e-01
-2.949438691139221191e-01
1.040905937552452087e-01
1.181369796395301819e-01
1.018370017409324646e-01
7.754345983266830444e-02
-8.170254528522491455e-02
6.892398744821548462e-02
7.881905883550643921e-02
9.664186835289001465e-02
-7.486136164516210556e-03
8.002155274152755737e-02
-1.303393989801406860e-01
-9.301644563674926758e-02
-7.786161731928586960e-03
2.293027043342590332e-01
1.256097555160522461e-01
-4.736904799938201904e-02
-1.350030899047851562e-01
9.709118306636810303e-02
-5.562674254179000854e-02
2.554961666464805603e-02
-6.689130514860153198e-02
1.505533903837203979e-01
4.425784572958946228e-02
-2.588688768446445465e-02
-9.587793052196502686e-02
-1.155975982546806335e-01
6.096170470118522644e-02
-1.511163562536239624e-01
1.316886395215988159e-01
1.106023490428924561e-01
-1.337117701768875122e-01
-1.118684262037277222e-01
-1.038469076156616211e-01
-3.860247880220413208e-02
-1.357833594083786011e-01
1.439504325389862061e-01
-7.298436760902404785e-02
1.847023889422416687e-02
8.261407911777496338e-02
5.556584149599075317e-02
