6.109071373939514160e-01
5.713524222373962402e-01
3.566001951694488525e-01
5.940566062927246094e-01
7.162296772003173828e-01
-1.187172055244445801e+00
9.776227474212646484e-01
1.070771932601928711e+00
8.178023695945739746e-01
1.202139735221862793e+00
1.428588151931762695e+00
5.458008646965026855e-01
-1.861534714698791504e-01
-4.536153376102447510e-01
5.286883115768432617e-01
3.310324251651763916e-01
5.722204446792602539e-01
-8.702578544616699219e-01
-5.111922621726989746e-01
-2.583709657192230225e-01
4.827820509672164917e-02
8.077872991561889648e-01
2.845332622528076172e-01
-3.098723292350769043e-01
8.803691267967224121e-01
3.244043290615081787e-01
5.119010210037231445e-01
5.854119658470153809e-01
1.199558526277542114e-01
-5.454958677291870117e-01
-6.415566056966781616e-02
5.200027227401733398e-01
-9.889692664146423340e-01
5.385525822639465332e-01
-6.435696482658386230e-01
3.469823002815246582e-01
-8.800678886473178864e-03
6.671012639999389648e-01
-8.271842002868652344e-01
1.649328827857971191e+00
-2.064777910709381104e-01
1.196083068847656250e+00
2.341308891773223877e-01
6.292747259140014648e-01
5.172544717788696289e-01
8.033551573753356934e-01
1.658737957477569580e-01
5.292599797248840332e-01
7.084789872169494629e-01
1.760608851909637451e-01
6.580947041511535645e-01
6.464055776596069336e-01
2.233915030956268311e-01
1.170489005744457245e-02
-3.598378226161003113e-02
-8.371690511703491211e-01
-3.167984485626220703e-01
-1.170070648193359375e+00
-5.819520726799964905e-02
-1.163318753242492676e-03
2.958669662475585938e-01
-1.470504403114318848e-01
-6.418024301528930664e-01
3.589035272598266602e-01
1.188739061355590820e+00
-3.706357181072235107e-01
-1.890413835644721985e-02
4.268850684165954590e-01
5.432559251785278320e-01
3.991409838199615479e-01
-8.765950202941894531e-01
1.198302805423736572e-01
1.280601620674133301e-01
-6.102500855922698975e-02
-4.377174973487854004e-01
1.464889645576477051e-01
8.525957465171813965e-01
6.720304489135742188e-01
-7.572206258773803711e-01
8.165675997734069824e-01
2.583575844764709473e-01
5.732522010803222656e-01
5.390650033950805664e-01
3.967177271842956543e-01
3.029872477054595947e-02
-1.524437069892883301e-01
-1.217284202575683594e-01
-4.807765483856201172e-01
8.136245608329772949e-01
1.440117239952087402e+00
5.328971147537231445e-01
-5.931990146636962891e-01
5.388264060020446777e-01
-1.078996360301971436e-01
1.075263738632202148e+00
1.097035765647888184e+00
8.903425931930541992e-02
4.874629974365234375e-01
6.571872234344482422e-01
4.131629168987274170e-01
1.681678928434848785e-02
-1.116573452949523926e+00
8.256220221519470215e-01
3.040479421615600586e-01
4.687651693820953369e-01
-7.042402029037475586e-01
1.593347191810607910e-01
6.676884889602661133e-01
4.810500741004943848e-01
2.037591487169265747e-01
1.060952186584472656e+00
2.908407449722290039e-01
2.346713542938232422e-01
-2.789650261402130127e-01
3.376087248325347900e-01
1.261212587356567383e+00
3.149702772498130798e-02
5.855143070220947266e-01
-3.684331774711608887e-01
3.056468367576599121e-01
-4.347763657569885254e-01
-2.097259759902954102e-01
3.702792227268218994e-01
6.404495239257812500e-01
3.048551082611083984e-01
5.589339733123779297e-01
-3.355520963668823242e-01
1.058204650878906250e+00
