4.019869565963745117e-01
3.623436987400054932e-01
-8.442864567041397095e-02
4.381744861602783203e-01
-1.040811240673065186e-01
8.766998350620269775e-02
-2.759327590465545654e-01
1.939753144979476929e-01
2.694191336631774902e-01
-2.302352339029312134e-01
3.018198907375335693e-01
4.779661074280738831e-02
2.783407568931579590e-01
6.929361075162887573e-02
5.950433015823364258e-01
-2.544687688350677490e-01
1.000375509262084961e+00
2.038922458887100220e-01
-6.003963947296142578e-01
3.063871860504150391e-01
-7.056447863578796387e-01
-6.750803440809249878e-02
-2.012829482555389404e-01
3.995145857334136963e-01
-3.121218979358673096e-01
-1.333189308643341064e-01
-1.977816373109817505e-01
-4.087858200073242188e-01
2.119209021329879761e-01
-2.020830869674682617e+00
2.048509120941162109e+00
-1.729093074798583984e+00
1.684584617614746094e+00
2.061129063367843628e-01
-8.077356219291687012e-01
3.714984059333801270e-01
1.975446939468383789e-01
4.181862473487854004e-01
7.123356312513351440e-02
-1.883009672164916992e-01
1.279487460851669312e-01
-1.684054732322692871e-01
1.370399892330169678e-01
2.529777884483337402e-01
1.769299954175949097e-01
-6.354997307062149048e-02
2.019763737916946411e-01
6.809716671705245972e-02
1.613487005233764648e-01
-3.987650573253631592e-01
-6.418612003326416016e-01
-2.112156003713607788e-01
-4.532070457935333252e-01
6.204585433006286621e-01
2.283805608749389648e-01
3.229782283306121826e-01
4.570584297180175781e-01
4.921377450227737427e-02
1.221008300781250000e+00
-1.119176864624023438e+00
1.561741996556520462e-02
-1.141911983489990234e+00
3.617611825466156006e-01
-1.930648237466812134e-01
3.571107983589172363e-01
-1.614209264516830444e-01
8.735141754150390625e-01
-5.565043687820434570e-01
-5.311892628669738770e-01
-5.609196424484252930e-01
4.997395277023315430e-01
1.728166639804840088e-01
5.326324105262756348e-01
-4.158334136009216309e-01
-5.230590701103210449e-01
-4.204387366771697998e-01
-3.510566949844360352e-01
4.778698086738586426e-01
4.240018129348754883e-01
8.830768465995788574e-01
-6.001198291778564453e-01
-7.927728295326232910e-01
4.313890635967254639e-01
-5.259016156196594238e-01
1.061638236045837402e+00
-3.499633967876434326e-01
8.426375985145568848e-01
-1.363577127456665039e+00
-9.251918196678161621e-01
4.579056501388549805e-01
2.058175355195999146e-01
-8.166791200637817383e-01
1.180287718772888184e+00
1.369584441184997559e+00
-1.724540710449218750e+00
-1.229860067367553711e+00
2.067925930023193359e+00
-8.350469470024108887e-01
-1.147243455052375793e-01
-3.224556446075439453e-01
-1.674484312534332275e-01
3.915921971201896667e-02
-9.986356645822525024e-02
-2.827910780906677246e-01
1.440177205950021744e-02
-2.875235080718994141e-01
-3.190963864326477051e-01
-2.332676351070404053e-01
-3.378599882125854492e-01
-2.227076292037963867e-01
4.688015580177307129e-01
1.106542423367500305e-01
5.010790750384330750e-02
-2.445704936981201172e-01
-1.301730871200561523e-01
-1.351834982633590698e-01
-2.004473656415939331e-02
-2.501780688762664795e-01
-1.663966327905654907e-01
-1.342292875051498413e-01
2.356475964188575745e-02
-1.334981769323348999e-01
-8.814015984535217285e-02
-2.569371759891510010e-01
-1.875265240669250488e-01
-1.495809555053710938e-01
-5.003129243850708008e-01
-1.199404478073120117e+00
1.264321327209472656e+00
-2.315353602170944214e-01
1.340052247047424316e+00
4.636792242527008057e-01
-1.292893767356872559e+00
3.940989375114440918e-01
-1.316781789064407349e-01
-1.454264968633651733e-01
-4.139385819435119629e-01
-5.589434504508972168e-01
1.621570736169815063e-01
-1.175547763705253601e-01
6.892125606536865234e-01
-1.546472787857055664e+00
1.376399874687194824e+00
-1.476583719253540039e+00
-4.211721122264862061e-01
4.238924384117126465e-01
1.000257372856140137e+00
7.412408590316772461e-01
8.426002860069274902e-01
-7.529295682907104492e-01
2.228504121303558350e-01
-4.111534059047698975e-01
-1.574115902185440063e-01
-7.262577414512634277e-01
4.890693128108978271e-01
-4.275354146957397461e-01
2.335994541645050049e-01
1.314557492733001709e-01
1.479678899049758911e-01
-2.067612260580062866e-01
5.680768489837646484e-01
4.185844361782073975e-01
1.748707294464111328e-01
-1.927180290222167969e+00
8.839540481567382812e-01
-2.668537497520446777e-01
-9.171178936958312988e-01
1.770700812339782715e+00
2.065819874405860901e-02
-3.703243732452392578e-01
-3.155906498432159424e-01
-5.259928852319717407e-02
2.496204376220703125e-01
-1.154647395014762878e-01
-2.928642928600311279e-01
-6.525506973266601562e-01
-1.280019521713256836e+00
6.020510196685791016e-01
1.330037117004394531e+00
-1.465003609657287598e+00
4.392330050468444824e-01
8.462191224098205566e-01
1.412139087915420532e-01
-3.036693334579467773e-01
4.623326659202575684e-01
4.979507327079772949e-01
3.461242020130157471e-01
-1.245853006839752197e-01
-2.271604984998703003e-01
5.262468755245208740e-02
-1.294774711132049561e-01
-3.296993076801300049e-01
7.038712501525878906e-01
7.375854849815368652e-01
-3.353018313646316528e-02
-2.585788369178771973e-01
6.633350253105163574e-02
-1.180797517299652100e-01
5.490385890007019043e-01
6.294549107551574707e-01
-2.091413497924804688e+00
-8.670372366905212402e-01
1.824029445648193359e+00
2.113202661275863647e-01
2.449181489646434784e-02
-2.859298586845397949e-01
-2.367358356714248657e-01
-4.304893314838409424e-01
-1.935606598854064941e-01
8.899803459644317627e-02
6.902304291725158691e-01
4.501743018627166748e-01
-9.407098293304443359e-01
-6.772524714469909668e-01
-1.580329090356826782e-01
1.070586562156677246e+00
1.883467882871627808e-01
-1.619718372821807861e-01
3.101010322570800781e-01
-2.745572328567504883e-01
-5.082678794860839844e-01
5.250596404075622559e-01
-4.657753705978393555e-01
-3.252841830253601074e-01
