9.082799553871154785e-01
1.058779060840606689e-01
3.247524052858352661e-02
-3.305466771125793457e-01
-2.200437933206558228e-01
-3.841879367828369141e-01
-6.828810572624206543e-01
1.185634359717369080e-01
3.488461077213287354e-01
-8.925668001174926758e-01
1.747278124094009399e-01
1.426706761121749878e-01
1.018693089485168457e+00
6.652319431304931641e-02
2.601061463356018066e-01
-6.183704137802124023e-01
-2.161675393581390381e-01
-5.524860024452209473e-01
-6.422748565673828125e-01
5.994715094566345215e-01
6.269558668136596680e-01
4.491828382015228271e-01
5.647426843643188477e-01
-9.584473967552185059e-01
-2.331417985260486603e-02
6.033542156219482422e-01
9.516060948371887207e-01
-2.859375178813934326e-01
-3.913291394710540771e-01
-9.495692253112792969e-01
-6.687424778938293457e-01
3.698528707027435303e-01
2.878006994724273682e-01
-1.785229295492172241e-01
-1.536776721477508545e-01
-2.909028232097625732e-01
7.013701200485229492e-01
2.114278525114059448e-01
-4.575212895870208740e-01
-1.151449680328369141e-01
-1.186965331435203552e-01
4.829735159873962402e-01
7.929366230964660645e-01
4.221037030220031738e-01
-9.541610628366470337e-02
-1.038962125778198242e+00
4.861000180244445801e-01
8.575559854507446289e-01
8.659090846776962280e-03
3.321247994899749756e-01
-6.550898551940917969e-01
4.532536566257476807e-01
-3.453854322433471680e-01
4.002305269241333008e-01
2.139908671379089355e-01
-6.017134338617324829e-02
-5.628373026847839355e-01
5.776038169860839844e-01
5.991387963294982910e-01
7.097287774085998535e-01
2.981145083904266357e-01
7.914230227470397949e-01
5.953648090362548828e-01
6.904089450836181641e-01
