-1.999295800924301147e-01
1.337407529354095459e-01
1.419719457626342773e-01
7.794383913278579712e-02
-1.011337861418724060e-01
-1.696468293666839600e-01
-1.301983892917633057e-01
1.577256321907043457e-01
1.262742429971694946e-01
1.776481121778488159e-01
8.705782890319824219e-02
3.677527606487274170e-02
3.636791557073593140e-02
-1.615706235170364380e-01
-1.343648284673690796e-01
-1.846307516098022461e-01
4.229392856359481812e-02
-6.904598325490951538e-02
5.094625521451234818e-03
-8.075010031461715698e-02
-8.472775109112262726e-03
-1.217749193310737610e-01
-2.722310274839401245e-02
6.673374772071838379e-02
-4.760376643389463425e-03
1.296645104885101318e-01
-5.182169377803802490e-02
-1.066023111343383789e-01
-2.573464438319206238e-02
-4.645753651857376099e-02
-3.480213880538940430e-02
-1.650496125221252441e-01
1.427835226058959961e-01
-9.797131270170211792e-02
1.225118711590766907e-01
8.078064769506454468e-02
1.030667051672935486e-01
-1.702003031969070435e-01
1.084519084542989731e-02
-1.512330174446105957e-01
4.942150413990020752e-02
1.847499758005142212e-01
4.051221162080764771e-02
3.657742217183113098e-02
-2.970345132052898407e-02
-1.544178873300552368e-01
4.026895016431808472e-02
-2.052647322416305542e-01
1.312405019998550415e-01
1.225455254316329956e-01
1.571601331233978271e-01
-3.750764578580856323e-02
-1.002297550439834595e-01
7.851492613554000854e-02
9.863150864839553833e-02
-1.710426956415176392e-01
-4.151117801666259766e-02
-6.179444491863250732e-02
-7.499805092811584473e-02
-3.322099894285202026e-02
-1.772711127996444702e-01
-5.339260026812553406e-02
-1.724635362625122070e-01
1.285293847322463989e-01
2.038178145885467529e-01
-4.130614548921585083e-02
-4.038404300808906555e-02
-7.474283874034881592e-02
-2.349865734577178955e-01
-1.813799291849136353e-01
4.494993388652801514e-02
-1.502204835414886475e-01
-1.213936135172843933e-01
-5.206063855439424515e-03
-3.726496919989585876e-02
-1.077667474746704102e-01
-5.075516924262046814e-02
-9.822132438421249390e-02
-1.102860420942306519e-01
-8.217303454875946045e-02
-1.719981431961059570e-01
1.216537877917289734e-01
-6.410358101129531860e-02
8.240274339914321899e-02
-4.153649136424064636e-02
-1.445911265909671783e-02
1.453296393156051636e-01
8.467561751604080200e-02
-1.348151713609695435e-01
9.560261666774749756e-02
1.651404350996017456e-01
-4.038456082344055176e-02
4.997115582227706909e-02
7.795950770378112793e-02
-1.183058172464370728e-01
-2.792470157146453857e-03
-1.433433294296264648e-01
-5.492305755615234375e-02
1.698212027549743652e-01
1.382517516613006592e-01
-8.573501557111740112e-02
-7.940260320901870728e-02
-9.863338619470596313e-02
-1.030921638011932373e-01
-2.713499777019023895e-02
-1.018609404563903809e-01
1.162570044398307800e-01
4.157114773988723755e-02
-1.399220377206802368e-01
-2.146185189485549927e-01
9.171223640441894531e-02
-9.169755131006240845e-02
1.846857182681560516e-02
1.291823089122772217e-01
-6.514114141464233398e-02
-8.472356200218200684e-02
-1.166889630258083344e-02
-1.125962138175964355e-01
-1.859016865491867065e-01
-2.111746370792388916e-01
-1.823234707117080688e-01
-1.278560161590576172e-01
1.795182228088378906e-01
-7.619244605302810669e-02
-1.079923138022422791e-01
-4.133637621998786926e-02
-6.300874799489974976e-02
4.295731335878372192e-02
1.139288116246461868e-02
-2.929611690342426300e-02
-1.893277615308761597e-01
4.208578169345855713e-02
9.307915717363357544e-02
9.109775535762310028e-03
-7.616570591926574707e-02
1.750318109989166260e-01
-3.804879635572433472e-02
-1.305650323629379272e-01
-1.179161667823791504e-01
2.820149995386600494e-02
2.566231600940227509e-02
-1.397481858730316162e-01
-1.884673237800598145e-01
-3.095850646495819092e-01
-3.048220872879028320e-01
-3.370820730924606323e-02
1.398316025733947754e-01
8.537819236516952515e-02
-8.074287325143814087e-02
1.452869363129138947e-02
-1.352121680974960327e-01
-1.115484610199928284e-01
-4.959376994520425797e-03
5.193501710891723633e-02
1.374101340770721436e-01
-2.125974744558334351e-01
1.178035140037536621e-01
-1.377354860305786133e-01
1.124177947640419006e-01
1.702686995267868042e-01
-1.559044979512691498e-02
1.745947003364562988e-01
-1.973534524440765381e-01
-1.030065417289733887e-01
1.386256217956542969e-01
-9.069775789976119995e-02
-6.304749101400375366e-02
-9.554748982191085815e-02
1.561406105756759644e-01
1.545671969652175903e-01
1.022178232669830322e-01
-1.190274357795715332e-01
-2.344927340745925903e-01
-1.901021227240562439e-02
5.480331927537918091e-02
-1.048946827650070190e-01
-1.011966690421104431e-01
1.179258003830909729e-01
2.693952620029449463e-02
1.038937717676162720e-01
-2.766105905175209045e-02
-1.963387280702590942e-01
-1.161536574363708496e-01
-9.063398838043212891e-02
-1.142516285181045532e-01
5.041476711630821228e-02
-8.739086240530014038e-02
-9.630124270915985107e-02
1.960564702749252319e-01
7.283966243267059326e-02
1.335361748933792114e-01
-1.266609281301498413e-01
-9.754116088151931763e-02
7.548157125711441040e-02
-1.389030218124389648e-01
-3.227333724498748779e-02
5.526196211576461792e-02
-1.363575160503387451e-01
-2.156850546598434448e-01
8.042126148939132690e-02
2.148002982139587402e-01
8.404413610696792603e-02
-6.662189215421676636e-02
-2.071736901998519897e-01
-3.333505615592002869e-02
5.056641995906829834e-02
9.854747354984283447e-02
-9.642309695482254028e-02
-4.266162589192390442e-02
3.046652674674987793e-01
-1.717920303344726562e-01
1.642405539751052856e-01
-1.508948206901550293e-01
3.261046111583709717e-02
9.044569730758666992e-02
5.570400878787040710e-02
-3.926230221986770630e-02
4.274097830057144165e-02
-1.043900474905967712e-01
5.922599509358406067e-02
2.375877797603607178e-01
-8.522020280361175537e-02
-7.430783659219741821e-02
1.134561225771903992e-01
1.447416692972183228e-01
-1.585910171270370483e-01
-5.273835733532905579e-02
-2.074486613273620605e-01
-2.362218350172042847e-01
-6.108888983726501465e-02
2.571437507867813110e-02
1.928647048771381378e-02
-8.683137595653533936e-02
1.692430675029754639e-01
1.120287459343671799e-02
-1.389637142419815063e-01
-7.342185080051422119e-02
5.017068609595298767e-02
4.579122364521026611e-02
-1.633753627538681030e-01
5.178419128060340881e-02
-1.167653575539588928e-01
-2.162966728210449219e-01
-1.473437696695327759e-01
2.373742014169692993e-01
1.577806770801544189e-01
1.708326786756515503e-01
9.741012006998062134e-02
1.335604786872863770e-01
1.514847017824649811e-02
-1.294129043817520142e-01
1.120058149099349976e-01
-5.467370525002479553e-02
-5.196999758481979370e-02
5.996012128889560699e-03
2.012234879657626152e-03
1.112789437174797058e-01
-1.197721883654594421e-01
-1.789414286613464355e-01
7.389383018016815186e-02
-3.291067853569984436e-02
-1.356265991926193237e-01
1.166171506047248840e-01
-1.941413804888725281e-02
2.185363173484802246e-01
1.905380338430404663e-01
9.044751524925231934e-02
3.653191030025482178e-02
2.425341121852397919e-02
1.542346328496932983e-01
-3.038015589118003845e-02
1.292409375309944153e-02
7.344489544630050659e-02
2.200168669223785400e-01
-2.092753164470195770e-02
-8.415496349334716797e-02
-4.837996885180473328e-02
-9.512054920196533203e-02
9.231308102607727051e-02
1.856491863727569580e-01
1.537332981824874878e-01
9.362445026636123657e-02
-2.014048248529434204e-01
-1.192596033215522766e-01
-6.490900367498397827e-02
-4.648571461439132690e-02
3.006743453443050385e-02
-2.474645674228668213e-01
-3.098119748756289482e-03
-1.989166289567947388e-01
-1.585518568754196167e-01
-2.094197124242782593e-01
1.576875001192092896e-01
-2.128410041332244873e-01
2.261771559715270996e-01
-6.997199263423681259e-03
-6.553381681442260742e-02
1.053955331444740295e-01
-1.282645040191709995e-03
2.351034879684448242e-01
2.730350568890571594e-02
-2.340750992298126221e-01
5.569843202829360962e-02
1.321306824684143066e-01
1.631541252136230469e-01
-2.462770976126194000e-02
5.519774556159973145e-02
-1.370161771774291992e-01
-7.845665514469146729e-02
2.782349288463592529e-01
1.443349421024322510e-01
-2.829558402299880981e-02
-1.505953520536422729e-01
2.191300131380558014e-02
-4.641649127006530762e-02
1.220955252647399902e-01
-1.463801562786102295e-01
-5.008372664451599121e-02
-9.606389701366424561e-02
5.691762268543243408e-02
2.449777126312255859e-01
2.791298553347587585e-02
1.529431343078613281e-01
1.859527528285980225e-01
2.049908339977264404e-01
-5.721123516559600830e-02
-4.770552739500999451e-02
1.345048099756240845e-01
-5.134895816445350647e-02
1.467214971780776978e-01
-4.505653306841850281e-02
-1.417092382907867432e-01
7.705383002758026123e-02
5.778222903609275818e-02
1.161217167973518372e-01
2.237043529748916626e-01
1.529106348752975464e-01
2.013745605945587158e-01
1.784013025462627411e-02
-1.998313814401626587e-01
-2.714321315288543701e-01
-3.000183701515197754e-01
-3.665447235107421875e-01
-2.780420482158660889e-01
-3.827167749404907227e-01
-1.958021819591522217e-01
-1.138164699077606201e-01
-2.350568175315856934e-01
-1.301629245281219482e-01
9.921209514141082764e-02
2.187154889106750488e-01
-4.848214983940124512e-02
-5.252214521169662476e-02
1.561774909496307373e-01
-1.034593135118484497e-01
-9.859477728605270386e-02
1.282145380973815918e-01
-2.230295091867446899e-01
-1.549070701003074646e-02
9.750891476869583130e-02
-5.662816762924194336e-02
1.165585890412330627e-01
-1.738373339176177979e-01
-2.127820812165737152e-02
-1.191388815641403198e-02
6.873854994773864746e-02
1.073520258069038391e-01
2.106222063302993774e-01
-1.359491199254989624e-01
9.515476226806640625e-02
-2.202197760343551636e-01
-2.327137440443038940e-01
-4.590855166316032410e-02
-1.834471076726913452e-01
1.653142571449279785e-01
4.042124748229980469e-02
-8.251273632049560547e-02
1.007585078477859497e-01
-1.848845332860946655e-01
-9.441494941711425781e-02
-5.734036117792129517e-02
-2.042651325464248657e-01
-1.283358335494995117e-01
-1.805862635374069214e-01
1.067925617098808289e-01
2.434325814247131348e-01
1.966015994548797607e-01
-1.707898378372192383e-01
-7.367574423551559448e-02
9.653643518686294556e-02
1.001442521810531616e-01
5.851392634212970734e-03
2.926826104521751404e-02
-1.943078488111495972e-01
-7.600330561399459839e-02
2.487304359674453735e-01
-4.948491975665092468e-02
-1.234531775116920471e-02
-2.010368704795837402e-01
-1.775332838296890259e-01
4.396132659167051315e-03
-1.595296412706375122e-01
-3.548298776149749756e-02
9.568202495574951172e-02
-2.115419507026672363e-01
8.107842504978179932e-02
-1.585903465747833252e-01
-1.172395423054695129e-01
1.026671007275581360e-01
2.234378308057785034e-01
-6.284548901021480560e-03
-1.748647540807723999e-01
-2.084055244922637939e-01
-1.689338386058807373e-01
-2.162999808788299561e-01
-2.261256054043769836e-02
1.876492984592914581e-02
-2.187916785478591919e-01
1.771895587444305420e-01
1.721264123916625977e-01
-2.313126027584075928e-01
-1.743532419204711914e-01
7.282686978578567505e-02
-1.233896538615226746e-01
-1.145153790712356567e-01
-6.843834370374679565e-02
1.541921496391296387e-01
-9.047844260931015015e-02
1.673066169023513794e-01
7.048480957746505737e-02
8.185620605945587158e-02
2.031989246606826782e-01
-2.833408769220113754e-03
-1.240554526448249817e-01
-2.099515404552221298e-03
2.740922272205352783e-01
-2.009963989257812500e-01
5.342015251517295837e-02
-2.932645380496978760e-01
2.870468981564044952e-02
1.158574000000953674e-01
9.466308169066905975e-03
1.060409247875213623e-01
1.248762104660272598e-02
1.367765367031097412e-01
-1.041566058993339539e-01
4.751444607973098755e-02
1.500745266675949097e-01
1.797222346067428589e-01
9.388119727373123169e-02
-1.232014372944831848e-01
1.851302683353424072e-01
-3.244630619883537292e-02
-5.251362919807434082e-02
-2.056040316820144653e-01
7.122550159692764282e-03
1.343425661325454712e-01
6.703728437423706055e-02
-1.720746755599975586e-01
5.531667172908782959e-02
-1.017746776342391968e-01
2.212959825992584229e-01
-1.436021327972412109e-01
-1.601010411977767944e-01
-1.170248761773109436e-01
-6.884739547967910767e-02
6.589166820049285889e-02
2.321687489748001099e-01
1.407332438975572586e-02
2.635503709316253662e-01
6.813263893127441406e-02
1.847453117370605469e-01
1.877187788486480713e-01
1.733103543519973755e-01
-9.679731726646423340e-02
2.230431586503982544e-01
1.305403858423233032e-01
-1.189084202051162720e-01
-1.100924313068389893e-01
-1.853007823228836060e-01
7.495501637458801270e-02
-1.690373420715332031e-01
1.016785800457000732e-01
6.084335595369338989e-02
-1.669847667217254639e-01
8.317117393016815186e-02
-3.377050161361694336e-02
6.088656187057495117e-02
7.346282899379730225e-02
-1.945927739143371582e-01
1.892895698547363281e-01
1.747184991836547852e-01
6.018894910812377930e-02
-1.251302808523178101e-01
-2.516346983611583710e-02
-7.606355100870132446e-02
-8.761404454708099365e-02
1.121620833873748779e-01
4.409360140562057495e-02
1.666530966758728027e-01
-5.877991393208503723e-02
-2.090727724134922028e-02
1.730877906084060669e-01
-8.285817503929138184e-02
-1.219950541853904724e-01
-1.126916855573654175e-01
1.371861249208450317e-01
-1.936075836420059204e-01
-1.577219814062118530e-01
1.079809293150901794e-01
1.221883296966552734e-01
1.580530405044555664e-01
-1.786151081323623657e-01
-1.732789874076843262e-01
9.921214729547500610e-02
1.584264785051345825e-01
1.222979351878166199e-01
9.887171536684036255e-02
1.836689561605453491e-01
2.878178060054779053e-01
-9.589165449142456055e-02
-8.533014357089996338e-02
1.295932382345199585e-01
-1.303130388259887695e-01
-1.408930569887161255e-01
1.958049237728118896e-01
6.736366450786590576e-02
-2.619248814880847931e-03
-1.100422590970993042e-01
-6.197050213813781738e-02
2.232500612735748291e-01
-1.055760681629180908e-01
-5.713778361678123474e-02
1.449701748788356781e-02
-1.699040979146957397e-01
1.917575001716613770e-01
-7.409215718507766724e-02
-6.145093124359846115e-03
-2.005612663924694061e-02
-1.195981726050376892e-01
-1.531182974576950073e-01
1.037583276629447937e-01
8.836860954761505127e-02
-2.019003778696060181e-01
-1.114936992526054382e-01
2.045087069272994995e-01
1.582210063934326172e-01
1.582119315862655640e-01
-1.757890582084655762e-01
-2.923883497714996338e-01
-4.501472692936658859e-03
-3.447547182440757751e-02
-1.596003770828247070e-01
3.088177181780338287e-02
3.566332161426544189e-03
-2.147050760686397552e-02
-6.657832767814397812e-03
-1.789572648704051971e-02
9.583923965692520142e-02
8.866122364997863770e-02
-1.032506078481674194e-01
-1.938563883304595947e-01
8.265388011932373047e-02
4.348366707563400269e-02
-9.084914624691009521e-02
1.815387755632400513e-01
-1.094870269298553467e-01
1.251051276922225952e-01
8.021463453769683838e-02
-1.538625508546829224e-01
9.808193147182464600e-02
-2.849381268024444580e-01
-9.514406323432922363e-02
2.828796021640300751e-02
-9.788358211517333984e-02
1.790693402290344238e-01
-6.017206236720085144e-02
9.009966999292373657e-02
-2.310318499803543091e-01
8.666616678237915039e-02
3.727097995579242706e-03
-1.533769816160202026e-01
1.200833320617675781e-01
1.864216923713684082e-01
1.379708945751190186e-01
-9.453687816858291626e-02
-1.017121896147727966e-01
-1.945420634001493454e-03
-7.520515471696853638e-02
6.752499192953109741e-02
1.468107104301452637e-01
-4.270367696881294250e-02
1.072249785065650940e-01
1.540813893079757690e-01
-1.644497364759445190e-02
1.884159445762634277e-01
4.662562161684036255e-02
1.222433373332023621e-01
-1.100215837359428406e-01
-1.275200247764587402e-01
-6.525633484125137329e-02
4.032742604613304138e-02
1.026217937469482422e-01
-8.894713222980499268e-02
8.577282726764678955e-02
1.497844755649566650e-01
1.353071779012680054e-01
6.333614699542522430e-03
-8.014404773712158203e-02
-2.974130026996135712e-02
-1.205812543630599976e-01
9.743665903806686401e-02
-1.135641932487487793e-01
-9.508376941084861755e-03
4.154344275593757629e-02
-5.233068019151687622e-02
3.174240887165069580e-02
-1.634088307619094849e-01
-1.606908738613128662e-01
-1.838039904832839966e-01
1.693099737167358398e-02
-7.983478158712387085e-02
-2.593181096017360687e-02
-1.461767852306365967e-01
2.485555782914161682e-02
1.713630855083465576e-01
7.613336294889450073e-02
-5.756556615233421326e-02
-2.229200601577758789e-01
3.790134564042091370e-02
-3.309074090793728828e-04
1.314502805471420288e-01
1.589398682117462158e-01
7.091730833053588867e-02
1.421597748994827271e-01
1.748632937669754028e-01
9.652426838874816895e-02
-1.363955289125442505e-01
1.492479294538497925e-01
-9.471198916435241699e-02
-1.221952363848686218e-01
1.286701112985610962e-01
1.486943215131759644e-01
6.893034279346466064e-02
-2.975776419043540955e-02
-1.369635909795761108e-01
-1.350373588502407074e-02
1.911081522703170776e-01
3.245370090007781982e-02
1.162966992706060410e-02
-8.446405827999114990e-02
-7.650665938854217529e-02
5.262232199311256409e-02
7.546605193056166172e-04
9.950504451990127563e-02
-8.937638998031616211e-02
7.266893982887268066e-02
1.053200140595436096e-01
4.020173475146293640e-02
2.097823023796081543e-01
8.807461708784103394e-02
7.821035385131835938e-02
9.937165677547454834e-02
-7.948560267686843872e-02
-1.668829321861267090e-01
3.874201327562332153e-02
-3.046091832220554352e-02
-5.041258409619331360e-02
-4.067549854516983032e-02
2.144691068679094315e-03
1.708742529153823853e-01
5.632843822240829468e-02
-6.968223303556442261e-02
-1.120457723736763000e-01
-5.186658352613449097e-02
-5.750804394483566284e-02
1.488133817911148071e-01
3.829299658536911011e-02
1.220960244536399841e-01
3.901543095707893372e-02
5.344542488455772400e-02
1.035951226949691772e-01
-1.036308035254478455e-01
1.268835067749023438e-01
1.367293298244476318e-01
-8.878479152917861938e-02
-1.195875480771064758e-01
2.454757988452911377e-01
1.715220957994461060e-01
1.924547702074050903e-01
1.872171163558959961e-01
-6.845066696405410767e-02
4.497615620493888855e-03
9.769392758607864380e-02
1.041601374745368958e-01
-9.604586521163582802e-04
-1.451471149921417236e-01
7.270310074090957642e-02
-1.452914178371429443e-01
4.777287319302558899e-02
1.679651886224746704e-01
-4.196926951408386230e-02
1.554628647863864899e-02
2.130829244852066040e-01
2.052649669349193573e-02
5.121124442666769028e-03
1.780289411544799805e-01
-7.272194325923919678e-02
-2.002546787261962891e-01
-1.587951779365539551e-01
-6.428503245115280151e-02
-8.148595690727233887e-02
-1.055817678570747375e-01
9.029122442007064819e-02
6.017396599054336548e-02
-1.366788595914840698e-01
-2.435379922389984131e-01
-9.650403261184692383e-02
-6.980745494365692139e-02
-7.496797293424606323e-02
-1.600432246923446655e-01
7.795477658510208130e-02
-1.384779363870620728e-01
-1.179580688476562500e-01
-1.008169576525688171e-01
2.708119526505470276e-02
-1.152535080909729004e-01
-7.542158663272857666e-02
1.529864966869354248e-01
1.216520071029663086e-01
1.604080200195312500e-01
-7.395397126674652100e-02
-7.048383355140686035e-02
5.411684513092041016e-02
1.300115734338760376e-01
-2.291118353605270386e-02
-1.329297423362731934e-01
7.331749889999628067e-03
-9.534738957881927490e-02
-7.183560170233249664e-03
-6.253027915954589844e-02
9.714913368225097656e-02
1.213643923401832581e-01
1.023023203015327454e-02
3.000588156282901764e-02
-2.113431133329868317e-02
1.148487851023674011e-01
1.469026058912277222e-01
7.015997916460037231e-02
-1.930232904851436615e-02
1.584160476922988892e-01
-3.628840669989585876e-02
-7.814041525125503540e-02
9.622772783041000366e-02
1.510272175073623657e-01
2.184128314256668091e-01
8.870170265436172485e-02
5.265513435006141663e-02
1.892654746770858765e-01
1.421496570110321045e-01
-1.313695013523101807e-01
-5.033661425113677979e-02
-1.521582305431365967e-01
6.462206691503524780e-02
1.448563486337661743e-01
-7.287773489952087402e-02
4.137179628014564514e-02
9.679298102855682373e-02
-4.962659999728202820e-02
-2.372201830148696899e-01
9.435246884822845459e-02
-1.186156049370765686e-01
-5.450557544827461243e-02
3.248787298798561096e-02
-4.533855989575386047e-02
-2.127217799425125122e-01
9.533491730690002441e-02
-1.162416636943817139e-01
-6.744778901338577271e-02
1.476531196385622025e-02
-5.158687010407447815e-03
-1.207824274897575378e-01
-1.268505156040191650e-01
5.308649316430091858e-02
-5.038775503635406494e-02
-1.046949401497840881e-01
4.271175712347030640e-02
-1.372166574001312256e-01
-5.089572072029113770e-02
4.194464907050132751e-02
1.935275644063949585e-01
1.851089447736740112e-01
-7.736825197935104370e-02
3.607346490025520325e-02
1.237771064043045044e-01
6.137835606932640076e-02
-1.885713338851928711e-01
-2.080810442566871643e-02
-1.276808530092239380e-01
-8.754193037748336792e-02
7.000406831502914429e-02
3.249872243031859398e-03
8.101683109998703003e-02
-8.104385435581207275e-02
3.478588163852691650e-02
-1.260868012905120850e-01
1.109839603304862976e-01
-9.271961450576782227e-02
-3.938684239983558655e-02
-1.366285085678100586e-01
-2.528326353058218956e-03
1.130043715238571167e-01
6.981755793094635010e-02
-7.790905237197875977e-02
9.641660377383232117e-03
-4.954843223094940186e-02
-9.258727729320526123e-02
1.144322603940963745e-01
2.810884499922394753e-03
-3.713929094374179840e-03
-4.488212242722511292e-02
-1.409911960363388062e-01
-1.779556088149547577e-02
5.450567696243524551e-03
3.454887121915817261e-02
-1.119203120470046997e-01
1.578709483146667480e-01
-2.273630537092685699e-02
-9.580469131469726562e-02
-7.469791918992996216e-02
1.523081809282302856e-01
4.003336653113365173e-03
-3.605215996503829956e-02
-7.378073781728744507e-02
-3.802435100078582764e-02
-1.811169683933258057e-01
-2.517445385456085205e-01
6.026159226894378662e-02
1.681316792964935303e-01
2.166251540184020996e-01
-1.755442470312118530e-02
6.349714845418930054e-02
-1.106196343898773193e-01
8.607076853513717651e-02
1.430894881486892700e-01
1.885730624198913574e-01
1.986826360225677490e-01
9.488998353481292725e-02
-9.184232912957668304e-03
6.629706174135208130e-02
2.522398531436920166e-02
9.698491543531417847e-02
-8.035615086555480957e-03
1.475281361490488052e-02
-1.295082569122314453e-01
-1.914435648359358311e-03
-1.372720003128051758e-01
-7.630296051502227783e-02
-1.123001128435134888e-01
-1.681617647409439087e-01
7.793726027011871338e-02
1.821085810661315918e-01
1.493375748395919800e-01
1.403097659349441528e-01
-1.572763361036777496e-02
-6.246569380164146423e-02
6.104281544685363770e-02
1.300119906663894653e-01
-1.721708774566650391e-01
-3.900233283638954163e-02
5.558424070477485657e-02
2.437965199351310730e-02
-1.113185733556747437e-01
1.312489807605743408e-01
7.119075953960418701e-02
-1.180096995085477829e-02
-1.380213499069213867e-01
1.226162537932395935e-01
-4.946510866284370422e-02
2.046000212430953979e-01
-1.030164957046508789e-01
1.086174324154853821e-01
1.715509034693241119e-02
2.731016650795936584e-02
-4.496483504772186279e-02
3.432371839880943298e-02
-3.160278126597404480e-02
-1.566836386919021606e-01
-8.022179454565048218e-02
1.231558471918106079e-01
8.832903578877449036e-03
9.478192031383514404e-02
-7.735846191644668579e-02
1.176405325531959534e-01
1.265541762113571167e-01
5.997995659708976746e-02
-5.557046458125114441e-02
-1.146776452660560608e-01
3.606044501066207886e-02
-8.536724001169204712e-02
4.925474524497985840e-02
-1.877076178789138794e-01
3.995526582002639771e-02
1.550395637750625610e-01
9.523192048072814941e-02
1.387809067964553833e-01
-1.259955614805221558e-01
1.803414374589920044e-01
-1.652088388800621033e-02
-8.971744030714035034e-02
1.307701766490936279e-01
-7.104694843292236328e-02
-2.294116094708442688e-02
1.448455005884170532e-01
-1.251341551542282104e-01
-7.158993184566497803e-02
5.043125525116920471e-02
1.099910587072372437e-02
7.708033919334411621e-02
-2.794689685106277466e-02
-3.219864144921302795e-02
-7.284066081047058105e-02
-1.029691770672798157e-01
-1.665661782026290894e-01
6.187156215310096741e-02
8.695124089717864990e-02
-1.961814910173416138e-01
1.111593469977378845e-01
4.350372403860092163e-02
6.268230825662612915e-02
-1.211013421416282654e-01
3.636162728071212769e-02
1.847203224897384644e-01
1.115659102797508240e-01
-1.104039996862411499e-01
1.162716224789619446e-01
3.889974579215049744e-02
8.845432847738265991e-02
1.419858336448669434e-01
1.417604982852935791e-01
-1.250492781400680542e-01
1.443194895982742310e-01
-1.654925942420959473e-01
-4.799089208245277405e-02
-9.225491434335708618e-02
-5.397664010524749756e-02
2.736279554665088654e-02
1.372908987104892731e-02
-7.598082069307565689e-03
2.218554541468620300e-02
1.407252699136734009e-01
2.203449457883834839e-01
8.266394585371017456e-02
1.134408414363861084e-01
1.076634824275970459e-01
7.895149290561676025e-03
3.399459272623062134e-02
6.044055894017219543e-02
-2.014202475547790527e-01
-1.660089194774627686e-01
2.642421983182430267e-02
-9.054617583751678467e-02
-1.793628931045532227e-02
-3.538216277956962585e-02
5.219054594635963440e-02
1.218952387571334839e-01
-9.425209462642669678e-02
1.671995520591735840e-01
1.844212710857391357e-01
-1.560700982809066772e-01
-1.665300130844116211e-01
-1.330205351114273071e-01
-1.249077245593070984e-01
-8.670256286859512329e-02
8.337184786796569824e-03
-6.016298010945320129e-02
-1.060815304517745972e-01
-5.596435815095901489e-02
-3.556025773286819458e-02
2.559796273708343506e-01
-6.101958453655242920e-02
-1.522639542818069458e-01
1.746518164873123169e-02
2.374285645782947540e-02
9.318290650844573975e-02
1.115309000015258789e-01
1.705857664346694946e-01
-1.607294082641601562e-01
1.261122375726699829e-01
1.773553192615509033e-01
-1.103409379720687866e-01
1.443881839513778687e-01
1.525310724973678589e-01
1.078048162162303925e-02
8.592378348112106323e-02
-4.406049475073814392e-02
-1.113596484065055847e-01
7.730226963758468628e-02
1.162170395255088806e-01
-1.758356392383575439e-01
3.677015379071235657e-02
-9.896438568830490112e-02
2.180344760417938232e-01
1.411282569169998169e-01
4.825286939740180969e-02
-1.545221358537673950e-01
1.083877235651016235e-01
7.023234665393829346e-02
8.113688975572586060e-02
2.842032313346862793e-01
9.396055340766906738e-02
-1.032707989215850830e-01
2.089726272970438004e-03
5.039758607745170593e-02
1.366027295589447021e-01
1.757517307996749878e-01
-1.327298730611801147e-01
3.041017614305019379e-02
2.401130273938179016e-02
-3.427750989794731140e-02
1.236127018928527832e-01
2.012318372726440430e-02
-3.743391856551170349e-02
-2.143766544759273529e-02
-1.579152196645736694e-01
3.719303756952285767e-03
-1.868547350168228149e-01
-1.784373223781585693e-01
-1.296355621889233589e-03
-5.541606619954109192e-02
-7.688552886247634888e-02
1.639087945222854614e-01
-2.979264594614505768e-02
1.300123184919357300e-01
6.102839857339859009e-02
-1.866046935319900513e-01
5.933483317494392395e-02
1.654559373855590820e-01
-5.695609003305435181e-02
-1.631994694471359253e-01
1.796512901782989502e-01
1.534778475761413574e-01
-8.302363753318786621e-02
1.223512515425682068e-01
2.520396560430526733e-02
-2.172538042068481445e-01
-1.096898037940263748e-02
7.380892336368560791e-02
-5.898202955722808838e-02
1.230178698897361755e-01
-1.319850534200668335e-01
1.077102050185203552e-01
1.714565157890319824e-01
2.222518026828765869e-01
5.848560854792594910e-02
1.173819415271282196e-02
-1.855261325836181641e-01
-2.278115600347518921e-02
-3.043712582439184189e-03
-7.823149859905242920e-02
-2.266751974821090698e-02
1.176355034112930298e-01
8.597872406244277954e-02
-1.737241894006729126e-01
-8.593124151229858398e-02
6.127548962831497192e-02
8.633063733577728271e-02
1.220290064811706543e-01
1.627500951290130615e-01
1.549140899442136288e-03
1.191771179437637329e-01
1.513481885194778442e-01
-2.052216231822967529e-01
-1.666442304849624634e-01
5.341203510761260986e-02
1.268923431634902954e-01
-2.667764201760292053e-02
2.300334535539150238e-02
7.678561843931674957e-03
-1.751681789755821228e-02
-1.170004531741142273e-01
9.109901636838912964e-02
1.630723476409912109e-01
-1.298124939203262329e-01
4.035063087940216064e-02
-2.754645980894565582e-02
1.314113438129425049e-01
1.529483944177627563e-01
1.285687647759914398e-02
-5.212754756212234497e-02
1.471871733665466309e-01
-8.183035254478454590e-02
-5.380173027515411377e-02
2.041105180978775024e-02
-1.193269491195678711e-01
-9.578779339790344238e-03
-1.235016137361526489e-01
4.188338294625282288e-02
4.253087937831878662e-02
7.271531224250793457e-02
-2.658032476902008057e-01
-2.082156240940093994e-01
1.733538508415222168e-02
-3.378718858584761620e-03
-2.288455069065093994e-01
4.495502263307571411e-02
-1.540284305810928345e-01
3.635447099804878235e-02
1.911060661077499390e-01
1.967543810606002808e-01
-7.724437117576599121e-02
1.429864615201950073e-01
1.878267377614974976e-01
1.387984901666641235e-01
1.642599850893020630e-01
-9.672585129737854004e-02
-5.774053186178207397e-02
-8.178986608982086182e-02
1.066996809095144272e-02
1.056848242878913879e-01
1.972303912043571472e-02
-1.492743045091629028e-01
-1.414661556482315063e-01
1.057983636856079102e-01
-2.157388180494308472e-01
-1.188114359974861145e-01
-5.805310979485511780e-02
-1.254606246948242188e-01
1.031313315033912659e-01
6.723917275667190552e-02
2.541150450706481934e-01
3.331844136118888855e-02
-1.060132160782814026e-01
2.051735967397689819e-01
5.827274546027183533e-02
-8.863979578018188477e-02
-1.665588319301605225e-01
6.055570393800735474e-02
-2.414538115262985229e-01
1.039542630314826965e-01
2.032780945301055908e-01
-1.514538675546646118e-01
-1.546215713024139404e-01
-1.702554672956466675e-01
9.853833168745040894e-02
2.203302681446075439e-01
7.253958843648433685e-03
2.243118584156036377e-01
-1.086030080914497375e-01
-2.856327891349792480e-01
1.047374121844768524e-02
4.261089488863945007e-02
2.289732396602630615e-01
-2.866196073591709137e-02
2.337173521518707275e-01
2.550528645515441895e-01
2.679259777069091797e-01
-1.274026930332183838e-01
3.125905990600585938e-01
-1.964886635541915894e-01
2.610563933849334717e-01
6.771261803805828094e-03
5.932923778891563416e-02
1.438875943422317505e-01
5.969268083572387695e-02
-2.766760885715484619e-01
-9.640747308731079102e-02
1.064370386302471161e-02
2.533199191093444824e-01
-2.566288784146308899e-02
2.050946950912475586e-01
9.850136935710906982e-02
1.752807348966598511e-01
1.323435008525848389e-01
-1.099670007824897766e-01
-1.431369334459304810e-01
-6.403224170207977295e-02
-1.432602107524871826e-01
-1.560882180929183960e-01
-1.396997366100549698e-02
-1.311737447977066040e-01
-2.937802672386169434e-01
-7.128939777612686157e-02
-8.071769028902053833e-02
-1.145971268415451050e-01
-1.970411241054534912e-01
-1.509727835655212402e-01
-5.384497810155153275e-03
-1.354281306266784668e-01
-1.764148175716400146e-01
-9.681326150894165039e-02
-1.320425048470497131e-02
-1.802210360765457153e-01
1.184242870658636093e-02
-3.357622399926185608e-02
1.195811927318572998e-01
1.020396724343299866e-01
2.352629154920578003e-01
2.300592325627803802e-02
-1.926781833171844482e-01
1.045483946800231934e-01
-1.894602328538894653e-01
-4.992465302348136902e-02
-8.192345499992370605e-02
-1.193812191486358643e-01
-1.238816529512405396e-01
2.382803112268447876e-01
1.434048712253570557e-01
7.905674725770950317e-02
2.682116031646728516e-01
-1.878312230110168457e-01
-2.227428555488586426e-02
1.559462100267410278e-01
5.841121077537536621e-02
-3.661463856697082520e-01
1.129761636257171631e-01
-1.380277276039123535e-01
1.598547585308551788e-02
-2.112584933638572693e-02
-1.936792582273483276e-01
-3.437486588954925537e-01
-4.951369017362594604e-02
1.718752682209014893e-01
1.557674109935760498e-01
-9.509970247745513916e-02
-4.930264502763748169e-02
1.183462096378207207e-03
-2.869709767401218414e-02
2.290826737880706787e-01
2.632480263710021973e-01
-4.526733607053756714e-02
-3.064315319061279297e-01
1.250469591468572617e-02
6.322603672742843628e-02
1.988547593355178833e-01
-2.055007219314575195e-01
-1.078596189618110657e-01
2.519166469573974609e-01
-4.119891300797462463e-02
-8.552978187799453735e-02
-1.185738891363143921e-01
-1.605726778507232666e-01
1.948653459548950195e-01
-6.369642168283462524e-02
1.281483620405197144e-01
3.330065310001373291e-01
4.017930477857589722e-02
3.543503582477569580e-02
1.606956869363784790e-01
9.730312228202819824e-02
-2.455244809389114380e-01
6.154610961675643921e-02
-7.290512323379516602e-02
1.251534223556518555e-01
1.283980626612901688e-02
-9.590843319892883301e-02
-8.800645917654037476e-02
1.170430704951286316e-01
-1.983030140399932861e-01
-9.669671952724456787e-02
-2.705461382865905762e-01
-2.077477276325225830e-01
-8.755271881818771362e-02
2.737717330455780029e-02
-1.222490221261978149e-01
2.583256363868713379e-01
-1.078851819038391113e-01
-1.360325664281845093e-01
-1.081366911530494690e-01
-1.566473245620727539e-01
-3.198094964027404785e-01
-2.498462200164794922e-01
-2.191069871187210083e-01
7.491192221641540527e-02
2.498103380203247070e-01
2.723954916000366211e-01
2.016588300466537476e-01
-4.057690128684043884e-02
4.617128521203994751e-02
-2.213559597730636597e-01
3.936096280813217163e-02
-2.322022914886474609e-01
9.031001478433609009e-02
4.792454466223716736e-02
5.942713841795921326e-02
3.293262422084808350e-02
-1.095758751034736633e-01
1.925214827060699463e-01
1.090234220027923584e-01
1.561553031206130981e-01
8.552250266075134277e-02
1.237116158008575439e-01
1.387578547000885010e-01
1.056863665580749512e-01
2.094868719577789307e-01
-8.043067902326583862e-02
1.506847739219665527e-01
3.468247130513191223e-02
1.491677761077880859e-01
1.649900376796722412e-01
-8.296042680740356445e-03
-8.205564320087432861e-02
-9.867303073406219482e-02
2.824034728109836578e-02
1.043497323989868164e-01
-1.072642281651496887e-01
1.888315528631210327e-01
1.268872320652008057e-01
-1.650899797677993774e-01
-2.518050931394100189e-02
-6.693714112043380737e-02
-1.565805226564407349e-01
1.070554088801145554e-02
-1.001224517822265625e-01
-1.447701752185821533e-01
-1.429417729377746582e-01
-2.189082205295562744e-01
9.391205012798309326e-02
9.403741359710693359e-02
3.376047015190124512e-01
8.943453431129455566e-02
5.181699618697166443e-02
6.308797746896743774e-02
1.026005223393440247e-01
-1.302104294300079346e-01
-8.990593999624252319e-02
-1.801618374884128571e-02
7.834476977586746216e-02
1.244275420904159546e-01
-5.006561055779457092e-02
2.403009384870529175e-01
1.525079905986785889e-01
-5.497960746288299561e-02
-1.706039905548095703e-01
-3.407390117645263672e-01
-6.725839525461196899e-02
8.341466635465621948e-02
-1.573948934674263000e-02
1.452567279338836670e-01
-6.029095873236656189e-02
-1.015199571847915649e-01
-7.906834036111831665e-02
-8.673169463872909546e-02
1.336844414472579956e-01
9.127791225910186768e-02
8.050717413425445557e-02
-5.663503706455230713e-02
-1.452483385801315308e-01
-1.963386982679367065e-01
1.860360428690910339e-02
-2.908248640596866608e-02
-7.074307650327682495e-02
-1.280823200941085815e-01
8.217346668243408203e-02
-2.602036483585834503e-02
-2.640235126018524170e-01
-2.835654616355895996e-01
-4.315491393208503723e-02
-1.811734735965728760e-01
1.170226633548736572e-01
-7.416626811027526855e-02
1.493931710720062256e-01
-3.183806315064430237e-03
-7.949436083436012268e-03
2.085696533322334290e-02
9.465233981609344482e-02
-1.179382801055908203e-01
1.425282508134841919e-01
6.081371381878852844e-02
-2.231343835592269897e-01
1.007691472768783569e-01
-1.307231187820434570e-01
-1.330926418304443359e-01
-1.263686567544937134e-01
-1.437444239854812622e-01
1.757007241249084473e-01
-1.688350439071655273e-01
1.243863180279731750e-01
-1.857742816209793091e-01
-1.489682588726282120e-02
5.126088485121726990e-02
7.800962030887603760e-02
-1.564857512712478638e-01
4.204401373863220215e-02
1.215017512440681458e-01
1.185562163591384888e-01
2.283814996480941772e-01
1.255367696285247803e-01
-1.501794606447219849e-01
-3.409361541271209717e-01
1.946455389261245728e-01
-2.004280239343643188e-01
-5.714657530188560486e-02
-5.591795593500137329e-02
2.333332449197769165e-01
7.729386538267135620e-02
-1.760799288749694824e-01
-5.301736667752265930e-02
1.429796963930130005e-01
1.547370553016662598e-01
1.563000530004501343e-01
-1.058844998478889465e-01
9.443657100200653076e-02
-2.830186784267425537e-01
6.660141050815582275e-02
2.586181759834289551e-01
1.683264672756195068e-01
-3.091112077236175537e-01
-7.523956894874572754e-02
1.297162920236587524e-01
-1.884913593530654907e-01
-2.703755497932434082e-01
-2.326824814081192017e-01
1.977117359638214111e-02
1.746510565280914307e-01
1.467897277325391769e-02
-8.711297996342182159e-03
8.409582078456878662e-02
-1.320493370294570923e-01
5.189411342144012451e-02
-8.596380800008773804e-02
-2.187035232782363892e-01
2.099112123250961304e-01
-1.421026140451431274e-01
3.530903905630111694e-02
-2.898285984992980957e-01
1.470681931823492050e-02
-1.065539345145225525e-01
1.217314079403877258e-01
-1.204128935933113098e-01
-1.400108076632022858e-02
-2.449694275856018066e-01
2.466829260811209679e-03
-2.040191590785980225e-01
1.267724335193634033e-01
-1.897888779640197754e-01
1.128700282424688339e-02
-6.215431541204452515e-02
1.297405660152435303e-01
4.485786706209182739e-02
-1.485025137662887573e-01
-6.210042047314345837e-04
-8.561257272958755493e-02
1.593399345874786377e-01
9.024461731314659119e-03
-3.661448508501052856e-02
-5.051434040069580078e-02
7.363983988761901855e-02
-1.054832860827445984e-01
6.534178555011749268e-02
6.438344717025756836e-02
1.123725920915603638e-01
7.216795533895492554e-02
-1.279643476009368896e-01
1.231781989336013794e-01
-2.104765921831130981e-02
2.291229180991649628e-02
2.095648460090160370e-02
8.452519029378890991e-02
2.778015732765197754e-01
6.640633940696716309e-02
1.577630788087844849e-01
-1.677139401435852051e-01
-7.198674976825714111e-02
-2.071109563112258911e-01
2.865669503808021545e-02
-1.234830021858215332e-01
-5.459708347916603088e-02
1.499319076538085938e-01
1.440441757440567017e-01
-8.952120691537857056e-02
-6.327268481254577637e-02
3.375009074807167053e-02
8.031329512596130371e-02
-1.583622395992279053e-02
-1.057059243321418762e-01
-1.473678648471832275e-01
6.980797741562128067e-03
1.762423515319824219e-01
-1.000652462244033813e-01
4.649050161242485046e-02
4.930409416556358337e-02
9.057226032018661499e-02
-7.008386403322219849e-02
1.693066023290157318e-02
1.416759639978408813e-01
1.375098973512649536e-01
2.032567411661148071e-01
2.916886284947395325e-02
1.699790358543395996e-01
9.293708205223083496e-02
-8.591781556606292725e-02
5.583097785711288452e-02
-2.403399348258972168e-02
1.661685109138488770e-01
-8.102793246507644653e-02
-1.554621383547782898e-02
1.057643666863441467e-01
-1.101194024085998535e-01
-9.826421737670898438e-02
-7.924561202526092529e-02
1.025504693388938904e-01
1.090220659971237183e-01
-1.250527799129486084e-01
3.722422942519187927e-02
-3.237698599696159363e-02
5.640298593789339066e-03
1.807328313589096069e-01
5.569718405604362488e-02
-2.395664714276790619e-02
-2.893994387704879045e-04
6.129517778754234314e-02
5.920062959194183350e-02
6.944522727280855179e-03
-4.829027503728866577e-02
6.728898733854293823e-02
3.576711565256118774e-02
6.014201417565345764e-02
4.200791940093040466e-03
3.580979630351066589e-02
9.661449491977691650e-02
1.318099051713943481e-01
9.258108586072921753e-02
1.685877591371536255e-01
4.541735351085662842e-02
5.040882527828216553e-02
1.975198239088058472e-01
1.777045875787734985e-01
-4.384670779109001160e-02
2.411338239908218384e-01
5.006525292992591858e-02
1.363292988389730453e-02
1.607667058706283569e-01
-1.223475411534309387e-01
1.252794116735458374e-01
1.451977193355560303e-01
-7.326056063175201416e-02
1.564361713826656342e-02
-9.191127866506576538e-02
2.248293161392211914e-02
-5.375289544463157654e-02
-4.970232769846916199e-02
-7.708797696977853775e-03
5.685949325561523438e-02
7.280369102954864502e-02
4.506449401378631592e-02
4.211445525288581848e-02
-1.059971004724502563e-01
-8.857709914445877075e-02
7.527811080217361450e-02
1.543051004409790039e-01
3.445227444171905518e-02
-9.150424040853977203e-03
-1.042390689253807068e-01
-8.027472347021102905e-02
-8.534797281026840210e-02
1.209987625479698181e-01
-4.013771563768386841e-02
-9.548249840736389160e-02
9.661799995228648186e-04
-5.350482091307640076e-02
1.390509493649005890e-02
5.063007771968841553e-02
1.450926065444946289e-01
-9.253098070621490479e-02
-1.326739490032196045e-01
-5.509507283568382263e-02
-1.609752923250198364e-01
-1.165586337447166443e-01
8.770326524972915649e-02
-4.639845341444015503e-02
-6.917797774076461792e-02
1.324827130883932114e-02
-1.250675767660140991e-01
5.985662341117858887e-02
-3.282014280557632446e-02
-6.335861980915069580e-02
-8.367585390806198120e-02
6.752139329910278320e-02
-7.007812708616256714e-02
4.044561088085174561e-02
5.254953168332576752e-03
-2.384010329842567444e-02
4.205495491623878479e-02
4.525905847549438477e-02
-9.703176468610763550e-02
2.200960181653499603e-02
-3.229835629463195801e-02
-3.709632903337478638e-02
1.632902920246124268e-01
2.729916945099830627e-02
2.032590359449386597e-01
1.344415545463562012e-02
-3.192348778247833252e-02
-7.768569048494100571e-03
1.410096287727355957e-01
-7.690974324941635132e-02
4.866034537553787231e-02
9.502050280570983887e-02
9.967150539159774780e-02
6.624215096235275269e-02
-3.830807283520698547e-02
1.075943261384963989e-01
-1.564719080924987793e-01
-5.352989584207534790e-02
9.724815189838409424e-02
7.985791563987731934e-02
-3.550679981708526611e-02
-5.008201673626899719e-02
-1.521581113338470459e-01
1.034225746989250183e-01
1.312495954334735870e-02
3.082826361060142517e-02
-1.574823865666985512e-03
1.425886154174804688e-01
-6.933340430259704590e-02
-4.342101886868476868e-02
1.293223500251770020e-01
9.580311179161071777e-02
-5.035441368818283081e-02
-9.342582523822784424e-02
1.071889549493789673e-01
2.177363820374011993e-02
-1.078915898688137531e-03
2.418975345790386200e-02
-1.552960276603698730e-01
1.040152087807655334e-01
-1.268853843212127686e-01
1.124230995774269104e-01
1.432127952575683594e-01
5.305035412311553955e-02
1.611457467079162598e-01
-1.387791037559509277e-01
-1.711736768484115601e-01
-2.038620859384536743e-01
4.852620884776115417e-02
4.900456219911575317e-02
-1.215813308954238892e-01
5.451865959912538528e-03
9.931799024343490601e-02
-2.435919195413589478e-01
1.091949790716171265e-01
2.798294881358742714e-03
3.734057769179344177e-02
1.920731216669082642e-01
1.551080495119094849e-01
1.026075780391693115e-01
2.248131334781646729e-01
9.630122035741806030e-02
1.718215346336364746e-01
-2.457380592823028564e-01
-2.671468816697597504e-02
-1.482047587633132935e-01
5.060905963182449341e-02
6.498917192220687866e-02
-1.503077298402786255e-01
-1.854682862758636475e-01
-1.595126241445541382e-01
1.528196632862091064e-01
5.094621330499649048e-02
3.240636736154556274e-02
-9.367616474628448486e-02
-8.503795415163040161e-02
-1.320223603397607803e-02
1.453232765197753906e-01
-1.967391073703765869e-01
2.198392339050769806e-02
9.623137116432189941e-02
-1.023417189717292786e-01
-2.262722328305244446e-02
-2.959631755948066711e-02
-8.672352880239486694e-02
9.104464948177337646e-02
-1.501036528497934341e-02
1.962976604700088501e-01
-1.111772134900093079e-01
1.043865904211997986e-01
-1.105125993490219116e-01
-9.877356141805648804e-02
5.501199048012495041e-03
1.585540771484375000e-01
1.241936758160591125e-01
-1.602153331041336060e-01
2.576294168829917908e-02
-8.653880655765533447e-02
2.790625952184200287e-02
-1.398441195487976074e-01
-3.772260248661041260e-02
1.378158628940582275e-01
-1.465489715337753296e-01
-1.655953228473663330e-01
1.851519197225570679e-02
-4.498940706253051758e-02
3.555712848901748657e-02
1.579381674528121948e-01
-1.119189634919166565e-01
-1.049663275480270386e-01
-1.296630650758743286e-01
-1.822951063513755798e-02
-5.330845713615417480e-02
1.317267715930938721e-01
3.528157994151115417e-02
6.686630845069885254e-02
-1.380437761545181274e-01
2.045194059610366821e-01
1.114256959408521652e-02
-2.116592377424240112e-01
-9.677512943744659424e-02
-6.461311131715774536e-02
1.323186010122299194e-01
-1.385189145803451538e-01
-7.624126225709915161e-02
1.903074830770492554e-01
-1.913160830736160278e-01
1.319634467363357544e-01
-1.369686573743820190e-01
1.416288167238235474e-01
-1.545406728982925415e-01
1.116398870944976807e-01
7.846739888191223145e-02
1.576798781752586365e-02
1.476216018199920654e-01
-1.941369324922561646e-01
-1.183385476469993591e-01
2.224022448062896729e-01
-1.598676145076751709e-01
-2.805591821670532227e-01
-5.980956554412841797e-02
3.507040208205580711e-03
-5.481225997209548950e-02
-1.230551898479461670e-01
6.589499115943908691e-02
-1.502657979726791382e-01
1.198883168399333954e-02
1.275353282690048218e-01
-1.379534509032964706e-02
3.865884989500045776e-02
3.011095151305198669e-02
-4.605845361948013306e-02
1.497564371675252914e-03
-1.179496869444847107e-01
-1.417190581560134888e-01
-1.264114230871200562e-01
1.683352589607238770e-01
4.696462303400039673e-02
6.480140239000320435e-02
1.477478742599487305e-01
-5.946194287389516830e-03
-9.056998044252395630e-02
-1.217361986637115479e-01
-1.827921271324157715e-01
1.297301650047302246e-01
-1.033131107687950134e-01
1.281378604471683502e-02
6.252118945121765137e-02
1.725447624921798706e-01
6.173635274171829224e-02
5.388123914599418640e-03
1.600131541490554810e-01
9.832068532705307007e-02
7.245519012212753296e-02
-1.292124092578887939e-01
-1.958277970552444458e-01
-8.807093650102615356e-02
-7.455413788557052612e-02
5.068424716591835022e-02
2.260238863527774811e-03
1.538415700197219849e-01
1.859760284423828125e-01
-1.377817094326019287e-01
-2.667250931262969971e-01
-2.904583513736724854e-01
-2.607702910900115967e-01
5.566468462347984314e-02
-1.969624012708663940e-01
1.640453189611434937e-02
-6.217512115836143494e-02
-2.230908870697021484e-01
9.368876367807388306e-02
-1.383693665266036987e-01
-4.754554852843284607e-02
-1.589622050523757935e-01
-9.414489567279815674e-02
5.230162665247917175e-02
-2.497873604297637939e-01
-1.002213060855865479e-01
7.656688988208770752e-02
-4.812363535165786743e-02
-1.852555125951766968e-01
-2.425815165042877197e-01
-4.924590885639190674e-02
-2.731563746929168701e-01
2.619536519050598145e-01
-1.744789332151412964e-01
-1.720822900533676147e-01
3.050855100154876709e-01
4.832914471626281738e-02
-5.695354193449020386e-02
1.235779374837875366e-01
-3.131889402866363525e-01
1.103180348873138428e-01
1.644075810909271240e-01
-2.483049929141998291e-01
-6.965165585279464722e-02
1.594321280717849731e-01
1.166320443153381348e-01
9.255853295326232910e-02
1.349498480558395386e-01
-1.938625276088714600e-01
-1.548942923545837402e-01
1.015885174274444580e-02
-2.136333584785461426e-01
-1.142398044466972351e-01
-1.986797153949737549e-01
1.378091275691986084e-01
2.215863019227981567e-01
9.720179252326488495e-03
-1.686073094606399536e-01
-2.648788094520568848e-01
-6.946770846843719482e-02
-7.347296923398971558e-02
1.202973052859306335e-01
2.214614450931549072e-01
1.711962074041366577e-01
1.323882937431335449e-01
-1.194155439734458923e-01
5.004837736487388611e-02
2.919632196426391602e-01
1.741627156734466553e-01
-2.251936197280883789e-01
-1.015884205698966980e-01
3.644507750868797302e-02
1.040907576680183411e-01
1.109850257635116577e-01
-2.400738745927810669e-01
-2.016941457986831665e-01
7.733631879091262817e-03
-9.044626727700233459e-03
6.473986804485321045e-02
-2.015904784202575684e-01
2.984178066253662109e-01
3.263712674379348755e-02
1.920458525419235229e-01
-2.662695944309234619e-01
8.478011190891265869e-02
9.983219206333160400e-02
-1.396328061819076538e-01
1.000352054834365845e-01
-3.646578490734100342e-01
2.176093906164169312e-01
2.186923846602439880e-02
2.116291522979736328e-01
4.302989691495895386e-02
3.595585003495216370e-02
1.830122172832489014e-01
2.105085551738739014e-01
-1.776716858148574829e-01
2.266430705785751343e-01
-1.047889739274978638e-01
-7.724248617887496948e-02
-7.063724845647811890e-02
1.062255054712295532e-01
-9.127277880907058716e-02
-1.383644789457321167e-01
3.038291633129119873e-01
-1.336295157670974731e-01
5.633235722780227661e-02
-2.226909846067428589e-01
1.498679220676422119e-01
2.830666005611419678e-01
-1.620877087116241455e-01
-1.626267880201339722e-01
1.119782850146293640e-01
-7.342271506786346436e-02
-5.539561435580253601e-02
-3.512305319309234619e-01
1.416186392307281494e-01
-7.101694494485855103e-02
-1.058879941701889038e-01
-4.493854474276304245e-03
2.905204519629478455e-02
1.220136508345603943e-01
-8.393988944590091705e-03
2.103820741176605225e-01
-7.717606425285339355e-02
-5.608525499701499939e-02
2.612353563308715820e-01
-8.703655749559402466e-02
3.113808482885360718e-02
1.260115504264831543e-01
2.552246451377868652e-01
9.031875431537628174e-02
1.988328546285629272e-01
1.422948837280273438e-01
8.832477033138275146e-02
9.313379228115081787e-02
1.208624765276908875e-01
4.179533198475837708e-02
2.054614275693893433e-01
2.749539315700531006e-01
-4.495944082736968994e-02
-5.629951134324073792e-03
3.283393681049346924e-01
-1.463614851236343384e-01
3.040351867675781250e-01
1.915913075208663940e-01
2.482854276895523071e-01
-3.974117338657379150e-02
-2.740160524845123291e-01
2.212336808443069458e-01
-1.098971590399742126e-01
9.293719381093978882e-02
1.978847235441207886e-01
-2.829265594482421875e-01
7.952078431844711304e-02
-4.550817236304283142e-02
2.199012786149978638e-01
-2.908785343170166016e-01
7.119135558605194092e-02
1.725163310766220093e-01
1.023411974310874939e-01
1.439993828535079956e-01
1.765844970941543579e-02
-1.563031673431396484e-01
1.116886734962463379e-01
2.695537917315959930e-02
-1.297530904412269592e-02
-1.534854918718338013e-01
-5.709251388907432556e-02
-8.750171959400177002e-02
1.500760167837142944e-01
1.175839453935623169e-01
1.092901006340980530e-01
1.060158759355545044e-01
-1.053392887115478516e-01
-6.066214665770530701e-02
-7.181482762098312378e-02
-5.809317156672477722e-02
7.814817875623703003e-02
3.181496402248740196e-03
1.201620846986770630e-01
3.615904971957206726e-02
-4.842040687799453735e-02
-5.445930734276771545e-02
1.041239798069000244e-01
9.198295325040817261e-02
4.668380692601203918e-02
-4.920562356710433960e-02
-1.476585417985916138e-01
-7.166764885187149048e-02
8.109027147293090820e-02
-6.207720935344696045e-02
6.895200908184051514e-02
3.818513825535774231e-02
-7.078795880079269409e-02
1.411267668008804321e-01
5.389239639043807983e-03
5.521420016884803772e-02
-5.296191200613975525e-02
-1.307532638311386108e-01
-2.512727864086627960e-02
9.517126716673374176e-03
-1.274090707302093506e-01
3.469603881239891052e-02
-1.580557972192764282e-01
-1.649057716131210327e-01
-7.813745737075805664e-02
-6.897933036088943481e-02
-6.148169562220573425e-02
-6.211463361978530884e-02
2.488472685217857361e-02
-2.152115851640701294e-01
-5.445080623030662537e-02
-1.687354892492294312e-01
-5.685202404856681824e-02
1.665286421775817871e-01
1.035918891429901123e-01
-9.300537407398223877e-02
-1.704615950584411621e-01
-3.323610126972198486e-02
-6.056647747755050659e-02
3.426453471183776855e-02
1.608705893158912659e-02
1.628881245851516724e-01
8.815188705921173096e-02
-2.739705145359039307e-02
3.694636002182960510e-02
7.235568016767501831e-03
-2.368157170712947845e-02
8.906030654907226562e-02
-6.676871329545974731e-02
1.211861893534660339e-01
-8.115083724260330200e-02
-1.347692906856536865e-01
-5.657204240560531616e-02
1.425634026527404785e-01
1.461852341890335083e-01
7.155171036720275879e-02
6.722654681652784348e-03
-2.483443170785903931e-02
-3.212438523769378662e-02
1.587094506248831749e-03
-1.280390657484531403e-02
1.244621425867080688e-01
4.556040465831756592e-02
-7.591073215007781982e-02
2.018912695348262787e-02
-6.210917979478836060e-02
-3.029941767454147339e-02
-1.538678258657455444e-01
1.173960231244564056e-02
-1.138152182102203369e-01
2.005506008863449097e-01
1.776060611009597778e-01
-1.502051204442977905e-01
-1.263559311628341675e-01
-4.882691428065299988e-02
-6.941065192222595215e-02
8.682521060109138489e-03
-1.818005889654159546e-01
7.223554700613021851e-02
-1.141481250524520874e-01
-9.797303378582000732e-02
-8.156491816043853760e-02
-4.592055454850196838e-02
-6.675279233604669571e-03
-1.800582855939865112e-01
-7.443417608737945557e-02
-1.701217889785766602e-01
-2.080052793025970459e-01
4.663245379924774170e-02
6.325329840183258057e-02
-1.397816836833953857e-02
-7.660212367773056030e-02
2.578552579507231712e-03
-5.873860418796539307e-02
-4.883114993572235107e-02
-3.295084834098815918e-02
2.074643410742282867e-02
-5.318333581089973450e-02
1.267904043197631836e-01
-1.306504011154174805e-02
-5.545093864202499390e-02
-1.424372494220733643e-01
1.070669889450073242e-01
1.987015008926391602e-01
1.631708437344059348e-04
2.455087937414646149e-02
8.380417525768280029e-02
-2.409592829644680023e-02
8.908653259277343750e-02
-1.635255813598632812e-01
-1.466550230979919434e-01
-7.780754566192626953e-02
1.659820787608623505e-02
-1.061631888151168823e-01
-1.715171337127685547e-01
-4.761807247996330261e-02
-1.395707428455352783e-01
-3.425043076276779175e-02
-1.830604486167430878e-02
-1.112336665391921997e-01
1.107973828911781311e-01
3.617490176111459732e-03
-4.492217674851417542e-02
1.486200541257858276e-01
1.005463525652885437e-01
-2.846200019121170044e-02
-1.307806819677352905e-01
-1.290565431118011475e-01
-2.512027975171804428e-03
4.348983615636825562e-02
2.625797875225543976e-02
-1.106794178485870361e-01
-1.543939858675003052e-01
-9.121038764715194702e-02
-2.590316534042358398e-02
1.214708294719457626e-02
-8.706908673048019409e-02
-1.863173246383666992e-01
6.226940825581550598e-02
-2.031355500221252441e-01
-2.397581040859222412e-01
-2.907970249652862549e-01
-1.134456098079681396e-01
3.552295267581939697e-01
1.269511878490447998e-01
-1.127896010875701904e-01
3.380478918552398682e-02
1.336364299058914185e-01
2.328882366418838501e-02
-2.012968510389328003e-01
-2.190772891044616699e-01
-1.484773755073547363e-01
-3.253419697284698486e-02
-3.446373641490936279e-01
-4.487914964556694031e-02
-1.636341065168380737e-01
4.095354080200195312e-01
4.949223101139068604e-01
3.098818659782409668e-01
6.907811015844345093e-02
-4.768553003668785095e-02
1.255201399326324463e-01
2.060556970536708832e-02
-9.796822071075439453e-02
1.364203169941902161e-02
-8.889222890138626099e-02
-2.998340725898742676e-01
1.216608434915542603e-01
3.477763235569000244e-01
-1.876529008150100708e-01
5.813412368297576904e-02
-3.158967196941375732e-02
-3.090353310108184814e-02
-9.784803539514541626e-02
2.917398512363433838e-01
-4.364030808210372925e-02
-3.138274848461151123e-01
-3.863706290721893311e-01
3.289986774325370789e-02
8.521262556314468384e-02
7.109794765710830688e-03
-3.451533848419785500e-03
-1.389755904674530029e-01
-2.094818502664566040e-01
-1.140315383672714233e-01
4.387057200074195862e-02
1.630776375532150269e-01
6.136857271194458008e-01
-2.174085080623626709e-01
-4.989709705114364624e-02
2.654576599597930908e-01
1.903472691774368286e-01
2.099938690662384033e-01
2.943430282175540924e-02
8.186848461627960205e-02
-3.210267126560211182e-01
-7.318133488297462463e-03
-1.128498464822769165e-01
2.459634989500045776e-01
2.369060814380645752e-01
7.004291564226150513e-02
2.517494857311248779e-01
-2.660702466964721680e-01
1.287160962820053101e-01
2.973755598068237305e-01
-5.778373684734106064e-03
-2.477802634239196777e-01
-2.394121885299682617e-02
-1.010738164186477661e-01
-1.277569495141506195e-02
-3.573744297027587891e-01
8.113335818052291870e-02
-1.236742362380027771e-01
-9.259481728076934814e-02
-1.853164136409759521e-01
-7.192476093769073486e-02
-3.306789994239807129e-01
-2.616731226444244385e-01
3.362560644745826721e-02
1.806982457637786865e-01
2.702813446521759033e-01
-2.315368354320526123e-01
2.193853855133056641e-01
-2.154088765382766724e-01
-3.122054040431976318e-01
-3.593420982360839844e-02
-1.428533792495727539e-01
-1.629662364721298218e-01
-3.702913224697113037e-01
-2.322825193405151367e-01
2.486532181501388550e-01
1.447928398847579956e-01
-1.578005105257034302e-01
-1.839782446622848511e-01
-2.998896539211273193e-01
-1.707340180873870850e-01
-1.127516552805900574e-01
2.574753463268280029e-01
1.059836242347955704e-02
-2.275654375553131104e-01
7.614848017692565918e-02
-3.593258932232856750e-02
-1.103960722684860229e-01
1.251224335283041000e-02
-1.894772648811340332e-01
2.752741873264312744e-01
3.578617572784423828e-01
-2.215552702546119690e-02
-1.658119708299636841e-01
1.753950119018554688e-01
-3.308547437191009521e-01
3.365278244018554688e-01
-3.498086333274841309e-02
9.372670203447341919e-02
-3.537741899490356445e-01
-2.468730509281158447e-01
-1.395740956068038940e-01
-2.611920237541198730e-02
3.193291723728179932e-01
2.639105319976806641e-01
-5.717690289020538330e-02
3.117529116570949554e-02
1.346857249736785889e-01
-2.509181201457977295e-01
1.670691221952438354e-01
-1.444175392389297485e-01
-4.169236421585083008e-01
2.989705279469490051e-02
-5.389359965920448303e-02
2.833263278007507324e-01
1.076381579041481018e-01
9.312006086111068726e-02
3.492492735385894775e-01
-1.303396522998809814e-01
-4.186029359698295593e-02
8.066119253635406494e-02
9.553364664316177368e-02
-2.907329797744750977e-01
2.141653001308441162e-02
-5.557106062769889832e-02
5.872436612844467163e-02
7.373575866222381592e-02
-1.007979735732078552e-01
-9.018425829708576202e-03
-9.047798067331314087e-02
3.087709248065948486e-01
2.127987742424011230e-01
1.158943921327590942e-01
-1.174987107515335083e-01
-2.249332517385482788e-01
3.045237064361572266e-01
3.063976764678955078e-01
1.515418738126754761e-01
-2.886662483215332031e-01
1.911004483699798584e-01
-2.300810068845748901e-03
2.884382605552673340e-01
4.576095044612884521e-01
2.985261380672454834e-02
-5.415074527263641357e-02
1.429921984672546387e-01
-9.627294540405273438e-02
8.226711302995681763e-02
-1.586891561746597290e-01
-4.258075729012489319e-02
-1.679380089044570923e-01
-7.405837625265121460e-02
6.855712085962295532e-02
-7.465149462223052979e-02
-1.654559820890426636e-01
1.058982983231544495e-01
5.785385146737098694e-02
7.362005271716043353e-05
-1.361201852560043335e-01
-9.206433594226837158e-02
-9.956219047307968140e-02
5.782325565814971924e-02
-9.142284095287322998e-02
-8.716218918561935425e-02
-1.065848842263221741e-01
-6.024189665913581848e-02
1.134999245405197144e-01
6.247967854142189026e-02
3.515122458338737488e-02
-5.393307283520698547e-02
1.610614508390426636e-01
3.321263939142227173e-02
-5.471020191907882690e-02
-6.379143893718719482e-02
-1.050207298249006271e-02
7.198730856180191040e-02
7.119856774806976318e-02
1.339200139045715332e-01
2.192628942430019379e-02
1.029895320534706116e-01
-9.786342829465866089e-02
-7.724313437938690186e-02
1.113395951688289642e-02
-1.322247684001922607e-01
-1.355450153350830078e-01
-1.957014799118041992e-01
1.521605346351861954e-02
-2.508957870304584503e-02
-2.974447421729564667e-02
-9.893180429935455322e-02
1.287516653537750244e-01
-5.020222067832946777e-02
6.302809715270996094e-02
9.581734240055084229e-02
-8.975920826196670532e-02
-4.232846572995185852e-02
1.141944006085395813e-01
1.325439363718032837e-01
2.308463864028453827e-02
1.068705394864082336e-01
-1.329757273197174072e-01
-9.503131359815597534e-02
1.126642450690269470e-01
-8.257877826690673828e-02
1.536695361137390137e-01
-5.645801126956939697e-02
-2.779653295874595642e-02
1.598252058029174805e-01
4.808847233653068542e-02
1.100452523678541183e-02
-1.561597734689712524e-01
-2.915501035749912262e-02
-1.250911056995391846e-01
4.396641626954078674e-02
-4.731971025466918945e-02
6.530223414301872253e-03
6.656932830810546875e-02
-5.477624479681253433e-03
-1.339440494775772095e-01
9.134631603956222534e-02
6.457612663507461548e-02
-1.321181505918502808e-01
1.434622257947921753e-01
-1.717210374772548676e-02
-8.458868414163589478e-02
-1.251378506422042847e-01
-4.373700544238090515e-02
-2.101447731256484985e-01
2.908509038388729095e-02
4.152146726846694946e-02
-9.146019816398620605e-02
1.183008477091789246e-01
-1.307251304388046265e-01
-1.976312883198261261e-02
-1.117032915353775024e-01
-1.179004367440938950e-02
7.939807325601577759e-02
3.676164150238037109e-02
-8.082775026559829712e-02
-7.417344301939010620e-02
1.063339859247207642e-01
5.458028987050056458e-02
1.013359520584344864e-02
-5.931911990046501160e-02
1.968148723244667053e-02
-1.421775761991739273e-02
1.349239498376846313e-01
1.140667200088500977e-01
-6.221149116754531860e-02
3.030031919479370117e-02
3.720604628324508667e-02
2.041077613830566406e-02
8.434833586215972900e-02
1.050463244318962097e-01
-1.162014827132225037e-01
1.417071372270584106e-02
-1.032291129231452942e-01
-1.022690683603286743e-01
-3.326343744993209839e-02
-1.132667437195777893e-02
-4.833527375012636185e-03
1.873011589050292969e-01
1.075536571443080902e-02
-1.264281272888183594e-01
-8.121050894260406494e-02
-1.136473100632429123e-02
-2.541952207684516907e-02
7.096895575523376465e-02
-3.560384362936019897e-02
-1.791701316833496094e-01
7.504511158913373947e-03
8.376235514879226685e-02
9.806455671787261963e-02
1.108206659555435181e-01
3.808258473873138428e-02
1.433777064085006714e-01
7.767461985349655151e-02
1.115487590432167053e-01
-1.089427433907985687e-02
-1.117216348648071289e-01
-7.517603039741516113e-02
5.790640041232109070e-02
1.414300203323364258e-01
-4.214429482817649841e-02
1.193617060780525208e-01
1.558051072061061859e-02
-2.966774627566337585e-03
4.092244058847427368e-02
-6.888230144977569580e-02
1.278632134199142456e-01
-1.055202633142471313e-02
5.117516219615936279e-02
-1.578514724969863892e-01
-8.739470690488815308e-02
8.082894235849380493e-02
1.000972986221313477e-01
8.204268664121627808e-02
1.105421930551528931e-01
-1.880422979593276978e-01
-2.533852308988571167e-02
-8.514823019504547119e-02
-1.140235438942909241e-01
-5.059168115258216858e-02
-1.559278368949890137e-01
2.673351466655731201e-01
-8.024196326732635498e-02
4.551888257265090942e-02
9.637004882097244263e-02
-1.288753151893615723e-01
1.394342035055160522e-01
-3.534135175868868828e-03
9.315454214811325073e-02
2.143230885267257690e-01
-1.198142394423484802e-01
-6.434153765439987183e-02
2.038390040397644043e-01
-3.483589505776762962e-03
-4.935440048575401306e-02
2.335453182458877563e-01
-8.028539270162582397e-02
2.063865587115287781e-02
1.364152133464813232e-01
7.700773328542709351e-02
-1.892420649528503418e-01
4.723238945007324219e-02
8.173635229468345642e-03
6.673537194728851318e-02
9.700154513120651245e-02
-3.602571412920951843e-02
-7.156512886285781860e-02
6.552843004465103149e-02
4.027297720313072205e-02
-1.699157655239105225e-01
-1.254761368036270142e-01
-2.202291190624237061e-01
9.783913195133209229e-02
-1.602083146572113037e-01
-4.857967607676982880e-03
3.175156936049461365e-02
-1.595805734395980835e-01
-1.315573696047067642e-02
-1.602716445922851562e-01
-8.667434006929397583e-02
4.482989013195037842e-02
-2.044846266508102417e-01
-1.326114684343338013e-01
1.573167145252227783e-01
1.278844475746154785e-02
-1.160407587885856628e-01
-4.037926718592643738e-02
1.216572895646095276e-01
-1.756798774003982544e-01
-1.583066433668136597e-01
-1.568044871091842651e-01
-8.603309094905853271e-02
-2.947730757296085358e-02
-2.182135879993438721e-01
1.972610503435134888e-01
-7.921203225851058960e-02
2.158724218606948853e-01
-8.579795807600021362e-02
-6.321859359741210938e-02
5.828867852687835693e-02
-1.128221899271011353e-01
1.201623827219009399e-01
-1.733485162258148193e-01
-2.567963488399982452e-02
-1.689790338277816772e-01
2.446019351482391357e-01
2.658766508102416992e-01
1.946572810411453247e-01
-3.727924451231956482e-02
-1.507822424173355103e-01
3.191695809364318848e-01
4.820557683706283569e-02
1.865009963512420654e-01
-7.600210607051849365e-02
-9.349047392606735229e-02
-1.613385975360870361e-01
2.621923089027404785e-01
8.948945254087448120e-02
-1.330578029155731201e-01
-1.416121795773506165e-02
-1.219559833407402039e-02
5.334588140249252319e-02
1.405106633901596069e-01
-8.841457962989807129e-02
4.851929843425750732e-02
-7.580880075693130493e-02
9.903416782617568970e-02
-2.074690014123916626e-01
-5.423206370323896408e-03
1.928230524063110352e-01
2.702057659626007080e-01
1.074514240026473999e-01
1.895177364349365234e-01
2.492193579673767090e-01
7.993771880865097046e-02
1.156150400638580322e-01
5.156671255826950073e-02
2.016898989677429199e-01
1.948093771934509277e-01
-9.857368469238281250e-02
-6.702544540166854858e-02
-1.086888089776039124e-01
6.667724996805191040e-02
-8.800683170557022095e-02
1.652803570032119751e-01
-1.537301987409591675e-01
2.354530245065689087e-02
4.609310254454612732e-02
-1.328679174184799194e-01
1.424813568592071533e-01
1.053671315312385559e-01
-1.893397718667984009e-01
2.192096114158630371e-01
1.932069659233093262e-01
1.271711438894271851e-01
-1.310378033667802811e-02
8.430590480566024780e-02
-1.803172826766967773e-01
8.972375653684139252e-03
1.635151803493499756e-01
2.094168365001678467e-01
5.852718651294708252e-02
-1.882934570312500000e-01
1.950108259916305542e-01
-1.073205322027206421e-01
2.928167283535003662e-01
3.668397963047027588e-01
-3.010789677500724792e-02
3.577333688735961914e-01
2.301776707172393799e-01
1.559704244136810303e-01
-3.557667881250381470e-02
1.882394701242446899e-01
2.870425209403038025e-02
6.717932969331741333e-02
-2.789706224575638771e-03
1.933342665433883667e-01
1.671880483627319336e-01
-2.462965846061706543e-01
1.293039917945861816e-01
-1.124429479241371155e-01
-9.726277738809585571e-02
-1.934455484151840210e-01
3.134554252028465271e-02
-1.701213568449020386e-01
-4.467725008726119995e-02
-8.121295273303985596e-02
4.319892078638076782e-02
-2.476023882627487183e-01
-1.052833423018455505e-01
1.510954007244436070e-06
-4.829789698123931885e-02
-1.131702885031700134e-01
5.601868778467178345e-02
-2.347611039876937866e-01
-1.356404125690460205e-01
9.142327122390270233e-03
-6.546674668788909912e-02
1.526688486337661743e-01
-1.638428121805191040e-01
2.029825188219547272e-02
6.544243544340133667e-02
-1.422941535711288452e-01
1.009083092212677002e-01
-5.683425068855285645e-02
-1.655676215887069702e-02
-9.274296462535858154e-02
-4.426058754324913025e-02
-8.242800086736679077e-02
-1.184927001595497131e-01
1.272317320108413696e-01
7.060661166906356812e-02
1.711658537387847900e-01
1.377273947000503540e-01
1.499763280153274536e-01
6.832109391689300537e-02
1.036895737051963806e-01
1.371316462755203247e-01
5.967852845788002014e-02
-1.626615226268768311e-01
-8.457315713167190552e-02
-2.080286890268325806e-01
5.880953744053840637e-02
-6.580771505832672119e-02
1.091585233807563782e-01
5.393684282898902893e-02
2.650434523820877075e-02
-1.092895716428756714e-01
-1.377464830875396729e-01
3.484855964779853821e-02
-5.485906451940536499e-02
-5.163654685020446777e-02
1.257127374410629272e-01
-1.015852987766265869e-01
-4.924261942505836487e-02
1.542929708957672119e-01
3.771731257438659668e-02
-1.293384190648794174e-02
8.141954243183135986e-02
1.106901690363883972e-01
-9.249489754438400269e-02
5.508071184158325195e-02
6.360356509685516357e-02
1.139052119106054306e-02
1.344890892505645752e-01
-2.089768648147583008e-02
2.685366943478584290e-02
-9.937464445829391479e-02
-2.243158221244812012e-01
3.038880228996276855e-02
-4.360144957900047302e-02
5.624344944953918457e-02
1.317155510187149048e-01
-1.343334168195724487e-01
-2.039927244186401367e-01
1.292336732149124146e-01
2.103738039731979370e-01
-5.355535540729761124e-03
1.332650333642959595e-01
9.664589911699295044e-02
9.749171137809753418e-02
-7.258145511150360107e-02
1.125779300928115845e-01
9.155828505754470825e-02
5.270374193787574768e-02
1.647555381059646606e-01
-6.875990331172943115e-02
-4.072081670165061951e-02
-4.615926742553710938e-02
2.419360354542732239e-02
3.157008066773414612e-02
2.973997220396995544e-02
5.140642821788787842e-02
-1.598172485828399658e-01
-6.180129200220108032e-02
-4.420790076255798340e-02
-1.216163039207458496e-01
-1.236765235662460327e-01
1.423010528087615967e-01
-3.044970508199185133e-04
-1.423226743936538696e-01
7.660832256078720093e-02
6.959298253059387207e-02
-1.014104634523391724e-01
7.377445697784423828e-02
-1.042677760124206543e-01
7.458130270242691040e-02
1.316619813442230225e-01
6.658384203910827637e-02
3.075734339654445648e-02
5.786301102489233017e-03
-3.906229976564645767e-03
5.204750224947929382e-02
4.829692095518112183e-02
-5.169954150915145874e-03
-5.675161629915237427e-02
-2.650882303714752197e-02
-1.139956936240196228e-01
-1.383679956197738647e-01
-2.144768536090850830e-01
-1.742276549339294434e-01
1.479008346796035767e-01
6.926660239696502686e-02
-1.056619733572006226e-01
-6.409236043691635132e-02
8.055528253316879272e-02
4.532441124320030212e-02
6.437201052904129028e-03
-3.157057613134384155e-02
-3.202703595161437988e-02
6.141825765371322632e-02
2.364458516240119934e-02
8.652519434690475464e-02
1.127478107810020447e-01
1.229008063673973083e-01
-3.122117929160594940e-02
3.012248128652572632e-02
2.569618634879589081e-02
-9.441118687391281128e-02
1.037635877728462219e-01
-4.295286536216735840e-02
-6.830716878175735474e-02
-1.828449070453643799e-01
3.996967151761054993e-02
9.976012259721755981e-02
2.228413969278335571e-01
2.594996802508831024e-02
9.106744825839996338e-02
6.416789442300796509e-02
1.521515753120183945e-02
-7.280600070953369141e-02
7.496686279773712158e-02
-1.254706233739852905e-01
1.167226806282997131e-01
2.548621036112308502e-02
9.377791732549667358e-02
8.861948549747467041e-02
6.110563129186630249e-02
4.064868390560150146e-02
8.401816338300704956e-02
-4.690436646342277527e-02
-1.236196011304855347e-01
1.762514561414718628e-02
9.080361574888229370e-02
1.904807686805725098e-01
3.811579570174217224e-02
-9.430182166397571564e-03
-4.476862773299217224e-02
-1.119466051459312439e-01
2.723112329840660095e-02
-9.382618591189384460e-03
-4.946226254105567932e-02
8.672274649143218994e-02
4.449131432920694351e-03
-4.303776845335960388e-02
-1.242082491517066956e-01
-1.867339387536048889e-02
4.846346378326416016e-02
-9.915376454591751099e-02
1.006844192743301392e-01
2.904288172721862793e-01
3.222616761922836304e-02
-4.335792735219001770e-02
1.753043979406356812e-01
1.834315806627273560e-01
2.625772356986999512e-01
1.940620243549346924e-01
-1.468233317136764526e-01
1.414659321308135986e-01
1.325792223215103149e-01
-9.243254363536834717e-02
1.131025478243827820e-01
-1.727539300918579102e-01
-1.513204574584960938e-01
-1.761280745267868042e-02
-9.831520915031433105e-02
-9.359773993492126465e-02
-7.541983574628829956e-02
1.432334929704666138e-01
2.646726667881011963e-01
-1.325026750564575195e-01
-2.155371606349945068e-01
5.858230870217084885e-03
-2.218427956104278564e-01
-1.616515815258026123e-01
-2.493050508201122284e-02
1.429968327283859253e-01
-1.962765008211135864e-01
-5.194730311632156372e-02
-7.817953079938888550e-02
-2.022069692611694336e-01
-3.593918681144714355e-02
-3.065386088564991951e-03
-5.819241702556610107e-02
1.883946210145950317e-01
9.412567317485809326e-02
1.093608289957046509e-01
9.039116650819778442e-02
1.040141005069017410e-02
2.025360912084579468e-01
-1.161814257502555847e-01
1.884732097387313843e-01
1.710544228553771973e-01
-1.325298752635717392e-02
4.296114295721054077e-02
-2.179748713970184326e-01
-2.306275218725204468e-01
1.932152546942234039e-02
5.132577382028102875e-03
-6.697399914264678955e-02
1.175913289189338684e-01
-1.469013988971710205e-01
-5.301230400800704956e-02
2.104032784700393677e-01
-1.604160815477371216e-01
1.286185681819915771e-01
2.634555399417877197e-01
1.242372021079063416e-01
6.012438237667083740e-02
-1.906989812850952148e-01
8.535491675138473511e-02
-4.826558381319046021e-02
1.699274778366088867e-02
1.947058290243148804e-01
2.147221937775611877e-03
-2.063260078430175781e-01
-1.819667071104049683e-01
1.628983579576015472e-02
4.314165096729993820e-03
2.281612753868103027e-01
9.027036838233470917e-03
-2.513730525970458984e-01
1.305740326642990112e-01
2.870901823043823242e-01
1.965632438659667969e-01
5.007653497159481049e-03
-2.948054969310760498e-01
-1.126510277390480042e-01
1.455346643924713135e-01
-5.693139508366584778e-02
6.900436431169509888e-02
-8.665246888995170593e-03
1.471736282110214233e-01
1.236775070428848267e-01
-1.558104455471038818e-01
-1.481268703937530518e-01
1.624307930469512939e-01
9.119334816932678223e-02
1.593121737241744995e-01
-1.023395210504531860e-01
1.541911512613296509e-01
-1.688065752387046814e-02
-8.239239454269409180e-02
1.081892624497413635e-01
-9.253943711519241333e-02
-2.353191077709197998e-01
-8.450519293546676636e-02
-3.241305530536919832e-04
-1.296346336603164673e-01
7.661430537700653076e-02
-2.198602408170700073e-01
1.239150241017341614e-01
1.914037913084030151e-01
2.088982425630092621e-02
-1.176737844944000244e-01
-1.057952642440795898e-01
2.189663797616958618e-01
2.414584904909133911e-01
2.689090967178344727e-01
1.452622860670089722e-01
1.513763219118118286e-01
2.552081048488616943e-01
6.274516135454177856e-02
-1.258936375379562378e-01
-2.046106755733489990e-01
7.915025204420089722e-02
1.746584922075271606e-01
3.043801784515380859e-01
-5.213211104273796082e-02
7.809275388717651367e-02
-9.159116446971893311e-02
-7.516834884881973267e-02
1.951015144586563110e-01
-1.126941516995429993e-01
2.038765549659729004e-01
1.211996749043464661e-01
-1.483630686998367310e-01
9.527385979890823364e-02
-6.072514131665229797e-02
7.661101222038269043e-02
-5.994429066777229309e-02
-2.800122201442718506e-01
-5.228137597441673279e-02
1.631917208433151245e-01
-1.906593888998031616e-02
-1.413573473691940308e-01
-6.120111048221588135e-02
4.217208176851272583e-02
-6.707302480936050415e-02
-2.078767865896224976e-01
-1.948804706335067749e-01
-8.750747889280319214e-02
7.515554875135421753e-02
1.602129191160202026e-01
-7.809945847839117050e-03
-5.293887108564376831e-02
1.066474616527557373e-01
-6.325403600931167603e-02
-2.508740872144699097e-03
1.614146679639816284e-01
1.640327274799346924e-01
7.274455577135086060e-02
-1.551183611154556274e-01
1.442879140377044678e-01
-1.513839513063430786e-01
5.762275308370590210e-02
4.426737874746322632e-02
1.396928280591964722e-01
-8.575217425823211670e-02
-3.153117001056671143e-02
9.492135792970657349e-02
1.278249770402908325e-01
-2.560761757194995880e-02
1.138461306691169739e-01
-5.943689495325088501e-02
-6.075398623943328857e-02
-4.796520993113517761e-02
8.715584874153137207e-03
-2.685942873358726501e-02
8.951594680547714233e-02
-3.816765546798706055e-02
-2.522970922291278839e-02
-1.301590949296951294e-01
9.197009354829788208e-02
-2.321843244135379791e-02
-1.025323420763015747e-01
-1.304382644593715668e-02
-1.101071853190660477e-02
7.474783062934875488e-02
1.009598001837730408e-01
8.938374370336532593e-02
1.130231190472841263e-03
-4.085981100797653198e-02
2.225883072242140770e-03
6.985652446746826172e-02
1.325327455997467041e-01
-2.900214458350092173e-04
1.140628308057785034e-01
9.293349832296371460e-02
-1.023376360535621643e-01
-9.646824561059474945e-03
-7.638029754161834717e-02
6.252279132604598999e-02
-5.502486974000930786e-02
4.088472202420234680e-02
2.123660035431385040e-02
-1.130973324179649353e-01
-8.100175857543945312e-02
-1.445449888706207275e-01
-7.927083410322666168e-03
7.577931135892868042e-02
-4.823585506528615952e-03
1.203495785593986511e-01
-1.222479268908500671e-01
1.670892164111137390e-02
-1.433770805597305298e-01
3.391503123566508293e-03
6.321214884519577026e-02
-9.215199947357177734e-02
1.985029876232147217e-01
2.944992156699299812e-03
1.325223594903945923e-01
-1.684394851326942444e-02
8.113900572061538696e-02
1.650376617908477783e-01
-3.320700197946280241e-04
-1.120772957801818848e-02
9.182924777269363403e-02
-1.325213313102722168e-01
6.113594025373458862e-02
3.418065980076789856e-02
7.530979812145233154e-02
-1.381453275680541992e-01
-3.135480731725692749e-02
7.610160112380981445e-02
-4.163250327110290527e-03
1.473433971405029297e-01
1.013971939682960510e-01
6.303299218416213989e-02
-1.461751163005828857e-01
-2.726050838828086853e-02
-3.110159561038017273e-02
2.768989652395248413e-02
-8.580543845891952515e-02
9.014701843261718750e-02
-7.033980917185544968e-03
-8.658605068922042847e-02
-9.583685547113418579e-02
6.783066689968109131e-02
-3.820049390196800232e-02
9.704144299030303955e-02
3.451994806528091431e-02
2.334974892437458038e-02
2.239088062196969986e-03
5.609767884016036987e-02
-6.272012740373611450e-02
-1.118136495351791382e-01
8.113320916891098022e-02
-5.322656780481338501e-02
1.576123982667922974e-01
-3.976853564381599426e-02
1.007873341441154480e-01
1.067186594009399414e-01
-2.545845508575439453e-02
1.593940854072570801e-01
6.223828345537185669e-02
-9.205668419599533081e-02
3.080777823925018311e-02
5.410254746675491333e-02
1.403162330389022827e-01
-9.134072810411453247e-02
9.560053795576095581e-02
1.333549320697784424e-01
1.877069771289825439e-01
1.265723407268524170e-01
2.584405802190303802e-02
1.504439562559127808e-01
1.768413782119750977e-01
-2.487324178218841553e-02
-1.985600404441356659e-02
1.143910288810729980e-01
1.023381799459457397e-01
7.266514003276824951e-02
1.025993898510932922e-01
-6.320642679929733276e-02
6.019615754485130310e-02
-2.799956500530242920e-02
1.156881377100944519e-01
1.019213199615478516e-01
-3.895976766943931580e-02
-1.204700954258441925e-02
-1.029789671301841736e-01
-1.525034904479980469e-01
1.452141553163528442e-01
-3.896321728825569153e-02
9.263036400079727173e-02
3.990273922681808472e-02
-3.171328455209732056e-02
2.221377193927764893e-02
1.563306301832199097e-01
-1.646935567259788513e-02
1.378070712089538574e-01
6.500859558582305908e-02
5.968554690480232239e-02
-1.451085507869720459e-01
-5.503901466727256775e-02
-1.047986894845962524e-01
-7.149485498666763306e-02
-5.241905897855758667e-02
4.279142618179321289e-02
1.116971597075462341e-01
5.866812914609909058e-02
-9.943843632936477661e-02
-4.794622212648391724e-02
1.259935498237609863e-01
2.484825439751148224e-02
5.386196821928024292e-02
-9.178515523672103882e-02
-3.541293740272521973e-02
6.846987456083297729e-02
-6.034590303897857666e-03
6.971969455480575562e-02
1.229597106575965881e-01
-3.676746040582656860e-02
-5.342458188533782959e-02
-4.624652490019798279e-02
5.430623888969421387e-02
-4.422379657626152039e-02
1.407050341367721558e-01
-5.955357477068901062e-02
-1.537261307239532471e-01
-1.810595691204071045e-01
8.559843152761459351e-02
3.733976930379867554e-02
-7.887428253889083862e-02
2.059166282415390015e-01
-2.007546573877334595e-01
8.920102566480636597e-02
-1.412342637777328491e-01
-3.880948573350906372e-02
-2.381443381309509277e-01
-2.349273711442947388e-01
-2.348524183034896851e-01
9.187884628772735596e-02
-1.062611937522888184e-01
1.127722412347793579e-01
-1.209040507674217224e-01
-4.907095432281494141e-02
1.577524282038211823e-02
2.320127487182617188e-01
-1.028307806700468063e-02
1.981919854879379272e-01
1.068904250860214233e-01
1.572561860084533691e-01
1.929170638322830200e-01
1.038002148270606995e-01
-1.043045073747634888e-01
-5.439235270023345947e-02
8.611919730901718140e-02
1.399352401494979858e-01
-1.619453169405460358e-02
1.187000498175621033e-01
-1.390171796083450317e-01
1.471643000841140747e-01
-2.348998002707958221e-02
-9.460501372814178467e-02
-1.637052148580551147e-01
-2.699272334575653076e-01
-1.021925173699855804e-02
-1.867484152317047119e-01
-6.397053599357604980e-02
-5.435030162334442139e-02
-2.097983509302139282e-01
-1.152833700180053711e-01
-6.130848452448844910e-02
5.802739411592483521e-02
1.719665229320526123e-01
-1.235839203000068665e-01
9.876303374767303467e-02
-2.419648319482803345e-02
-1.513435840606689453e-01
-1.295334398746490479e-01
8.751186542212963104e-03
-7.766991853713989258e-02
-4.069099202752113342e-02
-1.982130197575315833e-04
1.270391643047332764e-01
2.160957828164100647e-02
-2.176431566476821899e-01
-7.513007521629333496e-02
2.591654658317565918e-03
-7.592391967773437500e-02
-7.526638358831405640e-02
-2.059981226921081543e-01
1.914842873811721802e-01
-1.335097551345825195e-01
2.098154872655868530e-01
-2.014100849628448486e-01
-1.939797997474670410e-01
6.417609984055161476e-04
-1.565410643815994263e-01
4.404923319816589355e-02
1.438120752573013306e-01
-1.664082556962966919e-01
-1.065980866551399231e-01
1.206860765814781189e-01
-9.066777676343917847e-02
4.361858218908309937e-02
9.707656502723693848e-02
-8.918139338493347168e-02
-1.655426621437072754e-01
6.853145360946655273e-02
-8.675352483987808228e-02
-1.661936491727828979e-01
-8.736592531204223633e-02
-1.386841386556625366e-01
2.266696840524673462e-01
5.083312839269638062e-02
1.082964390516281128e-01
6.335461884737014771e-02
-9.807951748371124268e-03
4.171724319458007812e-01
1.093902066349983215e-01
-8.248879574239253998e-03
2.854793071746826172e-01
-1.993400007486343384e-01
7.225901633501052856e-02
-1.680450737476348877e-01
1.424974203109741211e-01
9.900577366352081299e-02
-1.360283344984054565e-01
9.639381617307662964e-02
8.106677979230880737e-02
-2.042857259511947632e-01
1.762844026088714600e-01
-7.135492749512195587e-03
-8.507082611322402954e-02
-1.633996069431304932e-01
-2.915749251842498779e-01
-1.477562934160232544e-01
9.688145667314529419e-02
5.365059152245521545e-02
-1.363867670297622681e-01
2.269201427698135376e-01
1.336074769496917725e-01
-1.242828518152236938e-01
5.400469899177551270e-02
-1.357535570859909058e-01
5.567106232047080994e-02
1.977275609970092773e-01
-2.010099589824676514e-01
-1.673979312181472778e-01
-1.940753863891586661e-04
5.504290759563446045e-02
-1.556814014911651611e-01
-8.234392851591110229e-02
1.825301721692085266e-02
-9.822551906108856201e-02
-9.422923624515533447e-02
-1.350052505731582642e-01
3.099396452307701111e-02
4.034011438488960266e-02
4.272873699665069580e-02
-3.500472381711006165e-02
4.051317647099494934e-02
1.584783494472503662e-01
-7.691882550716400146e-02
-1.476353704929351807e-01
1.158108934760093689e-01
-2.172063887119293213e-01
2.697381675243377686e-01
1.442963927984237671e-01
1.242595463991165161e-01
1.878046058118343353e-02
3.538787737488746643e-02
-2.683096826076507568e-01
-2.250820845365524292e-01
2.492865920066833496e-01
-2.099964767694473267e-01
-2.204652577638626099e-01
-6.582082062959671021e-02
1.111321225762367249e-01
1.023683771491050720e-01
-7.361742854118347168e-02
8.860687911510467529e-02
-7.047944702208042145e-03
1.826881170272827148e-01
2.201497703790664673e-01
9.027758240699768066e-02
-1.032206043601036072e-02
1.402404904365539551e-01
-1.692486107349395752e-01
9.745699912309646606e-02
-7.953673601150512695e-02
1.778819411993026733e-01
-1.845264285802841187e-01
8.672257512807846069e-02
-1.393907964229583740e-01
1.529545783996582031e-01
6.431186199188232422e-02
1.785414665937423706e-01
-1.328636705875396729e-01
1.722668558359146118e-01
-1.032943725585937500e-01
-1.027578040957450867e-01
5.056463181972503662e-02
1.327789574861526489e-02
-1.477271169424057007e-01
-1.682929098606109619e-01
-4.858820512890815735e-02
1.543742716312408447e-01
2.039722949266433716e-01
1.503451615571975708e-01
-1.639182306826114655e-02
-1.442542970180511475e-01
-1.884795576333999634e-01
1.812352985143661499e-01
-1.068317592144012451e-01
-7.778376340866088867e-03
-1.499223560094833374e-01
-1.327238231897354126e-01
4.263415560126304626e-02
-3.292159736156463623e-02
4.275819659233093262e-02
1.110168639570474625e-02
-2.777826972305774689e-03
-1.222211271524429321e-01
-2.739549055695533752e-02
6.313958019018173218e-02
1.268595010042190552e-01
1.424072831869125366e-01
-1.336642652750015259e-01
-2.386392503976821899e-01
-4.802340641617774963e-02
-3.039104118943214417e-02
5.119213461875915527e-02
2.212407439947128296e-01
8.281800895929336548e-02
-1.052994877099990845e-01
-5.357654765248298645e-02
1.591523289680480957e-01
1.038859859108924866e-01
-1.854874193668365479e-01
-2.015617489814758301e-02
-3.134108483791351318e-01
-9.315815567970275879e-02
1.238041818141937256e-01
-9.489467740058898926e-02
1.316486150026321411e-01
-1.306119263172149658e-01
1.439072042703628540e-01
-1.058813184499740601e-02
1.527477707713842392e-02
-6.636587530374526978e-02
2.303276676684617996e-03
-1.176894903182983398e-01
-1.487437188625335693e-01
-1.381206065416336060e-01
1.247165948152542114e-01
3.382169827818870544e-02
2.771423012018203735e-02
-2.021386176347732544e-01
4.043323919177055359e-02
-4.530406370759010315e-02
-1.598254293203353882e-01
-4.992229864001274109e-03
-2.440815269947052002e-01
-4.735265299677848816e-02
-1.636301726102828979e-01
1.189170330762863159e-01
-1.453192085027694702e-01
3.825993090867996216e-02
9.466643631458282471e-02
-1.300682276487350464e-01
1.088741198182106018e-01
1.356559246778488159e-01
-1.051847785711288452e-01
2.717592380940914154e-02
8.848369866609573364e-02
1.659448593854904175e-01
1.572065204381942749e-01
-1.038647741079330444e-01
-2.112452387809753418e-01
-4.159595966339111328e-01
-1.489042639732360840e-01
-2.759469859302043915e-02
-8.254825323820114136e-02
1.653820723295211792e-01
-1.400223821401596069e-01
-1.536239981651306152e-01
-1.400738507509231567e-01
-2.183727920055389404e-01
2.207875549793243408e-01
-4.267659038305282593e-02
-2.404304780066013336e-02
-6.733607500791549683e-02
-1.516481488943099976e-01
-9.151260554790496826e-02
1.284304261207580566e-01
-1.377423387020826340e-02
1.425018012523651123e-01
3.116794116795063019e-02
-9.766667336225509644e-02
-1.091726273298263550e-01
2.045805007219314575e-01
-2.432482689619064331e-01
3.496285155415534973e-02
-2.987192012369632721e-02
1.602612137794494629e-01
1.154643744230270386e-01
-9.913078509271144867e-03
-1.719155609607696533e-01
6.162287667393684387e-03
-1.177039071917533875e-01
-5.288985371589660645e-02
2.373301051557064056e-02
8.790788124315440655e-04
-1.202212832868099213e-02
-1.213541924953460693e-01
-2.150359898805618286e-01
-2.130932807922363281e-01
2.465080842375755310e-02
-1.072538867592811584e-01
2.740474976599216461e-02
-9.032166004180908203e-02
-1.521668136119842529e-01
1.581557840108871460e-01
1.299150437116622925e-01
1.686328053474426270e-01
2.019236087799072266e-01
-1.744421422481536865e-01
-7.227361947298049927e-02
-1.637174338102340698e-01
9.400653839111328125e-02
6.792930513620376587e-02
1.627389043569564819e-01
-1.583785861730575562e-01
-8.891724795103073120e-02
2.038882970809936523e-01
-1.492181867361068726e-01
-1.780940443277359009e-01
4.667001217603683472e-02
-1.301192641258239746e-01
-3.194216266274452209e-02
1.169974431395530701e-01
1.271305382251739502e-01
1.327448524534702301e-02
-1.913731992244720459e-01
1.215584352612495422e-01
2.120130360126495361e-01
-1.289903819561004639e-01
-1.711786724627017975e-02
-1.463481485843658447e-01
-1.110641583800315857e-01
1.880843564867973328e-02
3.236414864659309387e-02
5.103214085102081299e-02
-1.655120253562927246e-01
-5.044771358370780945e-02
5.772095173597335815e-02
1.446433644741773605e-02
-5.298599973320960999e-02
-9.375552088022232056e-02
1.038211658596992493e-01
-1.507070511579513550e-01
-1.636339277029037476e-01
7.288481295108795166e-02
-9.061458706855773926e-02
7.240036129951477051e-02
-1.332445740699768066e-01
-6.031557917594909668e-02
-4.775490984320640564e-02
1.021407172083854675e-01
4.177793487906455994e-02
-1.496130134910345078e-02
1.486741378903388977e-02
-7.864984869956970215e-02
-1.160090565681457520e-01
-8.571574091911315918e-02
2.751040272414684296e-02
-3.588826581835746765e-02
8.536876738071441650e-02
-3.703617257997393608e-04
-5.093411076813936234e-03
-1.093308329582214355e-01
2.021014504134654999e-02
-1.132368072867393494e-01
6.670483946800231934e-02
7.951607555150985718e-02
9.484112262725830078e-02
1.177705377340316772e-01
2.958026342093944550e-02
-2.325530536472797394e-02
-1.230536475777626038e-01
-2.032246291637420654e-01
8.802829682826995850e-02
1.321647167205810547e-01
-1.063681393861770630e-01
1.135859871283173561e-03
-1.401468068361282349e-01
1.591944545507431030e-01
-1.387650426477193832e-02
1.719568520784378052e-01
9.530537575483322144e-02
-1.792708039283752441e-02
1.465975195169448853e-01
5.352482572197914124e-02
6.387899070978164673e-02
-1.595021188259124756e-01
-8.308020979166030884e-02
-4.465043079107999802e-03
1.074614524841308594e-01
-6.054027751088142395e-02
1.568548679351806641e-01
7.581165432929992676e-02
9.355740249156951904e-02
6.689979881048202515e-02
-2.351964637637138367e-02
5.389628931879997253e-02
-1.044308915734291077e-01
9.110797196626663208e-02
-2.928648609668016434e-03
-2.150550018996000290e-03
-1.140731647610664368e-01
1.531185507774353027e-01
-8.666108548641204834e-02
3.930906578898429871e-02
-7.276166230440139771e-02
-1.176375299692153931e-01
3.761324333027005196e-03
-1.853193342685699463e-01
5.756242200732231140e-02
-1.956355571746826172e-02
-3.708649799227714539e-02
6.713686138391494751e-02
3.285370767116546631e-02
-1.572682410478591919e-01
-1.107053905725479126e-01
8.297976851463317871e-02
-1.119589954614639282e-01
3.554525971412658691e-02
6.048928201198577881e-02
1.497418247163295746e-02
-7.939536869525909424e-02
-2.024715580046176910e-02
-5.337553098797798157e-02
-3.642455488443374634e-02
-3.740340098738670349e-02
5.721649155020713806e-02
5.211769789457321167e-02
-7.268700748682022095e-02
-6.067008897662162781e-02
5.378855764865875244e-02
7.856859266757965088e-02
-4.573802277445793152e-02
-7.705326378345489502e-02
1.123614832758903503e-01
7.440901547670364380e-02
-8.620471507310867310e-02
-2.798279821872711182e-01
-4.761870950460433960e-03
1.475013494491577148e-01
-1.449195295572280884e-01
-1.011578589677810669e-01
-4.131461307406425476e-02
-1.800777316093444824e-01
-7.805903255939483643e-02
1.288558393716812134e-01
1.087264716625213623e-01
-1.463434100151062012e-01
-3.543252497911453247e-02
-6.632848829030990601e-02
5.228415131568908691e-02
-3.304558992385864258e-02
-1.099755242466926575e-01
-1.872095465660095215e-02
-5.217683967202901840e-03
1.994936168193817139e-01
-5.443174019455909729e-02
5.546807497739791870e-02
1.243108734488487244e-01
-2.550761960446834564e-02
2.556231059134006500e-02
-1.292047649621963501e-02
-1.080639101564884186e-02
6.369752436876296997e-02
9.531144052743911743e-02
-5.368443205952644348e-02
1.421841084957122803e-01
9.655128419399261475e-02
7.449584547430276871e-03
1.267459243535995483e-01
-2.616984024643898010e-02
9.144042618572711945e-03
-1.166127696633338928e-01
1.120709776878356934e-01
1.526930779218673706e-01
-9.166041016578674316e-02
-1.272162646055221558e-01
-6.229230016469955444e-02
-1.104107499122619629e-01
8.169990032911300659e-02
6.158864870667457581e-02
-6.297199986875057220e-03
6.225903332233428955e-02
-1.233541872352361679e-02
-1.624795235693454742e-02
-1.009913086891174316e-01
3.269711881875991821e-02
-1.866010576486587524e-01
4.469246417284011841e-02
3.864638507366180420e-02
-1.454156935214996338e-01
-2.504028938710689545e-02
5.708234850317239761e-03
1.686805039644241333e-01
1.201178133487701416e-01
-1.901814639568328857e-01
-1.793204993009567261e-01
-5.209001526236534119e-02
-1.161062866449356079e-01
5.314783006906509399e-02
-1.466545313596725464e-01
-2.184067815542221069e-01
4.431144520640373230e-02
1.266446560621261597e-01
-6.502327322959899902e-02
-1.958504021167755127e-01
6.199551746249198914e-02
1.854452192783355713e-01
1.797992438077926636e-01
3.935080021619796753e-02
1.522135883569717407e-01
-2.726800739765167236e-01
2.074004411697387695e-01
-9.220559149980545044e-02
-1.348276436328887939e-01
1.433330029249191284e-01
-1.055556982755661011e-01
8.978124707937240601e-02
-1.501529216766357422e-01
1.649865359067916870e-01
2.181611955165863037e-01
6.429289281368255615e-02
1.888186782598495483e-01
-1.628047823905944824e-01
-1.375252753496170044e-01
3.442943096160888672e-02
1.204403266310691833e-01
-1.318687200546264648e-01
1.316719800233840942e-01
-9.973923861980438232e-02
-2.051051259040832520e-01
8.311051875352859497e-02
-1.638643741607666016e-01
-2.275567799806594849e-01
2.532246522605419159e-03
9.779717028141021729e-02
7.436165213584899902e-02
3.762309253215789795e-02
-1.995442956686019897e-01
-2.099002897739410400e-01
2.012520432472229004e-01
-1.132197901606559753e-01
1.681170314550399780e-01
1.805525422096252441e-01
1.462564468383789062e-01
-1.744397729635238647e-01
-7.495126873254776001e-02
-2.239068895578384399e-01
1.108423471450805664e-01
-1.392583698034286499e-01
-2.838756144046783447e-01
-1.598225086927413940e-01
1.592300832271575928e-01
2.359059825539588928e-02
-2.159878611564636230e-02
-7.698968052864074707e-02
-8.356541395187377930e-02
-8.453541994094848633e-02
-1.442957818508148193e-01
4.499223455786705017e-02
1.051979809999465942e-01
4.094946011900901794e-02
-1.216286793351173401e-01
1.253573503345251083e-02
-1.214380636811256409e-01
-9.815165400505065918e-02
-5.449690297245979309e-02
-1.914607733488082886e-02
-1.946719437837600708e-01
1.665834635496139526e-01
-7.626545429229736328e-02
8.461749553680419922e-02
2.249225527048110962e-01
8.661949634552001953e-02
1.429547667503356934e-01
1.311394721269607544e-01
1.862280368804931641e-01
9.904248267412185669e-02
1.637824624776840210e-01
-6.121284142136573792e-02
-1.278513222932815552e-01
7.620874326676130295e-03
1.416472792625427246e-01
-2.369592338800430298e-02
-1.974216103553771973e-01
5.843762680888175964e-02
1.729016155004501343e-01
1.358158915536478162e-04
-3.634118940681219101e-03
-3.762738034129142761e-02
-2.078987658023834229e-01
-5.202535074204206467e-03
-4.494452103972434998e-02
-1.854131370782852173e-01
-1.028711721301078796e-02
1.535356193780899048e-01
6.719189882278442383e-02
2.771279513835906982e-01
-1.242922544479370117e-01
3.802935406565666199e-02
-4.868699610233306885e-02
-1.341491043567657471e-01
3.352155908942222595e-02
7.878955453634262085e-02
-9.761868417263031006e-02
1.143255978822708130e-01
1.652405112981796265e-01
2.068928927183151245e-01
2.646980434656143188e-02
-1.928686909377574921e-02
1.887457072734832764e-02
3.802579268813133240e-02
-9.199934452772140503e-02
-2.920990586280822754e-01
-2.734182476997375488e-01
-3.984937667846679688e-01
-2.675525546073913574e-01
7.546924054622650146e-02
-1.008479520678520203e-01
-1.260321028530597687e-02
-4.132615774869918823e-02
1.113903373479843140e-01
7.988512516021728516e-02
-1.528973579406738281e-01
1.811652183532714844e-01
-2.747351527214050293e-01
-6.441301107406616211e-02
2.199468165636062622e-01
8.874972164630889893e-02
-9.405833482742309570e-02
-1.650751233100891113e-01
1.472404152154922485e-01
1.814546585083007812e-01
-1.309627294540405273e-01
-6.351149082183837891e-02
-1.572035253047943115e-01
9.481373429298400879e-02
6.308111548423767090e-02
1.757476925849914551e-01
-7.513062655925750732e-02
-1.497791409492492676e-01
-1.546570844948291779e-02
-8.702404797077178955e-02
-5.970985442399978638e-02
8.873837441205978394e-02
-2.212110012769699097e-01
2.687571942806243896e-02
-1.755771040916442871e-01
-1.034902706742286682e-01
-8.456803858280181885e-02
-4.923132434487342834e-02
-4.165036231279373169e-02
6.742749363183975220e-02
1.059618741273880005e-01
1.480023264884948730e-01
8.144060522317886353e-02
2.580059878528118134e-02
1.990864425897598267e-02
5.559448152780532837e-02
-9.146548807621002197e-02
9.534624218940734863e-02
-1.352267861366271973e-01
-8.352907747030258179e-02
3.071433305740356445e-02
-3.788259625434875488e-02
6.054820492863655090e-02
1.090850755572319031e-01
4.727301746606826782e-02
2.990435808897018433e-02
-3.309316188097000122e-02
-5.187679454684257507e-02
-2.931698039174079895e-02
-3.529541939496994019e-02
-7.537664473056793213e-02
1.419418025761842728e-02
1.423251777887344360e-01
-5.363153293728828430e-02
1.179979667067527771e-01
8.264896273612976074e-02
1.214476376771926880e-01
6.440998613834381104e-02
-3.068550862371921539e-02
8.811987936496734619e-02
-1.319508552551269531e-01
-1.294675618410110474e-01
9.112490713596343994e-02
1.336207985877990723e-01
-6.684684008359909058e-02
1.203260943293571472e-01
4.344500973820686340e-02
5.231085047125816345e-02
1.480368971824645996e-01
6.713239941745996475e-03
-4.111729189753532410e-02
1.508682966232299805e-01
-2.068208530545234680e-02
-5.060127004981040955e-02
-9.875541925430297852e-02
1.667582094669342041e-01
1.284258365631103516e-01
-2.434755302965641022e-02
-1.495202165096998215e-02
-1.159070897847414017e-02
-1.270772814750671387e-01
4.666201025247573853e-02
-1.161015853285789490e-01
-1.276665646582841873e-02
-7.359595503658056259e-03
-1.772823370993137360e-02
9.123357385396957397e-02
3.778593242168426514e-02
5.860686302185058594e-02
-4.285096004605293274e-02
5.473368801176548004e-04
5.059989541769027710e-02
7.565746456384658813e-02
-4.518084600567817688e-02
-1.265127770602703094e-02
-1.212180331349372864e-01
1.099798530340194702e-01
1.125376522541046143e-01
9.681081771850585938e-02
8.642215281724929810e-02
5.847651511430740356e-02
1.235940083861351013e-01
1.479590125381946564e-02
7.289832085371017456e-02
7.859152555465698242e-02
-6.766946613788604736e-02
6.190034747123718262e-02
5.863972753286361694e-02
-8.228423446416854858e-02
-4.860281199216842651e-02
-9.298787266016006470e-02
-6.831076741218566895e-02
1.295365244150161743e-01
1.330224722623825073e-01
-1.868855021893978119e-02
3.638563305139541626e-02
-2.024319954216480255e-02
-6.044739275239408016e-04
2.754857577383518219e-02
-5.155679956078529358e-02
-6.953000556677579880e-03
1.483861804008483887e-01
5.929809808731079102e-02
-6.416860967874526978e-02
8.052507415413856506e-03
-1.167810484766960144e-01
-1.149112707935273647e-03
7.845035195350646973e-02
3.582030907273292542e-02
1.859868131577968597e-02
-7.365398854017257690e-02
2.116153202950954437e-02
7.420028001070022583e-02
-2.660218812525272369e-02
-5.666225403547286987e-02
1.149761378765106201e-01
6.657131016254425049e-02
1.004763990640640259e-01
-1.176602169871330261e-01
1.070481836795806885e-01
-8.313153684139251709e-02
1.422874070703983307e-02
1.187756285071372986e-01
-1.041801795363426208e-01
-2.372529543936252594e-02
-1.365381926298141479e-01
1.426726728677749634e-01
3.936773538589477539e-02
4.395929723978042603e-02
-8.070404827594757080e-02
-2.963599283248186111e-03
-1.490133553743362427e-01
7.459831424057483673e-03
1.755230575799942017e-01
-1.394254118204116821e-01
-4.529372788965702057e-03
4.243769496679306030e-02
4.272110015153884888e-02
3.893354162573814392e-02
1.231449842453002930e-01
-7.979357615113258362e-03
3.790859878063201904e-02
1.010109409689903259e-01
-2.108578756451606750e-02
9.947995841503143311e-02
3.229716420173645020e-02
4.318431019783020020e-02
-7.083810120820999146e-02
1.277370303869247437e-01
9.859018959105014801e-03
7.985539734363555908e-02
2.157822810113430023e-02
1.304542720317840576e-01
-1.036547273397445679e-01
1.821974292397499084e-02
-4.434762150049209595e-02
7.188083976507186890e-02
7.508079707622528076e-02
-1.232649683952331543e-01
2.449667546898126602e-03
5.536719784140586853e-02
9.123683720827102661e-02
1.367793083190917969e-01
1.091653183102607727e-01
2.236197143793106079e-02
9.212595969438552856e-02
-1.207018941640853882e-01
7.851937413215637207e-02
-2.025765832513570786e-03
1.068807914853096008e-01
4.566286504268646240e-02
1.294683665037155151e-03
9.936927258968353271e-02
-6.041331961750984192e-02
5.409328639507293701e-02
6.493959575891494751e-02
-3.966694325208663940e-02
3.789633139967918396e-02
-1.408322006464004517e-01
-3.371426835656166077e-02
3.310531750321388245e-02
6.886347383260726929e-02
-1.397005468606948853e-01
6.503752619028091431e-02
6.448440998792648315e-02
1.186518073081970215e-01
-1.332879513502120972e-01
-5.754011124372482300e-02
-1.168202515691518784e-02
-6.066676974296569824e-02
-2.876838436350226402e-03
-1.184018030762672424e-01
1.216289922595024109e-01
-3.224658593535423279e-02
8.151425421237945557e-02
-8.081986755132675171e-02
2.562055736780166626e-02
-8.788724988698959351e-02
1.562828868627548218e-01
1.200429052114486694e-01
1.415806561708450317e-01
1.054130867123603821e-02
6.401586532592773438e-02
-1.343870759010314941e-01
1.534953806549310684e-02
-3.097932226955890656e-02
-1.598606854677200317e-01
-1.029824465513229370e-01
-1.662673652172088623e-01
3.394699841737747192e-02
-1.475504785776138306e-01
-1.229951456189155579e-01
4.071345552802085876e-02
-6.182705610990524292e-02
1.258625835180282593e-01
-8.179073035717010498e-02
5.966070294380187988e-02
1.110545545816421509e-02
6.808709353208541870e-02
8.723318576812744141e-02
-4.715516790747642517e-02
1.425786614418029785e-01
1.823051832616329193e-02
-9.205165505409240723e-02
4.767873138189315796e-02
-2.943318337202072144e-02
-7.623467594385147095e-02
-2.442268840968608856e-02
-3.996169567108154297e-02
-5.327677354216575623e-02
-8.765490353107452393e-02
-5.551323667168617249e-02
1.103913132101297379e-02
8.384899049997329712e-02
1.536276489496231079e-01
-7.127204537391662598e-02
-6.717854738235473633e-02
-1.126569584012031555e-01
1.695669256150722504e-02
4.004516522400081158e-04
-4.140335693955421448e-02
9.948618710041046143e-02
-2.025982886552810669e-01
1.237758919596672058e-01
-7.940523209981620312e-04
-9.252635762095451355e-03
