-2.147421836853027344e-01
-2.014532536268234253e-01
8.191745728254318237e-02
1.334184557199478149e-01
-4.459859132766723633e-01
-3.871175944805145264e-01
-2.446434050798416138e-01
4.334428533911705017e-02
-1.259782910346984863e-01
-6.171215791255235672e-03
1.529760807752609253e-01
-2.219937741756439209e-01
5.731970444321632385e-02
-3.911090195178985596e-01
1.350460052490234375e-01
1.948194950819015503e-01
-1.038320139050483704e-01
2.220476567745208740e-01
1.510171890258789062e-01
1.731321513652801514e-01
9.309439361095428467e-02
1.483287662267684937e-01
1.674013733863830566e-01
-3.745009899139404297e-01
-5.032891780138015747e-02
-2.346936054527759552e-02
1.503264904022216797e-01
2.048858441412448883e-02
1.471440792083740234e-01
1.761199533939361572e-01
2.630243599414825439e-01
1.353454291820526123e-01
5.755618214607238770e-02
-2.284450829029083252e-01
1.431223154067993164e-01
-3.305394649505615234e-01
1.373260915279388428e-01
5.215065553784370422e-02
-1.017664298415184021e-01
1.738866269588470459e-01
7.070270180702209473e-02
1.559060364961624146e-01
-1.656296104192733765e-02
1.930270045995712280e-01
1.759560704231262207e-01
1.459949463605880737e-01
8.137224614620208740e-02
-1.264257822185754776e-02
-1.663330793380737305e-01
1.031474117189645767e-02
1.782774478197097778e-01
-5.434693768620491028e-02
2.016610056161880493e-01
-3.280534446239471436e-01
4.259927198290824890e-02
-3.981913030147552490e-01
1.218631640076637268e-01
-2.207793891429901123e-01
-3.951821010559797287e-03
-2.481076717376708984e-01
-1.054228246212005615e-01
1.573196500539779663e-01
-2.798430025577545166e-01
1.666853427886962891e-01
-2.825989425182342529e-01
-2.970582544803619385e-01
-5.153362154960632324e-01
1.212657839059829712e-01
1.229766979813575745e-01
-1.355446577072143555e-01
-4.226731881499290466e-02
-3.458285629749298096e-01
-2.798058688640594482e-01
2.073214501142501831e-01
1.702674776315689087e-01
-4.173970222473144531e-01
2.168000340461730957e-01
-3.348996937274932861e-01
1.854061037302017212e-01
1.705896705389022827e-01
1.860244013369083405e-02
-3.338025510311126709e-01
-2.781144678592681885e-01
-3.922567963600158691e-01
2.159819304943084717e-01
1.208641305565834045e-01
4.575719684362411499e-02
1.211542859673500061e-01
-2.274474054574966431e-01
2.407461553812026978e-01
1.959027945995330811e-01
1.870000660419464111e-01
2.231113165616989136e-01
5.880723521113395691e-02
-5.495779216289520264e-02
1.842969655990600586e-01
3.934623673558235168e-02
-4.094074368476867676e-01
-6.302583962678909302e-02
-1.127886623144149780e-01
-4.214670658111572266e-01
-3.710121512413024902e-01
2.143611460924148560e-01
1.163502559065818787e-01
1.660446971654891968e-01
-2.203353196382522583e-01
-2.295731902122497559e-01
1.820480972528457642e-01
2.381134778261184692e-01
-2.548394724726676941e-02
1.276997774839401245e-01
-5.342144370079040527e-01
-3.404285311698913574e-01
-4.429408311843872070e-01
-7.905209064483642578e-02
2.006855010986328125e-01
2.336381822824478149e-01
6.351599097251892090e-02
2.523201107978820801e-01
9.035664051771163940e-02
5.472967401146888733e-03
1.400817930698394775e-01
1.640654504299163818e-01
9.256550669670104980e-02
1.773380786180496216e-01
-3.532180786132812500e-01
1.685823202133178711e-01
1.607097089290618896e-01
1.454645693302154541e-01
1.962313652038574219e-01
1.865789443254470825e-01
-1.605149805545806885e-01
1.960703879594802856e-01
2.653553485870361328e-01
-4.300143569707870483e-02
2.070951610803604126e-01
1.270960122346878052e-01
-2.735645174980163574e-01
-3.783516883850097656e-01
2.255598604679107666e-01
-4.105312824249267578e-01
1.624180674552917480e-01
-3.436146080493927002e-01
-8.392714709043502808e-02
-2.556788027286529541e-01
-2.259662896394729614e-01
1.981887370347976685e-01
1.175005659461021423e-01
2.057752609252929688e-01
-4.284991025924682617e-01
-2.453313618898391724e-01
2.752201259136199951e-01
1.227282434701919556e-01
-3.841874897480010986e-01
2.176618129014968872e-01
-3.694189190864562988e-01
1.432099938392639160e-01
-4.039420783519744873e-01
9.018818289041519165e-02
2.242535911500453949e-02
-2.514196336269378662e-01
2.386330217123031616e-01
-2.445932775735855103e-01
-2.263976819813251495e-02
2.334048300981521606e-01
-3.138836324214935303e-01
1.086516007781028748e-01
2.231046259403228760e-01
-2.636873424053192139e-01
2.880670689046382904e-02
2.155865170061588287e-02
-2.733225524425506592e-01
2.087490409612655640e-01
-1.636241376399993896e-01
-4.062364101409912109e-01
6.962427496910095215e-02
-1.019680052995681763e-01
1.874020248651504517e-01
-2.063236385583877563e-02
9.256958961486816406e-02
-1.032868623733520508e-01
2.547323107719421387e-01
2.283750027418136597e-01
2.134508192539215088e-01
-2.896775007247924805e-01
-6.386119872331619263e-02
-2.088823616504669189e-01
6.561206281185150146e-02
2.060721963644027710e-01
1.633026897907257080e-01
-1.070683822035789490e-01
-1.828751564025878906e-01
2.698317766189575195e-01
2.666755914688110352e-01
2.871024906635284424e-01
-4.817852675914764404e-01
2.837629616260528564e-01
-1.890061199665069580e-01
2.307762652635574341e-01
-3.327079415321350098e-01
-5.189864039421081543e-01
2.292658835649490356e-01
-2.361848801374435425e-01
2.553598582744598389e-01
-2.584760785102844238e-01
1.088396757841110229e-01
-1.806744486093521118e-01
-2.746379375457763672e-01
2.858196496963500977e-01
-1.304672658443450928e-01
1.934435218572616577e-01
-2.554811835289001465e-01
-4.391982555389404297e-01
2.158109992742538452e-01
2.772149741649627686e-01
-2.332994192838668823e-01
-5.721294879913330078e-01
-8.660946041345596313e-02
-4.712345600128173828e-01
-2.748904377222061157e-02
-4.393014013767242432e-01
-1.955599784851074219e-01
-5.339165776968002319e-02
-6.348012685775756836e-01
-5.061055421829223633e-01
1.514815986156463623e-01
2.632467746734619141e-01
-1.231261193752288818e-01
8.474730700254440308e-02
1.255862861871719360e-01
-3.110372126102447510e-01
-4.252313673496246338e-01
-3.905756771564483643e-01
-5.422532558441162109e-01
2.993111610412597656e-01
-1.695045977830886841e-01
-3.420829176902770996e-01
2.166797518730163574e-01
2.779247798025608063e-02
2.409703284502029419e-01
3.148246407508850098e-01
2.226249426603317261e-01
3.239093720912933350e-01
-5.526972413063049316e-01
-2.955414354801177979e-01
4.789364710450172424e-02
-2.261612266302108765e-01
-3.527856469154357910e-01
2.574687302112579346e-01
1.759417504072189331e-01
-5.306683182716369629e-01
2.942544221878051758e-01
-2.230010181665420532e-01
2.477399557828903198e-01
-2.283408343791961670e-01
-2.743397653102874756e-01
-2.316009700298309326e-01
-2.786388397216796875e-01
-1.151880025863647461e-01
-5.865057557821273804e-02
1.200520396232604980e-01
2.976022660732269287e-01
-3.081444501876831055e-01
2.806726694107055664e-01
3.598179221153259277e-01
-8.443027734756469727e-02
2.290595322847366333e-01
-1.133503317832946777e-01
2.094293385744094849e-01
2.820483744144439697e-01
-1.980459243059158325e-01
-4.022441208362579346e-01
-2.113346755504608154e-01
2.847225368022918701e-01
-3.873281180858612061e-01
3.149390518665313721e-01
-3.903659582138061523e-01
-3.024222850799560547e-01
-4.510572254657745361e-01
2.934106886386871338e-01
2.738641500473022461e-01
1.319089531898498535e-01
-2.541483342647552490e-01
-1.587963551282882690e-01
-3.286117315292358398e-01
3.076396286487579346e-01
-3.340586125850677490e-01
5.807767063379287720e-02
3.516968488693237305e-01
6.978975981473922729e-02
-3.729254007339477539e-01
4.359060823917388916e-01
-9.332839399576187134e-02
3.013329207897186279e-01
-2.636949419975280762e-01
-2.877993583679199219e-01
-9.444219619035720825e-02
3.359598517417907715e-01
-3.370038270950317383e-01
-4.250475466251373291e-01
-4.075895249843597412e-01
-5.249567627906799316e-01
-4.353010058403015137e-01
3.539261221885681152e-02
1.966087818145751953e-01
-2.881273329257965088e-01
-2.393794804811477661e-01
2.898619472980499268e-01
-3.075765669345855713e-01
-2.436729073524475098e-01
-2.431035786867141724e-01
3.158712685108184814e-01
-4.273764789104461670e-01
-3.231627941131591797e-01
2.923471927642822266e-01
-2.384713292121887207e-01
-3.336707353591918945e-01
-2.834698855876922607e-01
4.167440831661224365e-01
-3.208759725093841553e-01
